// Copyright 2022 ETH Zurich and University of Bologna.
// Licensed under the Apache License, Version 2.0, see LICENSE for details.
// SPDX-License-Identifier: Apache-2.0

#include "network.h"


// This file is used to initialize the network
// parameters with the same values as in the
// Python golden model implementation.
network_fp32_t nn_linear_baseline_t = {
	.IN_CH1 = 28,
	.IN_CH2 = 28,
	.OUT_CH = 10,
	.learning_rate = 0.5,
	.dtype = FP32
};


static float nn_linear_baseline_weights_dram [10][784] = {-0.031560393859897874, -0.031220702326815886, -0.02688670908754221, -0.031958559688494495, 0.0018694212039115602, -0.0016582318723228826, 0.03251683573208154, 0.030625184389816394, -0.02974690223193801, -0.02623995198902153, -0.024496178749235136, -0.008902354853535672, 0.02446569505939191, 0.02646436012740696, -0.008747646052102898, 0.008031184928127948, -0.029420729648959212, 0.01437013513927148, 0.00881450595387147, -0.0044800715863819885, -0.030376080109017996, 0.013102158364761496, -0.013411522805502674, -0.013638658769766252, -0.03347570246947031, -0.03283096659571734, 0.030850627846785612, -0.02484815518410254, -0.016782506303688507, -0.026397607669135393, -0.01772462707561974, -0.019042272210146583, -0.019595350086179526, -0.013030871588783466, 0.008172020342970399, 0.006983667966859888, 0.02492877469629074, -0.033393170803144294, -0.013625443287390673, -0.004835446110332891, 0.031021343299206892, -0.02697764692323844, -0.005164617355733353, -0.01512972317216705, 0.034385789538658916, 0.024687894935655888, -0.008265855477337245, -0.028620951245796212, 0.01161771391801586, 0.005852461927730415, 0.01495139402269543, -0.0019980345537277994, -0.029012360056801134, 0.0076009861625556275, -6.056760815225421e-05, 0.0356025466421935, -0.019097206577438082, -0.009078212437143802, 0.008963208919662362, -0.015963695916657774, -0.03492247215951814, 0.015915514390541126, -0.017541456673786694, 0.009343622931593172, -0.010437161342271739, -0.0041723497935981825, 0.008058013107896063, 0.02853005835897382, 0.012837001788153135, -0.02539694570127634, 0.004092332120674566, 0.03355119206183898, -0.013620955123907375, -0.031070906814765827, 0.010274093877994979, -0.035237898480022456, 0.004404361110414106, 0.01024535473077222, -0.025871050321135163, -0.014298271623350027, 0.00970046350065555, 0.0010400312100367626, 0.012796711765361377, -0.023749781648831535, 0.027985391236756765, 0.03396033102860969, -0.019039610750410028, 0.01555004374373951, -0.03487850729930664, -0.02884563776674017, 0.030643087513518106, 0.01609413449811319, -0.02944507865464626, -0.00030649607573512186, 0.03148536191900533, -0.014758313028008879, 0.004059134574034887, 0.007429331060505814, -0.031545045057824427, 0.032974658752141894, -0.009501903541987345, -0.009391564118173308, 0.021503569850770905, 0.003770000441281467, 0.014010740666098372, 0.00360620377463537, -0.0025554200635266667, -0.009376178364711845, 0.0056164585812968106, 0.011061518494247222, -0.0063587360795928395, -0.022771907517983626, -0.03422976819603633, -0.0335329500050651, -0.02064977014084346, 0.017948881439977738, 0.03003022392955638, -0.028894308072841313, 0.032916405653281265, 0.005207958369426121, 0.009817706587926085, -0.021786439204289527, -0.016349557235293813, -0.008118756425985347, 0.022229625418871586, 0.015483209082752516, -0.01469682446313406, 0.01973098703048088, -0.018716874645238246, -0.034966348440666796, 0.025552221190247415, 0.02691339398915536, -0.0011230785706270294, -0.004580523486630556, -0.030065871365034722, 0.029972254166065724, -0.001200009819371287, 0.020201833038199724, 0.015245167353910943, -0.020735050817373393, -0.02913818199716079, 0.010724670420519642, -0.009647856021929191, -0.021515432491066497, -0.01047675957882438, 0.0031765619952684055, -0.00801791543228448, -0.0009547161702762597, -0.005107708213985445, 0.011996825935883129, -0.02653392266030506, 0.008767900490946674, 0.01747790510091047, -0.007196308960806879, 0.008009759115937383, 0.01637157687789113, 0.0024000944700692645, 0.021212249812209934, 0.01297849390029691, -0.00806540069785272, -0.020010012548288936, 0.033023969903099075, -0.0022254194932514143, -0.016675308212829334, 0.02953174449188785, 0.014250624204279472, 0.032684173182037264, 0.0349929569725585, 0.0005350405270304297, -0.02508915063453039, 0.01084444251200295, 0.03370512251000862, 0.019040884614026594, 0.02595364532014257, -0.013293705797994096, -0.028397017188642324, -0.032822731645719666, -0.03328597485163059, -0.005499095994741354, 0.010205973069671795, 0.00027778268596526497, -0.007587153262015145, 0.019466622946874557, 0.020785661962522763, -0.01682491886445392, 0.010524040459051285, 0.012218815332424391, -0.032052431221148224, 0.016028106581455526, -0.013323034686575648, 0.012461524875482537, -0.0001521942174963328, -0.031702147802749846, 0.006556721711400949, -0.011927731416179388, -0.022771470875132805, 0.018373211678816215, -0.01558566582801377, 0.018071563056813858, -0.022491731379028934, 0.027200693775192415, -0.012954339448554286, -0.034600128945601154, -0.0186449572362814, 0.033336761361756596, 0.02396836867614369, 0.02240855149314891, 0.025114978165757394, -0.009561937743562374, -0.011792887777469523, 0.021914396477213882, -0.03561655288341595, -0.020239149009927085, -0.014032357899623323, 0.0030746466117369292, 0.027580278052388454, -0.005815091173216031, 0.02245723746397785, -0.0037013549746609292, -0.020747364557132726, 0.0208004647684368, 0.028286543660171824, 0.024708731134076803, -0.029859725532101866, -0.026110299980237766, 0.013627651414559468, 0.016114574803381528, -0.031132953959119303, 0.029381544457121732, 0.005136572783142009, 0.0195389253779278, -0.007087787726832875, -6.009275831293197e-05, 0.012588496350137288, 0.025545536796885527, 0.005852716282210393, -0.034157256671217516, 0.021363488897392296, 0.03051921448039251, 0.015904596688083455, -0.03148666552323908, 0.0104096371637187, 0.010161974889687833, -0.029642283994171275, 0.011081455539697955, -0.02168412444420174, 0.030081086593524476, 0.014933605612770795, -0.00045003276785497503, 0.03309740595634522, -0.033475661083731546, 0.012868206532036646, -0.026577872260132702, -0.031694702241084456, -0.027060393854997263, -0.012214919679796288, -0.018215763765977434, -0.0022127311564571167, -0.0010515257148697324, -0.03446663417411814, 0.0024860815028978317, 0.009306408972290086, 0.02800428030026477, 0.002795433837706156, 0.025717644097149866, -0.02899112535647694, -0.0008403186586472623, 0.01338559249166077, -0.018723094367300575, -0.01599242699111735, 0.005117907516644894, -0.027697895043000454, 0.01886506119842902, -0.013095989172997376, -0.019339663465198092, -0.02818759414487533, 0.029180669589517903, -0.026705058270150815, 0.0091552528920795, 0.02024238623103167, 0.016495155832329838, -0.020422048990495805, -0.021864905396022285, -0.0017852293261757602, -0.013019334519722052, 0.007841564183666645, 0.0031964491109036887, -0.011699166235212157, 0.024034664935163173, -0.033820225156899045, -0.0025344150321359644, -0.0007786396968456541, 0.013281866593548748, 0.012173977480017409, -0.020004431634247682, 0.0038703110514027622, 0.03191444776885579, -0.035610336397313105, 0.012834973242118098, 0.020828377928838585, 0.02458341443130075, -0.020407969224319873, -0.019948186209807855, -0.003110949027433101, -0.033210102737105965, 0.003217866404971641, -0.008348883404217316, -0.006080728222046067, 0.0029520443106005796, 0.011747034397150396, -0.03475203704688725, 0.012762555083565472, 0.029880121242443936, 0.00028297154811338495, -0.029479216564911544, -0.010345163055832036, 0.002545631210926404, 0.02905470695542377, -0.008353082031787085, -0.0001819733283396352, 0.022587268484432002, -0.0005389900593758386, -0.02969878283180516, -0.013955639489358263, 0.0045781652142748985, -0.020508675673643808, -0.013063756545172587, 0.02172053643769264, -0.011361597343304282, -0.010495473111111311, -0.03342495105448974, -0.030797545563675588, -0.001580635415497086, 0.015483757148438582, -0.020470615994692146, -0.006243558903649542, 0.03451912673917941, -0.029192680109219302, -0.0279995026874166, -0.009688453559724768, 0.02352196172009121, 0.012156021469127126, 0.015530193351807473, 0.0020129901945141588, -0.025878155297588433, -0.01707206626804448, 0.012270412672601006, 0.02018633096196396, -0.020953654721650474, 0.01865039326246495, -0.005495565242771259, -0.02920094424052072, -0.03538933195510009, 0.013549927842656795, 0.0017708350553377445, 0.012477021362154728, -0.014631514304061089, 0.012028273051248197, 0.006538214034669563, 0.00507980337035118, 0.0337148929789079, -0.0032655467816642414, 0.00013626681750771624, -0.0054870734678176105, -0.027148497924134738, 0.017013645867853047, 0.0013046486542826633, -0.02442028840322628, 0.03430323171483221, -0.03200380411866319, -0.007617460752927027, -0.012978654624287123, -0.0057726376991992946, 0.02127628110320975, 0.021024998791648278, -0.016993679816497353, -0.013954377800612077, 0.011495090914609436, -0.03346793104258502, -0.018673198698675467, -0.03560298875773432, 0.029837075244924127, -0.030361279874251648, -0.031235966028951692, -0.0053219312277510734, 0.0020671901560019063, 0.007629140716684976, -0.0074154505228676915, -0.01721380204744737, -0.007317693712896335, 0.0038948308279770677, -0.032785172881748766, 0.028074579580049757, -0.02901872292436814, 0.03326061341137904, -0.022070831507727318, -0.03362041750646117, 0.0056975459999622415, 0.020281544409777776, -0.014013282290998455, -0.021594170920205585, -0.0051176706611267666, 0.018347518667534042, 0.006063712992603078, -0.0027436768111102705, -0.03345836571336172, -0.029639650975455643, -0.021749906589593318, -0.019837214362854697, 0.03250814692991767, 0.03245132162914563, 0.016207479639390683, 0.02453175553325073, -0.00708598773732666, -0.03552743083121397, -0.005968771944586004, -0.0003105367101626391, -0.02821484450942953, -0.013013764356616766, 0.02593026659129489, -0.02472282200894873, -0.02585955642071442, 0.020720786058191117, 0.005198137223659717, 0.027166332378770315, -0.004631108697102505, -0.01753872677136998, -0.034416520734658444, 0.012424288675835653, 0.018088816528727195, 0.024782851356438443, 0.0052689769255731935, -0.027815278364293632, -0.028625595961953423, -0.01780460813755741, 0.006055975729275385, -0.03438318127728879, -0.02361454650685073, -0.00827921640515936, 0.007306933856901937, 0.017688350446839543, 0.009846911474821092, 0.0004702930157021802, -0.030349701460430707, 0.008108521757302636, 0.033220526412340586, -0.012129899709948948, 0.029894261708199792, 0.005687363085787679, -0.035037501142127635, 0.006920827388340695, 0.007993074999004177, 0.021905975638939645, -0.020443734773481492, 0.01660287156962829, 0.02830077081687711, -0.017695413139817127, 0.022642802220515915, -0.0136350311220079, -0.011493282073059972, 0.013839613464571885, 0.005906539106765909, 0.028564476321064514, 0.017088080729977417, 0.0020990848617177577, 0.016782436293019398, -0.02583149218929424, 0.027929834923407677, 0.030305230152124305, 0.012839378701252758, 0.028025353905155464, -0.013439738545927282, -0.00774941026529636, -0.03134958936824857, 0.01656198244923617, 0.006563831026748964, -0.026045518160201325, -0.0147453479967417, -0.02631422194635702, -0.013972106449419073, -0.035113463510475666, 0.028094063298836663, 0.02857858779877834, -0.01864662521481322, 0.01255108234547973, 0.005114410165402229, -0.03041536756057937, -0.0062426172425950445, -0.004090477471218973, -0.01712664895324038, -0.022497616265294663, -0.03345941354002042, -0.030238316070014804, -0.016275826629626445, 0.011024249903419459, 0.011812251955943367, -0.012305625304565065, -0.021389710550816097, 0.004326148031434202, 0.018543769742449614, 0.023942846308979103, 0.03038298333588691, 0.02946800542581829, 0.010871464960298527, -0.012182124309620013, -0.03289263135415754, 0.00563420827730635, 0.004019496799599144, -0.022126830760442986, -0.016174330671766227, -0.016120402500406184, 0.004409826917253739, -0.019433434463859072, 0.014203260680194523, 0.007702833067834781, 0.03568344154545645, 0.035497419411873225, -0.03477040425811228, 0.03153664675052005, -0.0318717828226441, 0.01997882126325549, -0.031108365978872864, -0.008236822769838725, 0.011397040540200187, 0.028370859401969435, 0.027399370902669987, 0.0035956973297978723, 0.03126307942771806, -0.003069772878406421, 0.032244194974708464, 0.02294760207946874, -0.005585849288165808, -0.02769777048772578, 0.0017238543765725992, 0.027586961682212068, 0.027157536815956583, -0.030153227606822708, 0.004922602554213443, 0.0153137344988867, 0.001320336595345647, 0.028322024847159906, -0.003881856127205985, -0.017109534460453903, 0.010214150190323734, 0.030475039035812966, 0.0012325310254944447, 0.004710845340481432, -0.008435062062223005, 0.006440349177316118, 0.01486171420545192, -0.014652991029969713, -0.016592440728264837, -0.01391417748676832, 0.021497593212407778, -0.00810140228891909, -0.011934805258481847, -0.0026294340390486787, 0.031922967792775904, 0.001506764025969514, -0.007574195883568533, 0.03252526027967822, -0.02495728550123967, -0.015087481319437053, 0.020533833519483385, -0.03547758347348318, -0.02489901826571319, -0.013156429194872428, 0.03204652551249396, 0.015500706481832445, -0.01948589776426354, 0.010747822724425505, 0.030097685898075058, -0.027169523989832276, -0.03331679876864734, -0.027080444007537428, 0.008444813199444534, -0.02096545834722508, 0.010818203588602034, 0.02529722516597145, 0.02746565226949892, -0.013568638193223815, -0.02809246537325444, 0.027275778477989128, -0.015478535749885248, -0.02107529709509662, 0.02273066866613157, -0.009421670870664494, 0.03183393683158204, -0.018722854860642693, -0.028805378494927193, -0.012996479522583402, 0.0008198595069909672, -0.000685293453030438, 0.03047150924073673, 0.00876082264755823, 0.01238804256017058, -0.024410895854733494, 0.02936395924211913, 0.021994223725764064, 0.014208753510565084, 0.034214712724775234, 0.00378729096886823, 0.001248905720189153, 0.011627897150697349, -0.031267420413715455, 0.01249396310504795, 0.00510385697968562, -0.033951857132625635, 0.0356122878653497, 0.03061500009750538, 0.0008046317880693876, -0.021964193032625992, 0.03142849676216403, -0.004107389734233706, -0.029354737248499796, 0.03190607266037696, -0.029451778868435925, -0.032469822055915365, -0.02855573093833229, -0.004582520986349877, 0.028503315321275122, 0.01767235267471063, 0.01620479733745578, -0.01406570039079763, -0.022444801332085047, 0.0025097482976148317, -0.016350074478011265, 0.022891864175161907, -0.026628318931746615, 0.035062215434378464, 0.031424613924213786, -0.008314444526921887, 0.029671183641169083, 0.019173146332064975, -0.000837705230202617, -0.014247575686772618, 0.02143977019323059, 0.005685469248266619, -0.006418747990294579, 0.01271180365030713, -0.0281564997276207, 0.008437866507597924, -0.03246286633340525, 0.015327233428122993, -0.01622515973988906, 0.021419536826503705, 0.012667638028347217, 0.021538984949394616, -0.01980799781176572, 0.022115859971118146, -0.034803711203184075, 0.03529953060226699, 0.025042995648461193, 0.011431271230678322, -0.03294643114435522, -0.015395492186797484, -0.02335329268840953, 0.006609436431864219, 0.024179513371168724, 0.03242605905373297, -0.01527869707353808, -0.008340688080498902, 0.009058439176144857, 0.024319240281730617, -0.0035349564779553672, -0.03174899764208047, 0.015816500793518443, -0.030325622190151103, -0.029337948121764688, 0.026779100072891103, -0.030775953849605558, 0.005399119592191034, -0.01294851127231208, -0.02147613190778714, -0.0005218064116935737, 0.02938529413957389, -0.003166236311699282, 0.022018486295373608, -0.0017538098813598849, 0.0041853702170509465, -0.009743623220335895, -0.02250070262810895, 0.034127089735306766, -0.008477796116506271, -0.009855245915233513, -0.01782831004562616, 0.011627451917767111, -0.007344285468286931, 0.030109242203493106, -0.03102963420343161, 0.028219690014719155, -0.014726291400809697, 0.006146047328103825, -0.0032048726136335343, -0.02244190804515256, 0.0035605351509197204, -0.027472390880238107, -0.008866292881830693, -0.02608343764664971, -0.008933907895694766, 0.017368132519146293, -0.02610014611549104, -0.009602633399010503, -0.015624674776516015, 0.020852993179116066, -0.004388700153811994, -0.022809277787496585, 0.008776020590513562, 0.00028992172053116897, 0.01554121299167686, 0.03190449703407497, 0.026295609922620256, 0.020574011329306165, -0.0035577912232042097, -0.001269847777937134, 0.012548748109253976, -0.02796071781517694, -0.00892055346222278, 0.0043361504738012825, 0.022613252603308532, 0.01580402527542826, -0.023905775232703857, -0.022546940992579523, 0.02250588694969428, 0.0014960782219561159, -0.031047283529741856, -0.01758439786294925, 0.014817672133511277, 0.030910416996040888, -0.023759098559356553, -0.005974218286617086, -0.01792675305462751, -0.012577784614611936, -0.018715112281999093, 0.027487731531571705, 0.00047890078362992716, 0.016255810702939077, -0.007453664645174583, -0.01083678130482082, 0.03444174016092331, 0.004871457784569211, -0.01986566476205225, -0.028284671008768126, 0.00509693205309831, 0.0051147037016476505, -0.012234265753810385, -0.020769714224083902, -0.02169537317347151, -0.0032226280135635678, -0.00432741496054407, -0.006629316073549226, 0.019727616065426612, 0.0032917680246195963, 0.02762085007659396, -0.019341633431204437, -0.024029906183341092, 0.029215012122005134, 0.002022461940932656, 0.013714605506857784, -0.03235176639241418, 0.009296068205258618, -0.006658257519161159, 0.0289820527544001, 0.007286825967788195, 0.012459795970391874, -0.026137566087447682, 0.0010989561755821203, 0.008287523631889187, 0.0059585606342053244, 0.031068173016185537, 0.0052718564040852445, 0.0024491533892570605, -0.028801250322959302, 0.010312472148907006, 0.025779606269449425, -0.033508147976824665, 0.0004898619295928275, -0.023339006836687562, 0.009630510200877651, -0.030688742281958024, -0.020970393401951653, -2.4941438297589243e-05, 0.013176325356257583, 0.03467031297679734, 0.029436757192434396, 0.00048205997345292435, 0.02045676460780352, 0.03169275772901481, -0.02229369408983451, -0.03312309759173174, -0.031166760858385552, 0.007049974002708435, -0.031426664734070554, -0.017265583582757822, -0.029310542307731724, -0.027873598065958682, 0.03416044719602934, -0.007660868551032183, 0.01720550367098642, -0.015804051568760174, -0.005377372627012497, -0.007146230042094232, -0.018673645617778907, 0.0037447067302137805, 0.008544549850772592, -0.01872811643576751, 0.005974082961750948, 0.004593641781336826, -0.012925620664501836, 0.02939432811416994, 0.03248446892058883, -0.031193965287859803, -0.0136308044198313, 0.02744158104986484, 0.0034113717571076347, 0.005739151661587465, 0.030863339829253947, -0.024461324579180946, -0.02486934851749781, -0.0011463095263139012, -0.0182957040313348, -0.0009725910009133793, -0.035263875066644884, -0.0036076677014288006, 0.006156678319595186, 0.0260209670393886, -0.013100710402212104, 0.00429703442835735, -0.0069612122108347885, -0.025547007592465885, 0.03504869027977919, 0.006865770910449296, -0.001772667740874756, -0.018532086180552212, 0.011228498919123198, 0.032808747764286245, 0.007457982181588868, -0.022664179785057144, -0.032503459195165285, 0.026947744236578933, 0.0226754874052587, 0.030324272263856776, 0.008403470704940803, -0.01628482481449029, -0.002766726449374804, -0.024985522521154466, 0.02115179930651932, 0.007034171801392327, -0.0003296886309246088, -0.010820650715932403, -0.00909817568512928, 0.029931968511476104, 0.027618231084756195, -0.02034370049793365, -0.026714888019839907, 0.0020325737331932103, 0.02526570652981998, 0.020936074821091125, 0.021045398284830635, 0.00509266492450828, -0.01567466892313274, -0.011747682855887747, 0.032233154244283024, 0.01300796376255407, 0.01876781657804596, -0.025472172145970067, 0.030859746353336014, 0.006343307984311462, 0.03121171935978487, 0.01031844116095878, 0.0026778926952176364, -0.0010655983028953684, 0.02936164060928017, -0.029458325224271116, 0.035089458020463656, 0.021465704774477186, -0.013491430725582787, -0.0016971176697698049, -0.000529679171609906, 0.0070710268663870535, -0.01848632280781951, -0.03311829888793789, -0.009486723114797709, -0.020401364078819904, -0.019418492676751362, 0.011389694467969684, 0.023144332229123432, 0.021309400313687228, 0.011140067417790753, -0.034525190464810576, -0.021237591225848774, -0.0024024484208602288, -0.014980487733251058, -0.004867419365142923, -0.018688605816641803, 0.021988610076642347, -0.009531350681098545, 0.013983014206376035, 0.009138060748262962, -0.027038344795206216, 0.017932035178051673, -0.011574264159308439, 0.005697961413658541, -0.030777943375261612, -0.030179851261338764, -0.02202490702274876, -0.02682772279598817, -0.032718544828351646, -0.014344016991092967, 0.00786050261971638, 0.03028944677039943, 0.03530924084031603, -0.01735999430274477, -0.0017818119241671457, 0.006616775061671845, -0.022348613021441102, -0.03100874698126253, -0.004830906236264865, 0.026047494743850444, 0.032270946306430376, 0.008743611941222569, -0.017207827385244654, -0.03264572037746389, -0.028315980703246833, 0.024089829743874785, -0.03448968231822226, -0.01776948173771783, -0.016652526213582968, -0.009757573177131678, -0.024715756756131704, -0.007054272888246044, 0.0312231071235088, -0.03173817456530799, 0.00810656890093621, 0.007083780125953667, 0.01324322166387889, 0.011721298442018722, -0.0011459919499777046, -0.02469891088164104, 0.014695422924952961, -0.01677904581426225, 0.032610770812991144, -0.027931468913729225, -0.013484623765857469, 0.01791239147795046, 0.0013899510253682316, -0.011301712864337581, -0.01870099931109313, 0.016205029221418244, 0.00014520545450811114, 0.02560900392185147, 0.03536525774934814, -0.024259070897293993, 0.015404184821910987, 0.010145780167630854, 0.011979095285667008, 0.017390435833115652, -0.02240646383178658, 0.0034527083338048354, -0.0005108225559874922, 0.005119939883673557, -0.017463555643016, -0.0017866043278248317, -0.015898948496444194, -0.01823072987987668, -0.005876816493658589, 0.007572198647528544, 0.0003762453080812324, 0.035477874936607846, 0.032229879810107546, -0.02153291177453535, 0.009093868221598926, -0.013739296921493472, -0.021579188281766755, 0.025932432578045304, -0.027373614923821937, 0.015685042024669114, -0.012852980531697636, 0.004148141153754995, -0.01184585589435643, 0.00224854685008686, 0.02344272730136967, -0.013340938282566977, 0.027298258084575016, -0.012101840537154778, 0.019015472443633455, 0.02486455775281554, 0.0018847826440510243, 0.009383272304991475, 0.0015390286365693665, -0.021162714197315895, 0.017025946470648572, -0.010481800172880196, 0.02088605005719818, -0.016103938150523148, 0.004291391625753506, 0.01130005162439307, -0.02110301460492422, -0.02956466366358366, -0.005726728395030506, -0.024839738889925467, 0.02236713539432764, 0.02093368797276404, 0.006897232837315501, 0.024087795497207787, -0.02226179926384091, 0.020171766186836002, -0.024808407491384233, -0.012851411841126408, -0.011262326694729667, -0.033076194586916983, 0.0174351096696786, -0.004748321604133671, 0.017579693254928575, -0.03443222085871855, 0.029181582565086295, 0.022736363949318716, -0.024868949031485277, 0.0300029111880867, 0.0015263257885856918, -0.013092424834671339, 0.033626290477991955, -0.024041887171540408, 0.016234855030695328, 0.02555488843038562, -0.022091942342194533, -0.0026169826343191427, 0.00979745235251301, 0.0012692561297612853, 0.008491844604582506, 0.020830993998641592, -0.024234282469843008, -0.031564897786644674, 0.03007055967405476, 0.007153166532460342, 0.03567193338752244, -0.0311483846040398, -0.012689099840250889, 0.024984481417375238, 0.015329047747236684, 0.027011889675735923, -0.007068202779797908, 0.02179475300161379, 0.023252811437610328, -0.0012550549228853886, -0.015157090709366843, -0.02849914627395071, 0.03377173498503973, 0.03303452867580527, 0.004269089025685552, -0.007926185285264817, -0.016910676139971634, -0.020668032081130206, 0.029147627354679937, 0.019218649506072796, -0.017299548125817545, -0.021312267829915067, -0.02467686661322538, 0.020376630503154643, -0.02634346210080541, -0.01494737108479342, -0.006932449399151671, -0.005431819244816005, 0.006169739327106055, 0.03136684290065733, 0.004896052642270681, -0.03459940626463328, -0.017787304356753256, -0.01670138164919173, -0.01675313360957338, 0.024215824793179287, -0.00509433783433999, -0.020938591369027783, 0.007557491245920295, 0.025389979399976635, -0.03004427945724218, -0.028501769759650193, 0.029831720230836745, 0.03456810394068093, 0.0014646325107750624, -0.004671496698425434, -0.027590799721505566, -0.021041666360224656, -0.004693443972758631, 0.02222706933697456, -0.01869382504994633, -0.016677414036311122, -0.029605567681693454, 0.02952531627200019, -0.0025963646486748615, 0.015333578853121381, -0.0016894261983736525, 0.010353797866362098, 0.03471960750098785, -0.006301571745689999, 0.0021003104649480898, 0.003983396691320211, 0.02325388217892861, 0.006356471818028128, -0.03167704852071191, -0.0027289857258823713, 0.01587071474361493, 0.03524945525647441, -0.03309513510043044, 0.005087495702726612, -0.02589429241475476, 0.0002608134149796326, 0.02659993482270716, -0.0035553660959591732, -0.022941865327149036, 0.02330342236180806, 0.01102030695974432, -0.008680352215371587, 0.01597316043258263, -0.01135877558430816, -0.03453234740234046, -0.009640235307145337, -0.0328682357525904, 0.032063152890865455, -0.01810252745911638, -0.02456637640078896, -0.02326662703263667, 0.009811777231433203, 0.027779999087584484, 0.031111851133261058, -0.02457956807229668, -0.025079104512386395, 0.0008705429570708094, -0.016707897013182673, 0.033981585356654215, 0.004599572889586226, 0.0038221063819109625, 0.03447416721486949, 0.03108634640383238, -0.013289966090068248, 0.029713391967341952, -0.016302379147767117, -0.03142302775702244, -0.01847732012343329, -0.017775504707822885, 0.031901549316097656, -0.01333864545440651, 0.005505205691845261, 0.008504420161004785, 0.02670658431427521, -0.0046995189782445225, -0.02653657136096945, 0.0006683637511911461, 0.03509848994325431, -0.020104743398935334, 0.01624108498467293, -0.021193019366603956, -0.005603486126138479, 0.030593092299668785, 0.02972189695462971, 0.004548385797961946, 0.023088962065735106, -0.03404961445279515, 0.002539275900636882, 0.02845937453240943, -0.01623460207172217, 0.030391482623881003, -0.012613220602268469, 0.014636377222241996, -0.01883704317909958, -0.021681528221480197, -0.020657752015393025, -0.014719409306106117, -0.030123908413040204, 0.025293591502674056, -0.002404985208730178, -0.0021934318595508346, 0.03243637479522761, -0.030161231698466795, -0.004021950821453917, 0.02786118026050218, -0.026902262536160577, -0.028832391897509888, 0.006082705716668404, 0.0009965022032866675, -0.02088383810446942, -0.024699674601172956, 0.007831954257737559, 0.02096876940382665, 0.031423186874627376, -0.004004234118002666, 0.020711618520672277, 0.03073508219371137, -0.00904321103853536, -0.011683301551536334, 0.031002239110538073, -0.015350019128871278, -0.009392872608714076, 0.00964222889949331, 0.01283464610285952, 0.029098033569484726, 0.014672404563503716, -0.017010401114112852, -0.015218338027216758, -0.005956288937301022, 0.0302166388243356, -0.01042808581671882, -0.013640988843340703, 0.01812326471579173, 0.01723203723041142, 0.02102832291837239, -0.007932628869006237, -0.020803412064883318, -0.008042013013723592, -0.02778744887271498, 0.02280807843186572, -0.004241505547599278, -0.028458509205951228, 0.019282437253705677, 0.011514810098049697, -0.025988311769377458, 0.015455033875287539, 0.01161238908950542, -0.004358934288872082, 0.009679347040119031, -0.00938793716305804, -0.009530917872622493, -0.005594671410490224, 0.0018143282455890886, 0.007252824557171149, 0.014367068308437678, -0.01619155883468626, 0.006624236866363661, -0.022412902561187963, -0.013139986285388823, -0.027487764207885193, 0.03193060826700111, -0.0043968404920052195, 0.018757406920120113, 0.008118517566546126, 0.017282062351713312, -0.021021758776649094, -0.026150855226761794, 0.02572438237482286, 0.03258995341237097, 0.03144673249259986, -0.0021170155096723675, 0.02485270001866594, -0.027425032671710693, 0.00551016050958256, -5.6580243865646444e-05, 0.02067999479320988, 0.008115118293627106, 0.02831363567322543, 0.028560167907267744, -0.013687765186265861, -0.024443762601040395, -0.01805940361270681, -0.008535636925477643, -0.03302072635582662, -0.016681004987012558, 0.012474238039430286, 0.020402913802878342, -6.585410000005596e-06, 0.026959736889616646, 0.028463792469294858, -0.007068380858327719, 0.008663006658261545, -0.014937940679936874, 0.021347300141150636, -0.009198267784914622, 0.023343746851004335, 0.02962323511327507, 0.02443472732433683, -0.012502409492770102, -0.012650191543467835, 0.0021896686774880037, -0.026084698683239576, -0.025760932503928222, -0.030126648318371006, 0.028358157904559343, 0.014871328312751213, 0.013213858294640397, 0.02363474091010899, 0.015924163626138885, 0.03449648483649598, 0.01059025853077219, -0.02425024251240535, -0.034950258349094876, 0.006626506274641183, -0.01618298345830763, 0.032184085932237254, -0.029717170084934883, 0.03571104405655347, 0.03062613888472672, 0.028491065232913924, 0.021560736297416117, -0.01259591917109181, -0.033981946768285864, 0.007253981366863583, 0.02912143438827978, -0.035405068043795306, -0.024647816537108718, -0.006489000176703317, 0.025876825067700948, 0.013458442510081436, -0.009809030239766552, -0.004486948662343099, 0.0053503615119076765, -0.024575848742832068, 0.017482483296750576, -0.0035688664128214792, 0.03136545533530125, -0.021857206744535205, 0.01870272787633807, -0.03034296509810468, 0.006036606958983694, -0.002201502749720379, 0.02327380125292897, -0.010867749592105536, -0.032348563304829284, -0.03052492945536607, -0.014618688358333487, -0.022985910523736018, 0.007219232602754627, -0.030898276387140163, 0.017678822084117876, -0.006232785642418708, 0.03216094047742008, 0.0051462469844338965, 0.03304085541721981, 0.03410584149472303, -0.014103806575525362, -0.03331899494233604, -0.013940465052722433, -0.008245705847701512, 0.030374310808965875, 0.026808239130109338, -0.0005809394809643265, -0.008829100020379748, 0.026214670505744875, 0.011638416673842846, -0.0280401290974913, 0.025882054001937365, 0.019738272380089135, 0.016753089102758825, -0.003441566256341463, -0.019850664112208545, -0.0184097829577798, -0.031217410011111182, -0.0064036632004868446, -0.0017960502300840722, 0.02767003494412175, 0.014736294911414823, -0.025455217930231065, 0.012893149307655187, -0.026625511031206105, -0.015401464551024906, -0.012307698538808602, 0.014142704220795894, 0.019341659468363415, 0.009814732175421448, 0.013175067050434457, 0.03166559737523338, -0.026180189546362753, 0.001438323400737034, -0.004559810371155476, 0.023968712459727908, -0.004619876452920676, -0.006037635946543115, -0.003527955463947312, -0.03503392746413854, 0.01418575565663028, 0.03507200760638828, -0.0008050587228831911, -0.005917770092310084, 0.010057395288984068, 0.020048007594952708, -0.02249648103831874, -0.012196230977147273, -0.014585379020799831, 0.03465429690628048, -0.011004053544490744, 0.014995869998294251, -0.009761228041597498, 0.02834884276128654, 0.03107106045818516, -0.010254165136952043, 0.011232711859643441, 0.0354779110305787, 0.03494693852876348, -0.030503150438786174, -0.0336241246407451, -0.021892675773489172, -0.009929717109065617, -0.004904240073147119, 0.0015237822540956703, 0.011727923355421426, -0.00021112139641973494, -0.02267859086341865, 0.0037960715210971453, -0.0030255845807676896, -0.009512097907598762, 0.029494522250834605, -0.0014473965328834254, -0.02844022480928041, -0.015417256377131736, -0.02835108193199449, -0.024905465101104075, -0.002023814967294273, -0.032569722387098335, 0.025791192238180754, -0.034823436520145704, 0.021838456024993298, -0.020029934537742846, 0.0044853871177211735, -0.020614759098197107, -0.0037715780158389307, 0.029562852143247005, 0.023943159618749155, -0.023680991728072753, 0.005398227146794657, -0.02992063846924734, -0.028313596588869384, 0.005431723204871175, -0.0008783305267281755, 0.02263479861772756, -0.02562775992639176, 0.021919570561101966, 0.008463875903302545, 0.004506509166708742, -0.02735103820460899, -0.013533410919371403, 0.029830454863744058, -0.0002378538638446091, -0.01376893676265371, 0.03147610670260175, -0.02444289947736303, 0.01699977371505291, -0.035301646990724404, -0.008148222898937692, 0.010037427069199467, -0.022414618225785853, -0.007438328167407185, -0.022169175748079535, -0.008580303588966378, -0.013667490454078573, -0.0007757746776905057, 0.021461460745719092, 0.03252318802379999, 0.021626787707006004, -0.00014708172824232487, -0.002849341166656852, 0.004994847920852538, -0.014859573585101742, -0.020434200963044515, -0.01063262289329288, 0.001242769262069803, 0.007768078140509742, -0.01909272626094075, 0.005922855496759828, -0.024944376309333778, -4.248617003505777e-05, 0.014479056115673555, -0.007325859518089164, 0.009593032665644905, 0.016080739742866168, -0.014104797207503008, -0.01662897521129887, 0.021379253011224255, 0.017018090592505364, -0.01766283626424706, -0.010893379165889996, -0.014066977077628558, -0.012466155103898193, -0.017906860328211205, -0.011144089388519438, -0.02143847429712687, 0.012812912981539564, 0.018850528365367703, -0.019196461331083277, -0.0022515603005666684, -0.024289203443147254, 0.03016799917206487, -0.030383966006530275, 0.030319567260478256, -0.022274858717602413, -0.027594782656442773, 0.02098166358066389, 0.017984071125600867, 0.000944260523380837, -0.009880932282075696, -0.013082627554631044, 0.019071154883920288, 0.030324411272507845, -0.0006871718785799254, -0.005737834507415923, -0.0036998811903320833, 0.028946794341690386, 0.025908407771396014, -1.3704212189832468e-05, 0.015444406759545622, -0.018871392507372305, 0.021519338824533163, -0.028049130048800962, -0.03003638651822778, -0.009680410308956349, 0.0010677342335255588, 0.02682580637653707, 0.010045022589542318, 0.020646283511563588, -0.0219278251760463, 0.022715278240458325, 0.03497363480041096, -0.0013629521841921977, 0.035341731033179204, 0.015432688695733974, 0.029466714901043165, -0.011405508096101555, 0.032379914381234776, -0.0008024863953492127, -0.033698556379581586, -0.023816927683011753, 0.010838939622234454, 0.004767635211757683, -0.00517006611299105, 0.016070382226645252, -0.026909242542868795, 0.014989620151915111, -0.031045211473473267, 0.027029293710324663, -0.005735544814517315, -0.01215379818487583, 0.0069312549407214985, -0.02126521447958086, 0.00415526422862791, 0.03311278880104975, 0.012613071710900068, -0.01186095044526923, 0.03203922759376323, 0.0087659196336285, 0.03527648528039968, 0.030669037254054017, 0.006123467846635168, 0.002472338832621276, -0.026661249730304464, 0.02742412408444737, 0.025387668106503183, -0.004244875303251833, -0.030411739876357962, -0.014179669549159953, 0.01233805301355104, 0.025996629630146206, 0.029205033659907485, 0.013858560572499568, -0.0018530572283604091, -0.02849937718305572, 0.014199036025155216, 0.025345584104353145, -0.028045354783744314, -0.01658382938228634, -0.01506665179479309, 0.0204509108670275, -0.033146554882488924, -0.018046523164180244, 0.02192740973871299, -0.02779193416169718, 0.0011609044095618548, 0.021625577788968318, 0.015294308361811582, 0.02256760159304026, -0.02555813756908755, 0.011165679068433718, 0.011706868229728653, -0.019985729491887306, -0.008990112271179454, -0.029064238574314692, -0.027327303571032767, -0.03511369320692457, 0.027365225906307553, -0.034041807363851755, -0.0062980886094303745, 0.018402584288670823, -0.012243161671973573, 0.009736185004397593, -0.03373904715661163, 0.005391176496760654, -0.0008895036678785598, -0.008675808846119753, 0.03462441562040398, -0.0050996168324976944, 0.011146159711607729, -0.03251203663972563, 0.032343913684263086, 0.010015444228201187, -0.027911049440210656, -0.02912336277655094, 0.032250398183109395, -0.020245599637051803, -0.003863970306017412, 0.0025997810883112466, -0.0013545318118936792, 0.010776426618284747, -0.00513650194952039, -0.01407839244601633, 0.03173400337995507, -0.01678877670573924, -0.02197720856119996, -0.03339792601872225, -0.02285536894083243, -0.03325377764486861, -0.0021056560242987883, -0.0264193647271699, 0.010167620528365102, 0.03174333133518462, -0.007002503776141969, 0.035489275800566246, -0.00017475295648611278, -0.018890501538050233, 0.03485114882077022, -0.027908153113676185, 0.03552976262489118, -0.0038102911900020032, -0.011397736567071992, -0.009125796510411914, 0.017221632465960413, -0.023463399734667115, 0.005991632215206718, -0.020245008411893313, -0.03425555110113801, -0.026427175152716576, 0.0008716641316393206, -0.008921507103856823, 0.03524117547066269, -0.01002308907486904, 0.008750336552915563, 0.02332034454526584, 0.01708589217446089, -0.029891304462755165, 0.025726842285097844, 0.003356256479161268, 0.02135671800084222, -0.02514297553381397, 0.007585959338468229, -0.00014469389916126657, 0.0237288898623572, -0.0011293999958567455, 0.030138972586534505, -0.028322313273045994, 0.0019166737931791133, 0.020986518338278304, 0.0040861064531602575, 0.02046474411959064, 0.006680255593709256, 0.000652894398452191, -0.031681158963304694, 0.021919258232024848, 0.025324730930141107, 0.004239810565864247, -0.0005464435876518713, 0.02783074511988959, -0.02235819579109994, 0.015270056904592027, -0.03441772189468854, 0.026485679571527088, -0.03448691118319846, -0.027751712738983778, 0.0296250338648373, 0.020086376142071934, 0.0314011426167952, 0.015593542066395825, -0.03360497947580491, 0.025642885384518088, -0.012972915522281992, -0.025928441866804777, 0.0011782875845707014, -0.029184902311012124, 0.02000746459354892, 0.0025156954791901403, 0.03445268399315187, 0.03449098787086372, 0.015906481147765366, -0.014041763615818563, -0.008699650294741543, -0.017155196884208666, 0.022302421751120554, -0.032164860689932, 0.015058242686501109, -0.004271623912424709, -0.00639041902833529, -0.006738209256864127, 0.021908474185499047, 0.0002009916032389266, 0.007572102487483198, -0.012109285445471938, -0.0307487652120778, -0.017477752385904956, -0.002723393263109497, 0.019566967361548487, 0.015036042137211079, 0.008348992151329433, 0.02591274486635598, 0.02289772825756599, -0.0028750869217806863, -0.004536363849516397, -0.03544292715498188, 0.018261486948924557, 0.007102317007922345, 0.0056091675112994645, -0.027146977092449, -0.007051881672701162, -0.0062646525133503595, -0.0038420807399815377, 0.029724039437197248, 0.007988908113691573, -0.010935565864670356, 0.010288325869733462, 0.03569528687962301, 0.012233502924624709, -0.027182392236110606, -0.0009849155203428312, -0.01181477752761319, -0.004846051851168899, 0.005316885210349929, 0.024347106751876534, -0.012378077008730408, 0.006882013004032025, -0.028034848302180036, 0.03155906465279661, 0.003316051333906262, 0.005257593497265083, -0.014534962749834766, -0.01891741654210089, -0.03492027580242379, 0.03352922101710979, -0.0208984383939812, 0.017048006593284242, -0.00850582640457551, 0.008483025834133715, 0.013918154310963087, 0.018959706333651974, -0.02435964672647881, 0.00620802314745488, -0.023489593590851343, -0.025875790404086614, 0.021258121793172737, -0.004125173191385231, 0.00260128170498018, 0.006574264546130716, -0.01547237349224978, 0.020916339962163178, -0.013872766823845757, -0.028753601409768077, -0.030460572890730196, 0.02147760356136218, -0.01320407666655294, 0.01667350780965252, 0.02309597677174193, 0.03432742627344137, 0.006389760932114344, 0.0034294491024246766, -0.020501952762834928, -0.026780149888700398, 0.01712370824306816, -0.019925946981902722, 0.004627721627570334, -0.01833495868889657, 0.026652409323207955, 0.02984704723357365, -0.014310432684067658, 0.031164552262100707, -0.028050162052745534, 0.027508592969551278, 0.02280019399374944, 0.027672490377604442, 0.03192701995010777, 0.015276941443245278, 0.0349604788216523, 0.0018171617695103717, 0.005580924534530272, 0.0323794549816383, -0.014295277974147163, -0.020627870681733367, 0.004674512296666679, -0.028215342578925794, 0.014083632505227268, 0.02204008719479772, -0.028153936347545983, 0.03490156771292358, -0.010226611193626103, -0.02134723492607278, 0.028536361522834418, -0.011716063043358687, 0.00024180584702008075, 0.014259061897122591, 0.0032943352867356485, -0.016831534648783897, -0.03353662343457469, -0.028107641498333325, -0.010992457593446144, 0.011003519678363025, -0.033550444363337456, 0.009193856448124538, 0.030984848069038878, 0.021297694464099872, 0.029632721920670384, -0.005919715758894836, -0.00293644966578683, -0.013938427257932698, -0.02198536155053696, -0.0006839567485744974, -0.0009283752494989266, -0.015676384147870093, 0.005422674319775968, 0.0010203139991773785, -0.014287750021578394, -0.004626714545902791, 0.022506694258856357, 0.02823438244607333, -0.015172702426311531, -0.023046360734502738, -0.03064949912735665, -0.009355843821852053, -0.013500997816125031, -0.020544812769535615, -0.01803421938665598, 0.007099160310659436, 0.003326322716075858, -0.003572291331485225, 0.015421491344537724, -0.03151616102438997, 0.02972186959861337, -0.0024985816745928496, 0.019048013865388083, 0.014252099797933737, 0.03423115573462862, 0.010964171750732879, 0.021542852956812138, -0.03186585151235923, 0.00032369124888451513, -0.0022715447072153006, -0.011421951439189042, 0.019418379606790506, 0.01537784843892976, -0.034801275559435636, -0.02156637818496948, 0.028104324003353807, 0.02867328741389683, -0.014266144763272204, -0.00576273803059339, 0.03133385277875956, 0.023915586334714776, -0.005744951246539651, -0.005557025748835669, 0.008610043948561907, 0.0026496707185654856, -0.03147563536090586, -0.029589282469454657, 0.011526389068590437, 0.03296690477700167, 0.006400572779204599, -0.012437676666008582, -0.022508179174243404, -0.006212243073602963, 0.03206442280541906, -0.023973526934398977, 0.02281771570812678, -0.008991434912687175, -0.020347944219203218, 0.007401952380156411, 0.01934015885612714, -0.005727606911414749, 0.002910651750009874, 0.02003794688149913, 0.021918640541038717, 0.023168119877738425, -0.01633676500340429, 0.034737251509125114, 0.018557662363857308, 0.019825949444649906, 0.00012788630161992512, -0.03342339844622672, -0.026971285277077005, -0.008625639985945795, -0.02392516301123171, 0.024079326008283098, 0.004666143729781461, -0.026808095756992563, 0.019779730994378224, 0.023336620359699117, -0.016449738977897817, -0.02777481720269691, -0.021549744547705696, 0.020970102087115312, -0.01951598174564848, -0.0273751124670211, -0.017117095681037656, 0.0032384619563072575, 0.026069992301427685, 0.02242639209025416, -0.012141642736762492, 0.002728278806490387, -0.03038151986653098, 0.02339963828699596, -0.021030543916713676, -0.03172126755853478, 0.015017572404581736, 0.0006482887255800056, -0.013024812675187711, -0.016943250007914957, 0.012870166967442476, -0.026108818099281037, 0.0030471487855511, 0.003995989263557035, 0.030194515567860472, 0.02695977586742976, -0.008516873562328806, -0.0005197482547058381, -0.014434699147909607, 0.01818400258218136, 0.021519925948543944, 0.030640439210929127, 0.003913952208345347, 0.02461585532058997, -0.03217574521882591, 0.00899748047326584, 0.006500926326730517, 0.029925931075134214, -0.03216541898866107, 0.0011528692134311147, -0.003940466392819403, 0.009874305529678495, -0.033394830223161344, -0.0012376743246907643, 0.02286935207289813, 0.02191431949611245, 0.030031160046149703, -0.01915185612256318, 0.031624844639562284, -0.006690924529723902, 0.008390753682873802, 0.006632056336158051, 0.014371440141814256, -0.00516889311617928, 0.022525690249025475, 0.029450201832078225, 0.001433670381995798, -0.002213683061286688, -0.012103312020915111, -0.02975358877418162, -0.009497522616502971, 0.001967817492573528, 0.03448387971526424, -0.02580292785148597, 0.026547780577032852, -0.003308385732446152, 0.022377663426475052, -0.02389980039028043, 0.009861359139460147, 0.00826408977562457, -0.034563497153571314, 0.03382370041030036, 0.015429382240883312, 0.02794550133318161, -0.034677261003342036, -0.010534195017430739, -0.0010570120427803031, 0.029648295375946286, -0.029294329371234898, -0.021828482821575082, 0.017975371324551688, 0.02195496441806952, 0.02558452673117483, -0.030062499547205267, 0.010775317473137773, 0.003195101390911733, -0.013174956645996399, -0.017927554754848998, -0.03390663250456787, 0.020712061697480917, 0.0007930502256701903, -0.032874725453239946, 0.0312253824486504, -0.010603142570967013, -0.015717763160541416, -0.026021532300336048, 0.022392832728127088, -0.009518966083754885, -0.027125607013055004, -0.00950167413539031, -0.03057850940424956, 0.022835012977917804, 0.018031049094547176, 0.012159101629702136, -0.03336688426463267, 0.01931561937605489, -0.004004709202095415, 0.0172226473722938, -0.021059465447969786, 0.022584061030764498, -0.003988283972725437, -0.025232484905970756, -0.019569489521786332, 0.024862393126995508, 0.02993873311068758, 0.03380350643293696, 0.022326955645845175, -0.0350441323986529, -0.030670439351127732, 0.03236005548773805, -0.018025349586797357, -0.030915061242599618, 0.01451588590278015, 0.026420973245818363, 0.003271268200520919, 0.02433310394629711, -0.013302815992510746, -0.008292281219181035, -0.02324811574661908, -0.00731756635429103, 0.0302701940488042, -0.010061874170827687, 0.025621626608178016, 0.013879562529452667, -0.004194275027664086, -0.03344225447558642, -0.019683331008106954, 0.008028520633419951, -0.03399079772852564, 0.013479361796822511, 0.02165438871470329, 0.015810029659309555, 0.014031341401196995, -0.009030439343961019, 0.017826718097268893, 0.014568641907511375, 0.021169094980209403, -0.026161660170598018, 0.011922323602812217, -0.016867502506931243, 0.020647055183664387, 0.012012209961590057, 0.018107336589542205, -0.003638014861858266, 0.034266100230906496, -0.03130862768193291, -0.008266226049643777, 0.028898545010322383, -0.032381458711300715, 0.004720463207036333, -0.01259308057015946, 0.006056948787824923, 0.010448644802865177, -0.023838022337635566, -0.009035204950501197, 0.007121693983034566, 0.011284979024292667, 0.00044755053382673966, 0.020699693958688228, 0.0178260536224656, -0.024446722522377663, 0.020092618873695265, -0.014583606033248089, -0.021881214234361988, -0.03253755260918611, 0.0025228700287047235, 0.007530454633437639, 0.0010439789626726567, 0.0016613680315636925, -0.006637580258856, -0.014445764771327545, -0.007640316153339766, 0.011104272847029258, -0.01295622604752396, -0.01568171779002418, 0.02336276443030769, 0.014446429455133174, 0.006918468688344202, 0.021142845822380716, -0.008310959624569443, 0.03175882800965125, -0.03181147757128452, -0.025844827373291673, -0.017227385700446962, -0.029888917446792385, 0.009920343416541457, 0.0027866395593340743, -0.026323681434114104, -0.029787088038890797, -0.017051683469214984, 0.0014295509319369418, -0.0349904001803853, -0.029595938692882462, 0.011948462805795455, -0.028558421359471984, -0.0033519458405579156, -0.017986222825415683, -0.013305964240915624, 0.019934827737675527, -0.031532581987688386, 0.01898941848897533, 0.029372190626746817, 0.00891400447399608, -0.02655715115837858, 0.03196655667988944, -0.02825328632906745, 0.010222554894533362, -0.0006089398655570771, -0.02132894114698045, 0.0070891777458978135, 0.016279173356231136, 0.0002224228416419941, 0.02009810369990025, -0.028543160000726098, -0.017716288326430185, -0.02305709981534705, 0.01629202820177097, -0.014822845333197466, 0.027922655263466052, 0.03508199352460281, 0.0006837270315031484, 0.020167888865923012, -0.026404041298597896, 0.03103167182629223, -0.02223317563043376, 0.02000249248676064, 0.011676697038474435, 0.01252147090148879, 0.005320906140428905, -0.0030041380462000012, 0.02858259763668435, 0.02191204081300999, 0.02682944696556353, -0.022283077928595525, -7.960945762828876e-05, -0.017569741868071687, 0.022871653926746994, -0.00859641711948657, -0.027541023344170894, -0.01884157920025267, -0.017965003090144805, 0.008906683888678124, -0.028228590370675866, 0.022833563152057843, 0.0033295596153319574, -0.00413772316632963, 0.0032583342534624232, 0.0055177811071673135, 0.0206444599991379, 0.032274889990125545, 0.01516882527446467, 0.005366029537091738, 0.019346654562336474, -0.02520854748129492, -0.017538790027689457, 0.00043472308550282897, 0.02598221793651373, -0.02109132109562981, 0.00738495033739202, -0.028174341778160993, -0.016986696375481492, 0.018473621959681916, 0.006000271513506397, -0.012942239514064233, 0.006881496353742609, 0.0035899174385566335, 0.011550343964772065, 0.01170641143216817, -0.015387235157970698, -0.021706348019418516, -0.020934573106259076, 0.015935694528157334, 0.006442061127755868, 0.022260907934179442, 0.022358530416474474, 0.007007292468790972, 0.008933873914632946, -0.02448687665353481, 0.0035643119567602844, -0.016876357223558052, -0.017126659915417442, 0.0326741789776262, 0.008725790990423745, 0.008597369411554208, 0.029781621372014105, -0.015981219142579297, -0.00030742139457256326, 0.0336991297570397, -0.0012690541299294556, 0.012670713126616153, 0.01059007316343575, -0.019515608625304864, 0.028618090745245604, 0.017154218779083366, 0.02779105386895416, -0.03089408701595085, 0.03110071162587303, 0.011413369866384826, 0.02017287421502643, -0.013825743887786035, 0.004982790930029425, 0.022409889586665954, 0.009019149426458237, 0.002539741272541997, -0.03140577545298419, -0.0009232315896464988, 0.01826958925622075, -0.008629287379125446, -0.030961431045394703, -0.012596435983691479, -0.01994453272671666, 0.0011756804144027544, 0.0274107697244484, -0.002647843606937983, -0.01733661290444488, -0.027573391392729168, -0.0036378302076572806, 0.02695860119542697, 0.023971783138836956, -0.019843014336149812, -0.026410967001298136, 0.007162589096201837, 0.003958417180235168, -0.0071526101711064894, 0.004617323822402375, -0.025079825256646458, -0.010679106428250738, 0.014471028985833634, -0.0072447556726058515, -0.006894807571316568, -0.03308571121255162, 0.03508952088133971, -0.0045620348030882074, 0.017359128214682645, -0.018975573599469844, -0.03145171578242786, 0.006894897205191699, -0.026504384543573612, -0.004542491188670632, 0.011713584164483409, 0.029841196210242733, -0.004606758218889157, 0.004015194558285917, 0.01634620023851811, 0.0012020669035293164, -0.014548700697410393, -0.03537759000292534, 0.006313946171374675, 0.011145448315512903, -0.0024571564078553604, 0.030055409118961412, -0.011672828800090818, 0.010925947605722217, 0.014855605819383031, -0.008373780333459273, -0.020019649599628698, 0.029695648215350912, 0.001580506343552065, -0.008616309006320162, -0.025086813115239595, 0.03498404452262456, 0.016437417931231702, 0.0010958427091006884, -0.028099744296871555, -0.031962412955650825, 0.028967112729337337, 0.017084678268967264, 0.027693379430248955, -0.03269426582261794, -0.01289667578736986, 0.02984790956109282, 0.021127557373123995, 0.03528365542566993, -0.016876095484789314, -0.012784476563132013, -0.0033996025431345307, -0.001485899967795301, 0.017296279184007713, 0.018234977132103716, 0.013399439933257975, -0.02618730160518601, 0.027166876923707926, 0.02377756217407985, 0.010361480950352473, -0.016488010832922163, 0.035283497501136026, -0.03034700530713054, 0.011884812085004462, -0.0008121930742205986, 0.019239399734792113, 0.029693449212543264, 0.014210307613962199, 0.007048350503490492, -0.019993897079750647, 0.00772229159708573, 0.02696999302823689, 0.024230291989477133, 0.030057348212768047, 0.03148148867087687, -0.016009540076391993, 0.013996023774039934, 0.010923039344960377, -0.02104695034283855, -0.018803348374093632, 0.03475820891693491, 0.013962488124659705, 0.003973287122925273, 0.03167933725618795, -0.03106328268092802, -0.019169491433345533, -0.02951455740648746, -0.009572564378387556, 0.018015480661619444, -0.025640503624525524, -0.03450056893952643, -0.02288251009057069, -0.006590433472625842, 0.020242305327150125, -0.019574504414505152, -0.015079414824178548, -0.015020747544877889, 0.010726287201606859, -0.029157352792455418, 0.028864578855388845, 0.019368167681644677, 0.020523332559824192, -0.011509886531378457, 0.03499098078209526, 0.006809210665826626, -0.026949858037770523, 0.03313687712918444, 0.022434565727828298, -0.021048141790100377, -0.010712964122504989, 0.01609007690879718, 0.0056843358989293125, 0.029042585936912016, 0.005220102296479313, -0.02598948966795269, -0.0020947570360694673, -0.028426109029399474, -0.00911608210071458, 0.022899664888545175, 0.025657197282025437, -0.03535149609757652, -0.006240166925659476, -0.005450643667502689, -0.0208088561098542, 0.005114376539869284, 0.011018154031049228, -0.018801054065698333, 0.02971896602256262, -0.020562243868995935, 0.022664022401142292, 0.017761554110173095, 0.016050650013219415, -0.006308790079607146, 0.0036051666505527553, -0.011805017612713527, 0.014058373242687938, 0.028831302812482567, -0.019688145433441946, -0.030215473549102746, 0.004669734112304702, -0.028798518180417017, 0.03393829532631371, -0.012416378685654919, -0.018331171824146324, -0.012213567856639407, -0.028188010645977042, 0.0055441825776317046, 0.029339000430196778, -0.02859768812822037, 0.021910478953217943, -0.010907077219717738, 0.028093340307799395, 0.02126732510813935, -0.019620968551593645, -8.224065311091782e-05, -0.01888268070171065, 0.03433195327126531, -0.012139835979513092, 0.024400765224373216, -0.016630062843080762, -0.0297905586706018, -0.01278460195666193, -0.015166296983911325, -0.016502967584098256, 0.011267461057173196, -0.03291184937436134, -0.011211428904202752, -0.0242050249218145, 0.03570747468881299, -0.032868405990116034, 0.02524786423998565, -0.02969229181557432, 0.01640725699930021, 0.016005538046036803, -0.033370867975151715, 0.029909125801727346, -0.010212457294313018, -0.011888117798095732, -0.027355857670668907, 0.010303884877827414, -0.00886007694822079, 0.004095158777049801, 0.02613935442380436, 0.029998697416742943, -0.009040284113886925, 0.017361431364995832, 0.009706923998605994, 0.013424527363210528, -0.018289171620044817, -0.0001674529590455934, 0.02109418955050833, 0.006116702466683245, 0.02517635386416765, -0.0008783262631977182, -0.00748579919501306, -0.023422427452881, -0.013739104414359262, 0.025382011253568385, 0.025988790269036752, -0.007324561880747609, 0.006920930799423939, 0.016504880204686847, 0.023221196896902375, 0.016106542419088012, -0.031777024682889676, -0.00904964957755709, -0.009260830351957548, 0.02518559763761861, 0.015840032264286166, -0.03544056504091459, -0.0035196561769856778, 0.023356982464721232, -0.028808745473414974, -0.01721681566913781, 0.011023814571834989, -0.006751532160067669, 0.011352097338868739, 0.0020265909856441483, -0.027658197759257302, 0.021626199317284725, 0.013503090922438954, -0.03563415894312416, -0.006324728273086785, -0.008934387244244129, -0.013205567818055264, -0.03400794587184206, -0.022965232753243713, -0.027294713803232545, 0.006401681122470946, -0.03126796628930336, -0.01189594005219165, -0.0023374818039889928, -0.01980005568475353, -0.022309216607378016, -0.019758423217976225, 0.021260792288931168, -0.03036853246301217, -0.007028778943964761, 0.001991776628389587, -0.016945627508538078, 0.024498625564177666, -0.007035911608494451, 0.027474379556158095, 0.016814345149418906, -0.029654612114722635, -0.027666587099159968, -0.015200862516061675, -0.018421031816205, 0.02236597376407144, 0.029877278153716276, -0.027547430755655695, -0.004895273877130957, -0.012065356356263173, 0.004503134288807592, 0.03209612551623554, -0.008870381679997397, 0.014060260159000915, 0.0054284758520139155, 0.03314680880555016, 0.00950278751308737, 0.0031024619768652323, 0.019427281338217344, -0.015606027519319459, -0.007271495219376192, 0.016724210095819193, 0.004260012521144821, -0.03127455392318386, -0.0343983597543846, 0.003238115717039683, 0.015869082806705768, 0.012546862582417082, -0.015377401541159963, -0.02136555526216711, -0.024092829526365964, 0.009639692502543087, -0.029133016084442336, -0.015529347751205751, -0.016610767987235597, 0.014427828599812445, 0.0038696512487710806, 0.01660433644757395, 0.01848229687952937, 0.018066358273600116, 0.006234434897195836, 0.03461062828075486, 0.005128587863205358, 0.019507546406867304, 0.029579809841695788, -0.008655526290678672, 0.00658690242886222, -0.032232037939943926, 0.029511121746440626, -0.011726200374618181, -0.024468761485302557, -0.009590797031503371, -0.017038167519382474, -0.019172711575720394, -0.025017337710639576, 0.005387440043088292, -0.003231728739416374, -0.02829705401664687, -0.01382699941818435, -0.012632859347748247, -0.02413076521770344, 0.010670792027807288, -0.0009002231391047769, 0.02858705973799531, 0.001697796705045337, 0.02525305044290069, -0.02485714672136219, 0.0026512895533362907, -0.026427950360140076, 0.01465225525624935, -0.008533818302237832, -0.013022080688410787, -0.0245165027283805, -0.01227594672249637, -0.000348769970296346, 0.004099301122454633, -0.034258980850116715, 0.018131965294110344, 0.01364135092269241, -0.03532631450297937, -0.003778604097561541, 0.011516063703950339, -0.0026820251226360604, 0.011553380256022252, -0.03386860982573166, 0.01058086965446342, 0.0181502282448651, -0.022274381564775854, -0.008253828146446191, -0.01256443323101907, -0.01673468259264196, 0.026076613077309563, -0.028275591779138565, -0.030288829090213763, -0.018794643233699417, 0.0007503946082470672, -0.006176297564791179, -0.0158214963478895, -0.02372601229016376, -0.027635319632806608, 0.025920157609548314, -0.014075084750650295, -0.02968009312308093, 0.018209668946691116, 0.030220980760055437, -0.00019923614413333964, 0.002332663281137237, -0.03149587248633276, 0.010737734732219522, 0.015381745679954928, -0.0054856510415250805, 0.017353222786724434, 0.029098529440350136, 0.01392392496633398, 0.03238092264683507, 0.03241907578291466, 0.021660546443170392, 0.01643782886816547, 0.017254052429296386, 0.033842383786319145, -0.013147937674744734, -0.01655151319684826, 0.025077064426694176, 0.004096152259872722, 0.03548934245418945, -0.0357088522816228, -0.0017085258220701424, -0.023214230038321404, 0.003661676924366887, 0.0005021534637082674, 0.0015702098876726228, -0.013717715401183106, 0.007854356656472716, 0.0292082759535362, 0.024743809068054123, -0.0191261373716031, -0.021904608794887783, -0.029965474817477265, -0.011846211238535496, -0.016285137736898023, -0.01961151523431237, -0.005874153452319484, -0.016009801148022085, 0.02089125030438026, 0.032336429699445474, 0.006804316162578126, 0.027702532350224397, -0.007975217844196152, 0.0332309677589962, 0.023085742009392656, -0.0003377049157107633, -0.009177341368693406, 0.01580473119488367, 0.01254309336507875, 0.01850455590418151, 0.018960767643259362, 0.02671251523658138, 0.016895143366171917, 0.01669215839930326, 0.00386752206883491, -0.0029946592063726835, 0.004540047554072644, 0.017669130608734134, -0.004814840209822495, 0.026067601477169307, -0.034609350398889585, -0.012060112114325432, 0.0289099873873495, 0.020994828232652894, -4.82397131323285e-05, 0.031141319925984345, 0.029995177617460764, -0.012977978995485853, 0.018380716283227048, -0.002479543739066535, 0.007528411647273692, -0.022678352216031657, 0.021638561793133487, -0.006361918143952483, 0.020525948504264233, -0.023194904520179915, -0.020171710441240283, 0.013211151695526191, -0.008332235521221254, 0.0018588265391798553, 0.022967606470250035, -0.0193380466199695, -0.009371685607858163, 0.020844106484282008, -0.02769423311844499, -0.008746181117423835, -0.019779891322112726, 0.03417887640077726, -0.035637393949053645, 0.02317198398445317, 0.0009078543408875896, -0.02401245079171277, -0.017148396976907787, -0.019062221714552494, 0.004357189713654325, 0.024064227384859874, -0.024183656351122327, 0.012596540312721916, 0.019815764929034186, 0.018474848979108473, 0.004159318573960719, 0.010542247537086642, -0.006800107458938609, 0.008369822236423106, -0.019421554218228148, 0.010549527173524063, 0.0352060310900296, -0.024262459436779737, 0.008204700027430107, -0.01959328423681726, 0.03373693818056354, -0.008785050868465696, -0.001059070866253358, -0.03358530658085625, -0.03117845099161537, -0.029138386525805214, -0.008242848564260297, 0.027405597082729327, 0.00592768905445405, 0.014747754125797945, -0.02569985282687397, -0.008095035001195412, 0.03467172657567353, -0.009974312575684825, 0.023548305602591413, -0.01257243412370333, -0.0023658317277425334, -0.018110989105469145, 0.03415119299369473, 0.007611062264749993, 0.014084524935275788, -0.026117758503892505, 0.03165702206084894, 0.008164784960006506, 0.02687923762217799, -0.026654019513967786, 0.014916150106189636, -0.015426827070361518, -0.0318179345902834, -0.022542640763037896, 0.029545560411304295, 0.031946431980792805, 0.01400281162955779, -0.007532367058258088, 0.02022638400157466, 0.028555312901223102, -0.01270847420523417, 0.019444587165713772, 0.035105387245155946, 0.031964014202595835, -0.024984942870306653, 0.02004073945386396, -0.01267976260310405, -0.017706365933993336, 0.03502439111118876, -0.02069227044431653, 0.03395105113625247, -0.027510876235696605, -0.009185658200971954, 0.0030758282162610673, -0.005284686177851716, -0.03255457185705041, -0.007868239763774916, 0.01901075021595586, -0.009819348483689046, -0.00246887267627875, 0.003822121967890882, 0.014243270300414801, -0.030844397860344708, -0.018603745496023196, -0.02858456051039117, 0.017827121233720423, 0.024223183799744075, 0.02958380171166868, 0.005774182102584996, -0.030989114906632156, -0.009683544428855597, 0.01450980892162455, -0.02520284260521477, -0.010348310598736896, 0.03425853530520441, -0.022751245251206743, -0.004626413535357825, 0.033097885808979634, 0.008489187881569016, -0.01532926525864653, 0.03240261579906075, -0.034927799451686996, 0.03237341897764108, 0.002569864096403394, -0.035067488103971214, -0.006191502639234411, -0.007699636387942077, 0.012616325467205345, -0.031459110215308124, -0.026583425308945544, 0.023941382154867574, 0.035349894102715745, 0.024934540541400135, 0.017365413430360535, -0.0073237298465535184, -0.01884906806022109, 0.025888339530066265, -0.02586349007372892, 0.006671562489791861, 0.01180886407764802, -0.007596099483638493, -0.007857963687762695, -0.0066306094238434456, 0.02907771930948198, -0.0031749907915395127, -0.0021941157295575615, -0.006298204909914729, -0.010211036057166532, 0.021036425215825334, -0.0012648447928644677, -0.01024258043995386, 0.003679901935655784, 0.004940430066032405, -0.009710955316907528, -0.014011395436060756, 0.0020175149861744257, -0.007863201186518327, 0.007736204454558915, -0.00840236382689751, -0.005894517247422079, 0.002969280616333725, 0.03339797835307135, 0.008057259699122426, 0.012217597074407687, 0.004215411221285016, -0.0034127571177465866, -0.011396005174377182, -0.018943148608800118, -0.00880451355521829, 0.014346589303396558, -0.010163089370525742, 0.03209539661737143, 0.0018986963221916476, 0.033664921106398994, -0.02835039226593614, 0.013672139749834982, -0.025553045613427295, 0.0037835745143832778, 0.03427779532278087, -0.021587685811559024, -0.0207804625317783, -0.014662886906383137, -0.014863495989970213, 0.017023004908708457, 0.020512473086215146, 0.000769812189540047, -0.021707658189176107, 0.024675626481952213, -0.012140212578326488, -0.02308293594439584, 0.022241585870445866, 0.020010647701812448, 0.020728026617718314, 0.014873225630196241, -0.00873367262495995, 0.034409803860781706, 0.017120102567822638, 0.02592914086215139, 0.011775834234877427, 0.013811721167669813, 0.009739744792905076, 0.019243240018789232, -0.021461658653293816, -0.02240908164040738, 0.034167681854801436, 0.0031595394117266418, -0.0149366979788493, 0.01816950834552564, 0.016762462092057236, 0.031238081036394725, 0.00012590014475912157, 0.031933180793624005, -0.00827633918899944, 0.028608662484110772, -0.03208312353668297, -0.019742026538806093, -0.009378895909312963, 0.020030561422336644, -0.011645116048662934, -0.008403441655444717, 0.003831487872676929, -0.0004320475878311398, -0.021300934389108708, -0.013821916860438257, 0.016326094651031835, 0.01903840324947126, 0.025299622269287336, -0.025308824282035472, 0.0011764330485960958, 0.0028848794998661154, -0.02411090581213062, -0.02243877944521757, -0.03414745237139865, -0.02155078048915768, 0.03384051458017001, 0.0037106835438302744, -0.03234224898124179, -0.028205363963073667, -0.011219336446709305, 0.032803378818435674, -0.033607865636404555, -0.022247184237043097, 0.002540925192404635, 0.03297255871996782, -0.022509329507661394, 0.009633617922547093, -0.020977282670747378, -0.03253546463412973, -0.02843890759571533, -0.02919566167959243, 0.016583863815384046, -0.012318090192188491, 0.01619226181495419, -0.023353424753380075, -0.001719812152963272, 0.012809475038622713, 0.019393071026163847, -0.012340112183801797, 0.0021264816660956838, -0.017176241445452607, 0.0160427715024899, -0.0023781055838925647, 0.022039974188588447, -0.031024726956119398, 0.0002525632731980904, 0.026237178905009317, 0.031827803741998985, 0.02651533217772482, 0.024267930031561198, -0.034012093188725424, -0.026655195054634706, -0.028510319771894197, 0.0279488128637679, 0.026005649585732427, -0.02823726778104044, 0.035641432152155775, -0.0018377155071691337, 0.028093708676419527, -0.0344003250973244, 0.014153010202091181, -0.02860058000821593, -0.01049676174011449, 0.030046689191395484, -0.006880132949560025, 0.005369076015913108, 0.003185497339487594, -0.0069650276715141025, -0.02111169889903938, -0.0036787219451630626, 0.018882556351204616, 0.0318150222422899, 0.013370968170326862, -0.02331995965603706, -0.02797626067055423, 0.03500060423743495, 0.014316823226482065, -0.0168733412037235, 0.00902081045428161, 0.018371050040711132, 0.012679863468909829, -0.026444613803124517, 0.013504335562548462, 0.012431358235891928, 0.016697424398023866, 0.004761023822741477, -0.024984815174032813, 0.02720456402191033, -0.008004584935383996, 0.03445230038536031, -0.010378577635645965, -0.025664461342219873, -0.004084295542182322, 0.032334660827495476, -0.009004841242868536, -0.0208666606600206, -0.015213967308998249, 0.00929398021744478, 0.016639408350842298, 0.02748677322509466, 0.0314973796515802, 0.006761646390577818, -0.021658757004380483, 0.0022459753964716206, 0.0323717543217664, 0.01735569220284353, -0.01438413242415365, 0.027230196404297007, 0.025197578912818295, -0.017119945342426755, -0.012128364523949236, -0.03427385748024401, -0.02226904055478267, 0.035419966994665, -0.034839777569931465, -0.026779773053979286, 0.010120614913864645, -0.011577050618307208, -0.01426688321997694, 0.028312087286289887, -0.025058222251712493, -0.025630409153113754, -0.024348088126118914, 0.00686491496805665, -0.01667611515921076, -0.0082841669645528, -0.023060607368199877, -0.029531824817722596, -0.012113431606485876, -0.019605242900145592, 0.0054166828253569155, -0.001540500566169873, -0.02933636616670933, -0.0008397599378800944, 0.022681727736198712, 0.022955768749864425, -0.007593615318558613, 0.013406110439721484, -0.027465378845986755, -0.006633223315280973, 0.03171985328085483, -0.025575527915703063, 0.018026994955233713, -0.026735244179112945, -0.028890756976522134, -0.0038908677431792366, -0.03476748069525926, 0.01113863728423748, 0.01398095067962446, 0.0073930219545219845, 0.03273249738090921, 0.017296652633704435, 0.031125846954082024, 0.009757450032428212, 0.011878511837325323, 0.02836231665986172, -0.007657215839963268, -0.024305235082270876, -0.031246184628498253, -0.03058306180810542, -0.01582301713985447, 0.025644384508659444, -0.006647895574759397, -0.02611976247037462, 0.004832433904392387, -0.0019940783124389977, 0.03481147109207269, -0.02570253250071808, -0.019067046168206876, -0.013816311241470392, 0.020647957581824843, 0.026443620140589937, 0.02767294493407564, 0.020736094251395488, -0.01923683772599587, -0.0162828723068979, -0.02219316845325936, 0.029561114862679077, 0.0025639459404228626, 0.01769647548092478, 0.030336298298927762, 0.007977894046026786, -0.032679001765458605, 0.02868059503257111, 0.01962532025511297, 0.021085194570018933, -0.018198508871741657, -0.014311757186336727, -0.01150893813809819, 0.03182566328677788, -0.03245963440767321, 0.0053470323935720055, -0.022253711229893083, 0.030533708238030546, 0.01773208224571007, 0.012964334477842319, -0.013560326642914589, -0.018729257396879598, 0.001561080278326299, -0.016764206880795367, 0.03265216114522625, 0.01582103285129646, -0.033113422060733415, 0.00460451480122685, -0.01792980618614245, 0.010996347567374649, 0.021088631681789805, 0.0010541189852478522, 0.025110327529047245, 0.003799087517516191, 0.024522354194852665, -0.019092454498316598, -0.025866421516315786, 0.009954099710734006, 0.03190509604700322, -0.010609137219707838, 0.023496851364543506, 0.0001311115089985826, -0.023002601621626394, -0.014629378197637075, 0.023881385181843334, -0.021062467795631937, -0.03395315572130641, 0.018847743922699143, 0.02933393604639751, 0.028220907248250056, -0.029357582764688615, 0.02284725097537072, -0.005418302704365131, -0.009188549631591103, 0.035116835059473044, -0.008866799722236736, 0.030991737282439733, 0.026368006654771535, 0.028190463866048936, 0.0020528652195764036, 0.023753708984754388, -0.010574867316992849, -0.027094025623746996, -0.02672031196581661, -0.01969134038768816, 0.029549074760471836, -0.026346147421147752, -0.0214920311427846, 0.02930285811405579, 0.012647918225710564, -0.032911513777290825, 0.034111749344030357, 0.014069791863885073, 0.013654234896432074, 0.035404709652128254, 0.026782303582587486, 0.024388409248498808, 0.011285935562896554, 0.008652020808117254, 0.003065722201970179, -0.02130156826387293, -0.034187843224799175, 0.03468079807674971, 0.011515266584247674, -0.008572605540934022, -0.023588737283635402, -0.028168241692625978, -0.031523907183968185, 0.02892957113542889, -0.024935653226577877, 0.012470734322787383, -0.028250829975496113, 0.007954327622317212, -0.03554262736292277, -0.03186773045196432, 0.029298933055452923, 0.009868152323599666, 0.0061839511427118155, -0.03277333822239407, -0.021891410957050612, 0.010926905122309776, -0.019195219960747235, 0.023212071258144396, -0.0020832847356460466, -0.022062223866845355, 0.009436906636425673, -0.023030505948470226, -0.02336960133106224, -0.005621765226733013, -0.017513003088419965, 0.030543098841249672, -0.02118182963158297, -0.032907437341702074, 0.01642963566839379, 0.03223983899929735, 0.00027330717382391596, 0.007999449634325535, 0.005956238176385955, 0.012056277814041932, 0.029737473726542094, 0.004902151222683623, -4.072150709077166e-05, 0.017593277308699886, 0.013544717446540542, 0.020270069450757575, 0.016252568770536973, -0.011913724115048008, 0.02229510526614964, 0.00019307763192863027, -0.029642533595575282, -0.03041834490366925, 0.021472038033952645, -0.02521151819074475, 0.02703612876274681, 0.0030257221709885014, -0.007943309796440296, -0.03224194153630595, 0.018861669414767974, 0.015897587709064312, 0.024665229015284798, 0.005329360722133271, -0.03526261835464513, 0.02112638639645116, 0.033181358202078355, 0.010011029648120744, 0.009102396162046507, -0.009464645844787027, -0.021111285940875024, -0.012764360333284755, 0.014454661797303574, -0.01218588602583448, -0.02463792234825324, -0.02396819231017892, -0.017436299733965654, -0.001109398277791702, 0.029416610285435803, 0.016542419480602602, 0.02244425688070065, 0.028748265080139866, 0.004300733179222043, 0.02727576230716031, -0.0020176741696483914, -0.009580672943247643, -0.004376009214796465, -0.00963157291556319, -0.02366298838286406, 0.02587813559669007, 0.0027676061732003683, -0.006041178301961515, 0.014442454699412948, -0.03148688917301563, -0.0133882223660342, -0.01398621869525653, -0.006050029860562086, -0.033459611565746866, 0.025481830136627113, -0.008948943125297482, -0.0331175550467145, 0.017803412227749116, 0.009484509553775389, 0.00023732911692469255, -0.007160006388838307, -0.005117264502755847, 0.008986487085261095, -0.027809799673583522, -0.020802723176015447, -0.02021195243506937, 0.017504774829612244, 0.0001880353050965582, -0.03000832070717136, 0.03419499846489343, 0.03266708474268889, 0.005964595821472153, -0.002070101963805661, -0.02719442009142602, -0.02313394498140706, -0.0034099738116310186, -0.0019909354052378542, 0.011961157713460726, 0.0034052179418038965, 0.017682606225143505, -0.0074320139743588465, -0.009148454261019297, 0.01267880409112982, -0.0013183468774021767, -0.01889507280998629, 0.023951573630769052, 0.010607662734775416, 0.010459312350084182, 0.021358884127215132, -0.022615433207693436, -0.0009243687651557332, 0.0005291105633146641, -0.001571727770791144, 0.01953188620221575, -0.015125499048752893, 0.03537146546481785, 0.009222855011638251, -0.01922003447831827, 0.013584223702473346, 0.02423060197180961, -0.02528922823015356, 0.004880085846839331, -0.012269813788711337, -0.01097159740912049, -0.03331429845512804, 0.007076687100804382, 0.0028817306394430726, -0.009511896123724002, -0.00683354942165886, 0.001999063655341407, -0.01128984591287463, -0.004289668867018449, 0.03462603948600043, 0.012025723337762782, -0.02728323897850162, 0.004900825272590915, -0.0067130268217345, -0.016122122896771663, -0.016489884321356976, -0.034472185478876045, -0.013029925665130653, 0.014417235563940945, -0.004533197834950883, 0.008044505026524984, -0.03394890674051921, -0.009353621855625128, -0.021188161231085887, -0.026286016074709435, -0.0018664044180455863, -0.01636006881479607, -0.027771795423460182, -0.017832704593052164, 0.013543906232246517, 0.03477046845874281, -0.00124098626734781, -0.035544190632694615, -0.03335392782554502, -0.01658311408675628, 0.010366406287749421, 0.02380106384011578, 0.015155765259482486, -0.024144886494179316, 0.02240935323102434, 9.411340860954187e-05, 0.0018896628475711702, 0.007055141174040063, -0.012530887277290403, 0.018234013888064306, 0.01913603545865238, 0.03288274197470144, -0.020558596024589686, 0.01793828118012404, -0.019324168391025336, 0.032387666798917046, 0.01714966795740431, 0.02057164294391053, 0.026146675151918382, 0.03201074628860395, 0.016115280786046498, 0.0277120513398442, 0.0186068115739119, -0.023791073209242262, 0.034427961279492415, 0.0037180672130724163, -0.02651233743849678, 0.02020191571943084, -0.02646971285937485, -0.020697989694010932, 0.02728583581068452, 0.007502797514084296, 0.01528699410569947, -0.024110588051330473, -0.027364711045704964, 0.023058463030916455, -0.003897750444672562, -0.003283755402115808, 0.005560069431679312, 0.0034454440210008, 0.02718005039017147, -0.008241380465771322, 0.002178880393242813, 0.016451144669255704, -0.0261046414164074, 0.02973524715164565, -0.013627994163967538, 0.004192740261730055, 0.032467302549868744, -0.03200366639304101, 0.02492709178283419, 0.0338615156297381, 0.011703483523732666, 0.03099836119873022, -0.007412347056306492, -0.02589778361091281, -0.0025489906956634445, 0.006475496802030856, -0.022765680286622847, 0.02790360403782963, -0.02024597479599086, 0.015522350085557626, 0.006662900099458563, -0.02563712046780912, -0.028962344147830697, -0.017623502038396948, -0.00298923268476963, 0.025781309874652047, 0.009855562777794797, 0.016270267406551582, 0.033704874987574525, -0.027872581114895545, 0.012717722432880281, 0.014464222740679615, 0.0318210993270413, 0.03221912156688836, 0.02135299399109263, -0.020554482997048682, -0.014675779852121889, 0.007154210251550124, 0.03287767771031901, -0.03445341031501248, 0.008906544224110595, 0.03068367599450101, -0.022780151920066723, 0.03375315881253277, 0.015170736884746619, 0.035468470084596714, -0.007450530817749529, -0.019748449894167335, -0.003180170511915159, -0.03483078228873643, -0.0037720289285327335, -0.008921652160096168, -0.0039227616027120915, 0.02095251301323109, 0.008041322708278198, 0.03351938435830294, 0.005175620776044141, -0.0016859999954056404, -0.005248865739281365, 0.023546214039679672, 0.01453242246670008, 0.004285724809678307, 0.03132163460135965, 0.026146838126899274, -0.02177293858429763, -0.023719908972481565, -0.026363656630791717, -0.0034799203079964786, -0.01453502695884922, 0.033563164735304137, -0.029534826726986277, 0.01715087779125445, -0.007719318299564086, 0.016576082471225193, 0.03265527090246624, -0.015667547452518193, -0.03214047042782504, -0.019166912156562313, -0.0255177202965274, 0.006056736917574246, 0.00989254215888544, -0.027125892703722246, -0.006771054909589767, 0.030586920183415578, -0.02470415492810507, -0.028861372606692914, 0.0027185853446740705, 0.004952501577045163, -0.029112158087445286, -0.023340429042308063, -0.003342593835088757, -0.007447994892825318, -0.00529746647703647, -0.021729629075323154, 0.017505071253251226, -0.005643077862749082, 0.02069016883530489, 0.02383323868389605, -0.020744888618499418, -0.010050487438782372, -0.032431146397127165, 0.020456316448222694, 0.0293512561771611, 0.02024183045127121, 0.022693452703114663, 0.017789879473124128, -0.025428411659507343, 0.016924843429990604, -0.010525741971874709, 0.029781592884324404, 0.026981264233110334, -0.019856363755394353, 0.013103097952183958, -0.004976733436406652, -0.031963265178565986, -0.01218048183755637, -0.0218373754690273, -0.0042860691490548665, 0.001794676778377421, 0.020574041911662178, -0.017379387814634287, -0.01018814247567642, 0.033024970546154414, 0.006053068421276072, -0.024633642262619476, 0.00608467800437302, 0.017657301481911587, 0.016867639486815196, 0.030741304815044557, 0.016723597875583338, -0.006243839611303552, 0.0207326601126437, 0.02936072852932879, -0.006729132439116626, -0.009233630935550963, -0.012777662135309642, -0.02678751801278658, -0.021982820383952138, 0.005263684576275272, 0.03055562117250977, 0.007416216325927173, -0.020807958146662656, 0.007293123005670056, 0.011452476345953857, 0.025845474978140315, 0.0029562355747372233, -0.02451468584535666, 0.03317580598466846, 0.006788071190703309, -0.004353388597791512, -0.031072416250513567, 0.018518059066356642, 0.014257323189870035, -0.012739806768635214, 0.024127520103380727, -0.008945133326233414, -0.025950598890153297, 0.027550002305261834, -0.0018433944620333382, -0.03491186869050395, 0.03502679657236709, -0.022150383143008386, 0.023040758416124414, -0.019091359333105858, -0.020747059049614183, 0.016071782683523064, 0.007341878808419942, -0.005892720352344021, 0.01566800674212937, 0.017610256176032686, -0.01795561653977002, 0.020859578152496273, 0.021955153779321192, -0.011198786307982656, -0.00048108726818209464, 0.021806229564523983, -0.025190673452120005, -0.0008853292808680254, -0.011465619605837663, -0.0035368110141911846, 0.020218887599431617, 0.010821320244485589, -0.017866732890481827, 0.00019585731920464453, -0.024102869397960167, -0.034491406444375906, 0.03234309148963756, -0.01486142867370549, 0.014561611904737664, -0.001467520297661554, 0.014591052468100019, 0.01722177352057075, 0.01654117636076119, -0.03462090007293365, 0.021654710593264823, -0.034160496900534035, 0.008596302096545978, 0.02580489381053882, -0.03349531834391791, 0.03396303702870495, 0.006322826954506041, -0.02866720623386124, 0.02889058274108951, -0.023712783861809233, -0.025917897234412766, -0.023408173815835574, 0.005896289914619776, -0.018832398632740815, 0.013917662542093898, -0.0114180598095815, -0.026228769323714245, -0.027270583761916257, 0.027172289515838062, 0.028293023000558224, 0.016948123539514207, 0.02296226320025259, -0.015210891745227804, -0.003925115769831511, -0.011871275584553347, -0.010345775513119977, 0.025738158131286173, -0.02196941525660687, 0.027149897932874104, -0.01630599905572533, -0.015575705132350093, -0.030474618104872387, 0.03206423361440749, -0.006029974588550693, -0.02966533812776192, -0.00044848436129133314, -0.01941820607067844, 0.009799357676777143, -0.018805615725297264, 0.013745215345077666, -0.013735384130149637, 0.026254115470000235, 0.022317489455848754, -0.02564622513779506, -0.0035099645419503023, -0.007362104681501716, 0.020835270174774243, 0.02264452133728575, 0.02646521589948382, 0.0029527992028916456, -0.0074348189094976215, 0.0168242093637741, 0.018925905766595308, 0.01435942386763922, -0.016005874672366773, 0.027263629642725676, 0.020104495442896345, 0.003885939701596175, 0.013992945060818138, -0.0246470956457777, 0.02567736760949796, -0.025982954732602773, -0.01989995757066784, 0.019380958289601735, -0.0006160561067465081, -0.03198903276927081, -0.016675237591480454, 0.004214178421031001, -0.006653768330016224, 0.014681773057658625, -0.004569172419920712, 0.01792123895393374, -0.004408754526688834, 0.013222965861570717, 0.025165249018081835, -0.020655198042644183, -0.02896011627006908, -0.019584480978639074, -0.02450432591085931, -0.004735838845719994, 0.011499604302160665, 0.029834048774072298, -0.0034447940228059444, -0.031713148417105666, -0.02649288164373865, 0.017822149025167773, -0.00646292963143943, 0.03153144874468945, 0.026164217868638102, -0.030371078327776864, 0.01826160086546487, -0.005985706397968986, -0.020623536195743964, -0.014607540898194667, 0.02196497825974039, -0.031624986864863064, 0.010870728782982397, 0.022995813411894904, 0.006623685450078282, 0.027788350244047275, -0.028643147538287093, -0.012713616611852645, -0.026388244912414115, -0.011561372502264744, -0.026415191368325888, -0.01898680232203136, 0.019261611411581264, 0.0031633456112910097, -0.007466273124895474, 0.010479537226045872, -0.014477927361034766, -0.03183363866979385, 0.006803009751343838, 0.012485570516005549, -0.03278088758108496, 0.029424858431869188, -0.032583784221837414, 0.016024786602178365, -0.0018595767038930447, 0.007530416980307747, 0.034370993631781394, 0.01135120059722992, -0.007140581428880188, 0.029959602370409056, 0.007837074583672363, -0.001922038484189489, -0.02898819326768317, 0.02366745048948754, 0.02349733312204333, 0.02347556099509582, 0.00790884407587235, -0.007883727111362022, 0.015019690835561117, -0.024080867542524205, 0.01209937595439584, 0.020319927421043063, 0.03003612478563399, -0.022785398839107896, 0.00803804817883694, 0.028406096401294934, -8.10868920349539e-05, 0.01968495685652316, -0.007871766486048655, 0.010103157465740467, -0.030587305477435083, -0.025574726590631026, 0.00938528658665114, -0.01027978025139857, 0.007874027854460952, 0.03409143084733996, 0.003032613310332507, 0.024167476011654292, 0.006419860375523207, -0.012863237666244094, 0.016507850741343057, -0.009932136541050827, -0.035167249423264386, 0.005445567828072785, 0.03542364159705586, 0.009705141979675551, -0.018610288195739247, -0.014204949770879636, 0.015758679085661347, 0.02774125941668861, -0.018820443634107658, 0.0004507241265969131, -0.01925534011888495, -0.006689908466597783, 0.011328189289524209, 0.01427269945148511, -0.028312600729046986, 0.016536518250752537, 0.010909500537789496, -0.025979645123621345, 0.020963329638725072, -0.021141507383935783, 0.01690331858541018, -0.01589473133824571, 0.0048529145482573855, -0.011301132758871433, 0.03055033069392344, 0.020476974747097927, -0.022622704290311393, 0.007797355325332806, -0.018024106947660226, 0.017832427017015585, 0.03299581853386876, -0.03123952054589709, -0.002117717503771464, -0.007704314269816112, -0.016558291719818475, 0.017350802914783605, 0.01636373241047039, -0.016973150040243617, 0.011992567374474794, 0.025041677254752426, 0.009098600966239465, -0.017431463796885673, -0.021212729692360606, 0.026591675105971782, -0.00847707683711649, 0.02844944861322509, 0.023956407768081778, 0.005980735672704898, -0.024688440050759795, -0.007432675016517588, 0.03542039302246913, -0.02377021852815943, 0.00860205543990828, 0.026524983584291038, -0.027944251830461484, -0.02451021313576853, 0.001900709019266208, 0.007079325565826482, -0.0063729406249024645, 0.030131723984330606, 0.0015000335554565178, -0.02651315776733889, -0.03205203619013779, -0.004675935284310888, 0.027150283003063814, -0.02956668096299935, -0.02914170316414826, 0.028309013143886966, -0.026252960575629345, -0.026570938105838722, 0.009568294687567742, -0.02766351163508411, 0.03506763645827251, 0.02302191253584227, -0.015549043006311825, -0.013946518214837143, -0.00936151471438049, -0.026623387329210435, 0.009743608876534644, 0.0038002853099119993, 0.020278413721311186, 0.0026404916675789748, -0.026561277736342582, -0.0057383906186125, 0.015146721504523564, -0.01467844588757679, -0.01561651444130432, 0.019703038552254637, 0.0008822043363760277, 0.01446603310465954, 0.018724454815736376, 0.00948239582373899, -0.025578633538341902, -0.0053324284584622605, -0.02255528262080865, 0.03131769661961639, 0.023176503380817493, -0.009348328691912029, -0.0066019629361623545, 0.007032895077634184, 0.02824846032200849, -0.020394953299256436, -0.016031778108760924, -0.02563530776384779, 0.019757620060027268, -0.006537410872720536, 0.03020382263787162, -0.006862774043045551, -0.01896264343461313, -0.027411628036228, -0.021162421870965897, 0.014084823685893033, 0.013970814285890198, -0.018040800656588567, -0.02150396961126302, -0.003987052885327112, -0.031876773034990556, -0.026159176722183795, -0.000947820353206809, -0.012221411654189756, -0.020616982727022653, 0.03145703456250866, 0.012187284954757738, 0.019999552575108492, -0.011025776400884242, 0.021848679671235716, 0.03528590822392776, -0.023787762775736424, 0.015606953222724389, -0.027439999045599364, -0.03119594617400808, -0.018639308262331764, 0.02418484749997942, 0.029734202433714257, -0.006343890107129165, 0.025244581286746115, 0.03498835865983078, 0.01139361169486599, 0.009639901610084687, 0.02041026784487664, 0.008114606853354966, -0.0016050068334379655, 0.0016045964889492598, -0.028331822947574, -0.02774427423100544, -0.024742359568874717, -0.004162896204302983, 0.02053670741267397, -0.00667633625805578, -0.022783362331112077, -0.02879615570230537, -0.016419065352887324, 0.00821129173797998, 0.02008239752509306, 0.013106032150324654, -0.015285482551117993, -0.026463501649353936, 0.026599407766761434, 0.03445889878951294, -0.012940915088372258, 0.004178197750405003, 0.011412232320041793, 0.027553896805522938, -0.03421441787303721, -0.030848256187024713, -0.023134311466211744, -0.012366171590293176, 0.02979010623215879, -0.009808644972466203, 0.022478847669272082, -0.02239076668935012, -0.00842723713116826, -0.014129961820999364, -0.03529511950451641, -0.03489541857445656, -0.01280063583731128, -0.014811357490134403, -0.010257644943506505, 0.018470889546292533, 0.019248960364995373, -0.014075720419684768, -0.0038416957973733596, -0.03357599673350469, 0.02441899773939536, 0.030634572242377478, 0.023614081114198285, 0.02360424825220141, -0.02304906396658012, -0.029617529672113927, 0.02938016067571352, 0.005819566486775745, -0.0006371127535495989, -0.015491909424645296, -0.02482625317044996, -0.013228419601953112, 0.024455382356769938, -0.0009619774107019752, -0.0013505554786349325, 0.026305495334174374, 0.022784576951743993, 0.02625347265838539, 0.033648626078013125, -0.029709602684873625, -0.019594181842458425, -0.0018992820297484994, 0.028590851177979403, -0.0032264346867573413, 0.02351986951885091, -0.012242681074593347, 0.02662196451253872, 0.019669740246844494, 0.029347328282282235, -0.029274496247005406, -0.007631411519600149, -0.0013003894864562612, -0.028231094772344777, 0.0012614009582857441, 0.028674965519734204, 0.024289948874170644, 0.0019489677693102026, 0.02684215944645981, -0.01386434324761171, -0.01607827567617627, -0.03254405088161349, -0.007523692206976692, 0.03191761457930562, -0.016133732541237834, 0.02624836221370032, 0.017359219332524812, 0.0064594818934194855, -0.033391139018360015, -0.00544539317385024, -0.031919110554009304, -0.031123205156122245, 0.012185801665957023, 0.025020167635025695, -0.015853771690064505, 0.014536456070158457, -0.020651515647627308, -0.007229742989307825, 0.001480287843892282, 0.032628370435054316, 0.009624596399996996, -0.021838064897283238, 0.008676067570384907, -0.021388640397301047, 0.019723176875210476, -0.033785302600448944, 0.012018151271371076, -0.027336105926244428, 0.0038403206039337363, -0.027928754326428096, -0.031188213290755613, -0.0072167639351122005, -0.03281353474178667, -0.022912757843033964, -0.025207522360186908, -0.006276887611304627, -0.02556844675536622, -0.030160748433386602, -0.009962373384330132, 0.02968136914154693, -0.03345769731546984, -0.014753318159725937, -0.030227887952503425, -0.014077636004729364, 0.03438595541515678, -0.021438150418659707, 0.022604374736488724, 0.025938888168588414, 0.024905689613964888, 0.0038194257923869213, 0.03370519870524868, -0.02383271950986194, -0.005633004579686914, -0.031339397434076155, 0.0001939800030531434, -0.007295505117341973, -0.007366387267918249, 0.012487861554900146, 0.01246242591326827, -0.0036190574616403576, 0.010655602657968355, 0.012869314846220907, 6.409872450278765e-05, -0.025172445378457513, 0.002697921266096391, 0.005315993440946909, -0.00368664272457173, 0.03181060260066912, -0.0030229920586514747, -0.011196476859451299, 0.0013471692591294374, 0.013560517698285986, 0.030771342893043507, -0.03459825681097373, 0.0278758366436728, -0.004957522215738134, -0.026370007840304677, 0.005265613732887087, 0.014021035960599035, 0.012895759968643339, 0.033482695367744425, -0.006827343615307743, -0.03500395981283203, 0.024377689620130132, -0.003145351072166648, -0.014344924066767944, 0.01572183372494801, -0.028116613576854417, -0.02357444465750569, -0.031497503016813436, -0.008147671154625358, -0.031775009196272054, -0.032157459578041274, 0.01517581119152259, -0.004628701634773722, 0.025257740170314853, -0.029707646580915577, -0.012977138493320899, -0.0014031881519546944, -0.0037457190721932, 0.0018157719336919151, 0.022113081755048034, -0.022356729936094086, 0.01163658870647228, -0.019921256931891982, -0.0013546464199417707, 0.0012170630034576413, -0.03429252177323745, -0.029891803354652968, -0.035022068540074634, 0.009488117270213021, 0.020802865806688844, -0.024601110508785818, 0.02151264381520072, -0.026568945993096425, 0.014596848396265572, -0.00907069233785675, 0.024585285258685384, -0.033770761791735084, -0.010676157539059983, 0.007762564084122656, -0.03270671059334253, 0.02003452236678237, -0.0005228674213503814, -0.016448868833557298, -0.03286031160032261, -0.025917473643648315, -0.012603843717836198, -0.017729483944222413, 0.018761533837292708, -0.015800578602504205, -0.010121991633642484, 0.02196534853418397, 0.028620362439122343, -0.01527165967123368, -0.002192287136426155, 0.017106102255583098, -0.00012643808378926772, -0.010796938382474959, 0.01971206112936154, 0.01943816406980782, 0.022222953796571934, 0.0007608084801776453, -0.027278782761372133, -0.0005536209252195762, -0.00549985118030788, 0.00334005698854333, 0.034045071086244064, 0.016437429139698874, 0.01563332522333914, -0.017748891321656524, -0.031175881482041104, -0.030103748200739733, -0.0035573549545776196, -0.022970147691435665, -0.03263469241060123, -0.02111494640111733, 0.0030419653562923877, 0.002836881195101924, -0.017846221511940832, 0.01660032888546519, -0.002559873326725946, -0.02157587315457799, 0.012268867207887595, 0.008688077279742999, 0.032589275081882946, -0.014115228200931354, -0.03413898727474359, -0.005354331729066567, -0.019530870172793344, -0.0043778457104608004, -0.0351959996929072, -0.01775463084394462, 0.02332030042256354, -0.011742898350229514, 0.015695755076434684, -0.029308688865546818, -0.03181593696096462, -0.0067183472746887764, 0.031544138467717094, 0.02611566692827668, 0.012584572558426115, -0.034551053311642356, 0.030431790048057912, 0.01884803262524103, -0.018983595291751705, -0.02987162991907212, 0.011874188742749663, -0.024750501311138096, 0.0029833996946205255, -0.03424395208861471, -0.03384966189037522, -0.013974822883109654, 0.026974512045261544, -0.03499674702222302, -0.03417285433046192, -0.02755846954217749, 0.006826191017139461, -0.032757776712912495, -0.03166649077771513, -0.01686965830506142, 0.007241239692637814, 0.012674314383064267, -0.030800048507563196, 0.0008947783036202012, 0.03142702231693865, -0.017603301798313088, 0.0005061146878119681, -0.0033778065987646716, 0.02909183586270996, 0.005031836467252613, -0.027208275566907247, -0.030872418545983563, 0.011985272253775015, -0.015489380693219692, 0.004643026863133868, 0.014101680710911437, -0.004255299854472189, 0.01743984193303137, 0.020556985543075015, -0.024058281191087327, -0.02417591658948941, 0.017206587296937192, -0.0066018680883685454, -0.022324669785811838, 0.02776784946188841, -0.01759496480412406, 0.02483920552511081, -0.015887677453781182, 0.033067774148235245, -0.01846112781636828, -0.004483790880494093, 0.024382697778928365, -0.00650632577737623, -0.0166724735508678, 0.0026748413571696422, 0.0064484699353323394, -0.03323865491107504, 0.02661613489455759, 0.029495447917363953, 0.008014127643942317, -0.009293286314886906, 0.032110229923719265, 0.027011820213151475, 0.018993967542036652, 0.023789981237994647, -0.010590020421474151, 0.02624863516438275, -0.030487254729173074, -0.027733431843346344, -0.031220571871007397, -0.0030943215667666524, -0.013645153237864438, -0.02301617526267375, -0.006140944205053979, 0.002370249042386054, -0.024521695055131083, -0.019313443606021708, 0.01040332313223862, 0.008342489280427419, -0.021752295757766316, -0.029178333825975056, -0.021631865287921864, -0.0062109746648403765, -0.02774500078038733, -0.026242106645456474, -0.0007937812789039964, 0.032355824130449594, 0.030616422416094927, -0.015360872073757295, -0.031111070878356715, 0.0017206806702294414, -0.01618643870865159, -0.023517299862869916, 0.03036399879858175, -0.0072005999492153385, 0.031884340559663805, 0.005373051386604092, -0.02402665552738422, 0.016944356953613095, -0.014651814203385072, -0.026530484053020123, 0.007883231798368702, 0.022423416024299057, -0.025176908680170473, 0.02223977588303026, 0.018047677433899303, -0.026534640017821028, 0.02516761019378032, -0.02779467432513698, 0.008292178628707236, 0.029715061006687842, 0.00359579810075894, -0.031017413127495095, -0.018671966494773585, 0.008028158715753353, 0.017197381003577317, -0.011926259583933419, 0.023783710905773848, 0.015479674766449672, 0.029373789720303585, -0.026716383830106334, -0.02093364430960299, -0.016052815496496776, 0.032122792450892966, -0.018963055002854143, 0.016772534898760086, -0.02186735521381683, 0.020794011266476294, -0.033568008440800115, -0.015458942339614612, 0.02273879959562454, 0.01436768423122365, -0.02418213927183712, -0.00012551264951599084, -0.02473539886430156, -0.02356249019804971, 0.014838061985519742, 0.016773142085590005, -0.013228087665365174, 0.016459095611555553, 0.03367618073843789, 0.01608629038579887, -0.01780720657320306, -0.00042323066046395, -0.02454079646252129, 0.014099492609004671, 0.01713551782082338, 0.03494346824481816, -0.02428675479728092, 0.009969893091162148, -0.003072093501198287, -0.005524072316238986, 0.026647762993010415, 0.01452936186476159, -0.0004928801679620382, 0.024853053542694292, 0.029719397102679845, 0.007810080615027153, 0.018401746345231496, 0.027102161497472965, 0.02198303345629228, -0.023704075566735792, -0.01079415014728398, -0.012366514530461954, 0.021456813472163452, 0.012582721641491173, -0.02540712425602636, -0.023494776806661184, 0.022479255395937297, -0.032050355273379676, 0.028371064210715398, -0.025140926972371396, 0.008451634172189684, 0.0209535019500918, -0.007803232113385389, -0.024110551761219512, -0.0011368499126345267, 0.01015243777735145, 0.0228123818835733, 0.031738008288156073, 0.0044965062886144925, -0.025857870443226356, -0.03245167676284726, -0.015396136643441883, 0.005867665050642091, 0.024428417184800304, 0.0003865928295828499, -0.02485078639669166, 0.0122513476560944, 0.03221624911305643, -0.026187073144973108, 0.017739747676528732, 1.3301211030753672e-05, -0.007381026703672807, -0.02187763390645644, -0.007366068112457467, 0.01682827004493942, -0.015104407050905409, -0.026475053579933443, 0.0343502800794521, 0.013267881468310871, 0.03155385476917975, -0.01815359790106942, -0.03353563841256563, 0.01271084712553816, 0.011310104522631806, 0.003199858470004995, 0.0048812558129147565, -0.0006304628518532053, -0.009569621822088663, 0.02585365407027317, 0.008713216385171751, 0.01059018448713972, 0.026803012533503097, 0.023246205137535992, -0.024255518574788373, -0.0131423687408136, 0.03230515937805202, -0.028546451716306875, -0.018823374369366264, 0.0009752501731385896, -0.006729994416547758, 0.010171181841270614, -0.01982234835589362, 0.00471533337353795, -0.00494889137444374, -0.0299171257089176, 0.003261610677320138, -0.004440709686375871, 0.030184292060687685, 0.011448462455603126, -0.01616798170125356, -0.0010259381129126355, 0.022172532563074745, 0.02080663964864862, 0.00033813891016740545, -0.013860788702329032, -0.010843398821148416, -0.02418412495892956, 0.02139186894871994, 0.019243270842187313, 0.011231563743210587, -0.0203953884013969, 0.01365844242680299, -0.022037153862296526, -0.02117453732235228, -0.0072407036881029785, 0.026009362993603312, -0.026745368177795492, 0.014567693694736665, 0.023167699077384495, 0.02307738658735384, -0.022186684047871566, 0.017854592701238892, 0.014029441196020691, -0.027006610484414717, 0.023218827660720656, -0.03217734931064195, -0.00725770557360879, -0.032368448908401466, -0.01010154175245597, -0.011001477942752858, -0.01964619280706764, -0.024663090585062306, 0.03259590925860493, 0.03564525393671048, 0.0006685234947941503, -0.01945694970688517, -0.0026847142700969612, 0.025501524195233626, -0.024220390067790372, 0.026651105413860555, -0.021348777340874495, -0.01976137790935567, 0.004192727440796763, -0.011941416660871467, 0.010890688930958037, 0.003502328723143084, -0.033258716554172923, 0.016277544421542833, -0.03273087626307114, 0.03042928958747123, -0.0049762200288045845, -0.03307102837534925, -0.03167674795798037, 0.02681718595848938, 0.005366125888854323, 0.019438155797329586, -0.014427347041483867, 0.03400361871750414, 0.018258414442287253, 0.01292579020111139, 0.034060238171145195, 0.020477938092256478, 0.031559783071108884, 0.005161496372320781, 0.00921915171605836, 0.011923756168030144, -0.0313692084104881, 0.016201991806392566, -0.015909790296234284, -0.021019629254273586, -0.020525823257928812, 0.0018069150823840086, 0.010858130916208764, 0.016217671719381137, 0.015695257793537056, -0.018080376817869788, -0.003787146201685877, 0.001513601197514726, -0.0262983713424821, -0.010114386068362211, -0.010830109827361394, 0.018192204553004545, -0.0026880178599497334, -0.029995750123164775, 0.03062261799510952, 0.03443965899891154, -0.0010585186563870086, -0.03469032285696564, -0.00031688669494729844, -0.002132141279976074, 0.0004940949414904178, -0.0017444498611785303, 0.0008864418769903054, 0.03255850683116075, 0.008689202279385078, -0.02923320750166554, -0.02139222034761501, 0.005421065258046436, -0.03217669706971679, -0.0038304216130634217, -0.014608288970280428, 0.020790591024626246, 0.02337563558895005, -0.02411911897594244, 0.024360657495038216, 0.01174647428444426, 0.005195653146610436, -0.009754624782196486, -0.0008062788464623144, -0.015138354875052653, 0.026067976091711787, -0.02390515836959157, -0.019975520218982284, 0.006121773412393846, 0.011199597547024081, -0.013659402037231585, 0.008128628992932738, -0.02783236802085872, 0.03457591642606148, -0.025327451514088762, 0.03294094756846845, 0.012176024155801213, 0.012337570444445611, -0.006567449441806221, 0.012138445885617188, 0.028086685701627794, 0.005815164076117239, -0.02747052975234524, -0.02868940183535715, 0.023794195676443964, -0.034997574272057234, -0.007433529844428156, -0.0023839808642587357, 0.012537996931535835, -0.005237517681523244, 0.023033900691803878, -0.022675795842507174, -0.0013713028730593735, -0.022220525677397303, 0.030792034284499635, -0.004664959865789162, -0.028837443855934165, -0.012890615117956812, 0.013867025793454129, 0.006887247209705452, 0.0006479425348994071, 0.022175809949135507, -0.023948990666789516, 0.02756353988569381, 0.030361163030440872, 