// Copyright 2022 ETH Zurich and University of Bologna.
// Licensed under the Apache License, Version 2.0, see LICENSE for details.
// SPDX-License-Identifier: Apache-2.0

#include <stdint.h>

uint16_t ch_in = 3;
uint16_t ch_out = 32;
uint16_t dim_in_x = 6;
uint16_t dim_in_y = 4;
uint16_t dim_kernel_x = 4;
uint16_t dim_kernel_y = 3;
uint16_t dim_out_x = 4;
uint16_t dim_out_y = 3;
uint16_t padding_y_top = 1;
uint16_t padding_y_bottom = 0;
uint16_t padding_x_left = 1;
uint16_t padding_x_right = 0;
uint16_t stride_x = 1;
uint16_t stride_y = 1;
int8_t *bias;
uint16_t bias_shift;
uint16_t out_shift = 0;
uint16_t out_mult;
float lambda_dram[32] = {
    0.5996160507202148,   -1.05904221534729,   -0.3705223500728607,
    0.341760516166687,    1.555968165397644,   0.8924002051353455,
    0.7056249976158142,   1.4172109365463257,  0.7085807919502258,
    1.0582003593444824,   0.11458361148834229, 1.905626654624939,
    1.6713995933532715,   -1.4810338020324707, -1.122417688369751,
    0.42049989104270935,  1.4447131156921387,  1.2690738439559937,
    -2.1851394176483154,  0.25435417890548706, -0.02537033148109913,
    -0.8518043160438538,  -1.9485222101211548, -1.5250015258789062,
    0.2552865445613861,   0.9056491851806641,  -1.6129660606384277,
    -1.7463458776474,     2.533888816833496,   -0.30707496404647827,
    0.008886533789336681, -1.5550737380981445};
float k_dram[32] = {
    -0.1070350930094719,  -1.0936137437820435, -1.2532026767730713,
    0.9563636779785156,   -1.6115822792053223, -1.2148451805114746,
    -0.16695699095726013, 1.0513639450073242,  0.7283791899681091,
    -0.34462252259254456, 0.4790245592594147,  0.024238986894488335,
    1.0386160612106323,   0.37699317932128906, 0.2221890538930893,
    -0.2742422819137573,  0.9935671091079712,  1.5131076574325562,
    0.2529439628124237,   0.12658123672008514, -1.2758959531784058,
    2.2149014472961426,   -0.5991747379302979, -0.329120397567749,
    -0.06611745059490204, -1.0740467309951782, 1.3753548860549927,
    -0.3824302554130554,  0.5423157811164856,  0.09797175228595734,
    -0.1441148817539215,  -0.5299267768859863};
float *pIm2ColBuffer;
int flag_relu = 1;
int flag_batch_norm = 1;
int flag_y_accumulate_start = 0;
int flag_y_accumulate_end = 1;
unsigned int *memory_chan;
unsigned int dw = 0;
unsigned int chw_layer = 1;

static float fusedconv_pInBuffer_dram[5][7][3] = {0.0,
                                                  0.0,
                                                  0.0,
                                                  0.0,
                                                  0.0,
                                                  0.0,
                                                  0.0,
                                                  0.0,
                                                  1.9269152879714966,
                                                  -2.1055209636688232,
                                                  -0.04306747764348984,
                                                  1.6487230062484741,
                                                  -0.7278813123703003,
                                                  0.7624453902244568,
                                                  0.0,
                                                  -0.4973975419998169,
                                                  1.078317642211914,
                                                  1.27912437915802,
                                                  1.334737777709961,
                                                  -0.2515752911567688,
                                                  -0.8712361454963684,
                                                  0.0,
                                                  0.3188803195953369,
                                                  -0.7745925188064575,
                                                  -0.8797858357429504,
                                                  2.1227850914001465,
                                                  -0.9138230085372925,
                                                  0.5258087515830994,
                                                  0.0,
                                                  -0.8140076398849487,
                                                  0.23105137050151825,
                                                  0.19707036018371582,
                                                  1.6991702318191528,
                                                  -0.08980827778577805,
                                                  1.056300163269043,
                                                  0.0,
                                                  0.0,
                                                  0.0,
                                                  0.0,
                                                  0.0,
                                                  0.0,
                                                  0.0,
                                                  0.0,
                                                  1.4872840642929077,
                                                  0.6784184575080872,
                                                  -1.6046669483184814,
                                                  -0.3924786448478699,
                                                  -0.5594301819801331,
                                                  1.6423169374465942,
                                                  0.0,
                                                  0.439589262008667,
                                                  0.8008005619049072,
                                                  1.2964228391647339,
                                                  -0.2316243201494217,
                                                  0.859858512878418,
                                                  -0.223365917801857,
                                                  0.0,
                                                  -0.42451897263526917,
                                                  -1.5575724840164185,
                                                  -0.6011420488357544,
                                                  -1.234653115272522,
                                                  -0.6581372618675232,
                                                  -0.48799172043800354,
                                                  0.0,
                                                  -0.7359927892684937,
                                                  0.008653989061713219,
                                                  -1.1441359519958496,
                                                  2.8140270709991455,
                                                  0.4584398567676544,
                                                  -1.4691500663757324,
                                                  0.0,
                                                  0.0,
                                                  0.0,
                                                  0.0,
                                                  0.0,
                                                  0.0,
                                                  0.0,
                                                  0.0,
                                                  0.9007171988487244,
                                                  -1.2345448732376099,
                                                  -0.7521352767944336,
                                                  -1.4036071300506592,
                                                  -0.7688388824462891,
                                                  -0.1595974713563919,
                                                  0.0,
                                                  -0.7581311464309692,
                                                  1.680620551109314,
                                                  0.610466480255127,
                                                  0.041759490966796875,
                                                  -1.3846737146377563,
                                                  1.7173614501953125,
                                                  0.0,
                                                  0.3057209253311157,
                                                  0.9956361055374146,
                                                  -1.2741512060165405,
                                                  -0.4879138767719269,
                                                  0.07802387326955795,
                                                  1.1913690567016602,
                                                  0.0,
                                                  0.14533767104148865,
                                                  -0.1422896832227707,
                                                  0.3383229672908783,
                                                  0.35978734493255615,
                                                  -0.5644400119781494,
                                                  1.4331552982330322};

static float fusedconv_pWeight_dram[32][3][4][3] = {
    0.7281095385551453,    0.9604488015174866,     -0.4976462423801422,
    1.2683113813400269,    1.7422527074813843,     0.5526348948478699,
    0.18774910271167755,   0.5886339545249939,     -0.9864386320114136,
    0.6172807216644287,    4.0356340408325195,     -0.7047650218009949,
    -0.7106419205665588,   0.4048142731189728,     0.47466135025024414,
    1.2242628335952759,    -1.3526736497879028,    -0.6787529587745667,
    -0.35762301087379456,  -0.8904569149017334,    0.12329912185668945,
    -0.1693320870399475,   1.2794586420059204,     1.013148307800293,
    -0.602068305015564,    -1.3543429374694824,    -0.19756168127059937,
    0.09811720997095108,   0.2190604954957962,     0.5743160843849182,
    -0.31650829315185547,  0.4098125100135803,     0.3498677611351013,
    0.233225017786026,     1.031091570854187,      -0.330817848443985,
    0.517693042755127,     -0.16911523044109344,   -0.4752098321914673,
    -0.5628241896629333,   -0.36090990900993347,   0.8186530470848083,
    -1.4241265058517456,   -0.04665505886077881,   -0.42528340220451355,
    0.521381676197052,     -2.293334484100342,     -1.3371469974517822,
    0.38777846097946167,   -0.5733190178871155,    -0.49202650785446167,
    0.6793403625488281,    -0.06059038266539574,   1.4804738759994507,
    -0.11632604151964188,  -1.433521032333374,     0.2625187337398529,
    1.0414010286331177,    0.49756258726119995,    -0.19333650171756744,
    -0.5796772241592407,   0.5068639516830444,     0.27037355303764343,
    0.44053012132644653,   0.07325476408004761,    0.3449294865131378,
    0.2175532579421997,    -0.5665267705917358,    -1.4391242265701294,
    -0.3997306227684021,   -0.4257231056690216,    0.652643620967865,
    -0.30627837777137756,  0.1947336047887802,     1.4611194133758545,
    -0.3095303773880005,   -1.2955713272094727,    -0.3899965286254883,
    -0.4908393323421478,   -0.9636622667312622,    0.716536819934845,
    -0.7861350774765015,   -0.7499417662620544,    -0.7251312732696533,
    -0.33015838265419006,  -1.653520941734314,     -0.3097529113292694,
    0.5712025761604309,    0.05027642846107483,    0.9812090396881104,
    0.20801466703414917,   -0.3749968111515045,    1.5334672927856445,
    -0.9563156366348267,   -0.5921903252601624,    0.46640369296073914,
    -0.9808034896850586,   0.6814194321632385,     0.9633386731147766,
    1.1179102659225464,    -0.5854812264442444,    -0.6401190161705017,
    -1.158583402633667,    0.8032528162002563,     -1.4509786367416382,
    -1.247602105140686,    -1.532617449760437,     0.6667248606681824,
    -0.04387131705880165,  -0.716905951499939,     0.9442309737205505,
    0.20830345153808594,   0.26177796721458435,    -1.5294533967971802,
    0.3125324845314026,    0.4878680109977722,     0.36183467507362366,
    0.7047329545021057,    -1.0808583498001099,    0.08207826316356659,
    0.236807718873024,     -0.1593310683965683,    -0.18493452668190002,
    -0.5778480768203735,   -0.7599348425865173,    0.4048692286014557,
    -0.0335015207529068,   1.1339924335479736,     1.9993470907211304,
    0.021273991093039513,  -0.7838538289070129,    0.4439751207828522,
    -0.7060679793357849,   -0.4249436855316162,    1.0607991218566895,
    0.3254614472389221,    -2.0461385250091553,    0.6318764686584473,
    1.3032069206237793,    -0.35556066036224365,   0.6630072593688965,
    -0.8292708396911621,   0.5070983171463013,     -0.7240339517593384,
    -0.46112507581710815,  0.329815536737442,      0.17869195342063904,
    2.250837802886963,     0.633317232131958,      -0.22135624289512634,
    0.007491479627788067,  0.5742465853691101,     -0.914324164390564,
    -0.529099702835083,    -0.7128820419311523,    1.8582172393798828,
    -0.06388456374406815,  -0.9827072024345398,    -0.12930896878242493,
    1.0012304782867432,    0.4050008952617645,     0.1729017049074173,
    -0.07736501097679138,  0.5867239236831665,     1.4839690923690796,
    -0.8051453828811646,   0.21962395310401917,    1.0440729856491089,
    -1.3667333126068115,   0.30177146196365356,    -1.5754103660583496,
    1.3642371892929077,    0.341590940952301,      1.0513626337051392,
    0.6426905989646912,    -0.01884661614894867,   -0.9109059572219849,
    0.5157963633537292,    0.5635088086128235,     -0.8638156652450562,
    0.8350905179977417,    0.08540400117635727,    -0.17983312904834747,
    -0.26935046911239624,  0.8637403845787048,     -0.2178654670715332,
    -0.08801817893981934,  0.3163014054298401,     0.2510286271572113,
    2.169785737991333,     -0.27785417437553406,   -0.9683470726013184,
    -0.31570965051651,     -1.4128766059875488,    0.7903857231140137,
    -1.6190601587295532,   -0.5890002846717834,    0.7986540794372559,
    0.33699822425842285,   0.3865722119808197,     0.07699853926897049,
    0.5229573249816895,    -0.6115978360176086,    0.8712791800498962,
    0.26910561323165894,   -1.8790557384490967,    0.523941695690155,
    0.0012587732635438442, -1.0340019464492798,    0.9104702472686768,
    -0.4807589650154114,   0.7336946129798889,     -0.2063409984111786,
    0.9717304110527039,    -0.5571882724761963,    -0.09564084559679031,
    0.3462832272052765,    -0.6720502972602844,    -0.18815313279628754,
    -1.2351059913635254,   0.7694244384765625,     1.3595633506774902,
    -1.972582221031189,    1.8350286483764648,     -0.4560437500476837,
    -1.2469593286514282,   0.03671601787209511,    -0.9697952270507812,
    -0.5401631593704224,   1.0682477951049805,     -0.7711532115936279,
    1.8591984510421753,    2.5574121475219727,     0.3039689064025879,
    -1.4119863510131836,   0.8800154328346252,     -0.061913225799798965,
    -0.4861915707588196,   0.4934026598930359,     1.8931537866592407,
    0.8568609356880188,    -0.25272342562675476,   0.21368299424648285,
    0.05612517148256302,   0.5716078877449036,     0.9338958859443665,
    1.7361396551132202,    0.05607975274324417,    -0.22218790650367737,
    -0.33599573373794556,  0.18576394021511078,    0.44468867778778076,
    0.13636931777000427,   0.17512141168117523,    2.8519747257232666,
    -1.3350430727005005,   -0.307127982378006,     -0.2127089947462082,
    1.3694909811019897,    -0.6953384280204773,    0.40854430198669434,
    -0.028006095439195633, -0.08688340336084366,   0.5447550415992737,
    0.3088015615940094,    0.32730624079704285,    -0.7435693144798279,
    0.3945130705833435,    -0.7154958844184875,    -0.5662580132484436,
    -0.25189125537872314,  0.3056167960166931,     -1.2609347105026245,
    0.17867784202098846,   -1.180280089378357,     0.9934602379798889,
    1.661676049232483,     0.12921975553035736,    0.19537128508090973,
    1.7060457468032837,    0.07616719603538513,    0.3989217281341553,
    0.8478653430938721,    0.29090648889541626,    0.9165152907371521,
    -0.038506485521793365, 1.5460413694381714,     0.5066711902618408,
    -1.3350669145584106,   -0.10479280352592468,   -1.2201112508773804,
    -0.48091888427734375,  -1.8316285610198975,    2.1882359981536865,
    -1.4235622882843018,   1.21542489528656,       1.4861663579940796,
    -0.09933222085237503,  0.2696835696697235,     -0.5903559923171997,
    1.6516354084014893,    0.490287184715271,      -0.5854151844978333,
    0.9933430552482605,    0.3569945991039276,     -1.231055736541748,
    -0.696088969707489,    1.4199687242507935,     -1.4090723991394043,
    0.31053563952445984,   0.7899944186210632,     0.46678730845451355,
    1.9810056686401367,    -0.4374658465385437,    -0.058935556560754776,
    0.2695111930370331,    0.9142898917198181,     0.8657210469245911,
    -0.31823888421058655,  -0.05465007200837135,   -0.3638871908187866,
    0.37145012617111206,   -0.21304993331432343,   0.3956141173839569,
    -2.7107319831848145,   0.22285422682762146,    0.8108009696006775,
    1.3663561344146729,    -0.6960223317146301,    0.11044309288263321,
    -1.3270677328109741,   -1.2979432344436646,    0.821068286895752,
    -0.3983372151851654,   -1.1215014457702637,    -0.6323433518409729,
    -0.6130068302154541,   0.7203536033630371,     0.7545983791351318,
    1.394722580909729,     0.23589244484901428,    -0.3015758991241455,
    -0.9947548508644104,   0.6160692572593689,     -0.06752941757440567,
    0.7204488515853882,    2.1003847122192383,     -0.36151713132858276,
    1.3917286396026611,    -1.3358180522918701,    0.4145067632198334,
    -0.7395918965339661,   0.8280861377716064,     -1.4033403396606445,
    2.0402920246124268,    -0.2508437931537628,    0.9490665793418884,
    1.470116138458252,     2.366417407989502,      -1.6916636228561401,
    -0.5823572874069214,   0.0916043370962143,     -0.39990565180778503,
    0.08716168254613876,   1.1226165294647217,     0.1519303023815155,
    0.6593948006629944,    -0.6126187443733215,    0.09526508301496506,
    -1.5174401998519897,   0.06085514649748802,    1.0005890130996704,
    1.3500185012817383,    1.516424536705017,      -1.3291341066360474,
    1.1225311756134033,    1.2490990161895752,     -0.878588855266571,
    0.6701647639274597,    -0.48354920744895935,   -0.3658939301967621,
    0.20587345957756042,   -1.1774383783340454,    0.6863341927528381,
    0.27784672379493713,   -0.4389283359050751,    -0.36460402607917786,
    0.09797357767820358,   1.4193778038024902,     2.5486581325531006,
    -0.1260465830564499,   -0.5418874025344849,    0.19605061411857605,
    0.27219894528388977,   -2.0478978157043457,    -0.6845369338989258,
    0.7133599519729614,    0.6863101720809937,     -0.9941009283065796,
    -0.06309959292411804,  -2.3119537830352783,    1.449507236480713,
    -0.5683029294013977,   1.1888502836227417,     0.9143531322479248,
    -0.2877975106239319,   0.48656192421913147,    0.16985394060611725,
    0.5298452973365784,    -0.9710745811462402,    -0.3590165674686432,
    -0.9606810212135315,   -0.6415613889694214,    0.9528331756591797,
    -0.8501541614532471,   0.21555404365062714,    1.0095044374465942,
    -1.7459297180175781,   0.36682477593421936,    -0.8704046010971069,
    -0.9101300835609436,   2.8605055809020996,     -1.0009344816207886,
    0.8313912153244019,    1.0530211925506592,     1.1890678405761719,
    -1.1765786409378052,   0.6264608502388,        0.8946203589439392,
    1.0963873863220215,    -0.3911830186843872,    0.030507953837513924,
    -0.8427883982658386,   -0.10895649343729019,   0.7893157005310059,
    -0.8103978037834167,   0.7778829336166382,     0.15818659961223602,
    0.14511053264141083,   -0.5214154124259949,    -0.04526109993457794,
    -1.4078272581100464,   0.6415016651153564,     1.6060444116592407,
    -1.6412683725357056,   -1.8299661874771118,    -1.3340543508529663,
    -0.8329648971557617,   -0.05762312188744545,   0.24150075018405914,
    1.661222219467163,     -0.7575526237487793,    -0.35729342699050903,
    -0.3763684332370758,   -1.3313498497009277,    -0.9815025925636292,
    -0.718093991279602,    0.3647086024284363,     -0.6752517223358154,
    1.8296456336975098,    -1.3171327114105225,    -1.161150336265564,
    0.54386967420578,      -0.0756274163722992,    -0.5713939666748047,
    0.9874169230461121,    0.5162602663040161,     0.5360738039016724,
    0.922603189945221,     0.013263960368931293,   -0.16660983860492706,
    1.2173025608062744,    -0.17387141287326813,   -0.010164087638258934,
    -2.068638563156128,    -0.2793331742286682,    -0.6119406819343567,
    -0.3332597613334656,   -0.0007820536266081035, 1.2985844612121582,
    0.48716413974761963,   -0.7982636094093323,    0.25182005763053894,
    0.583949089050293,     0.029909301549196243,   0.23371818661689758,
    0.8685683608055115,    0.6701875329017639,     0.6026206016540527,
    0.9771515130996704,    0.923477828502655,      0.8966683745384216,
    1.4919555187225342,    -0.26482459902763367,   1.257125973701477,
    3.3843369483947754,    -0.013959361240267754,  1.4083467721939087,
    0.2254360169172287,    0.11879905313253403,    -0.8361814022064209,
    -1.4153369665145874,   -1.185956597328186,     -2.181758403778076,
    0.8987288475036621,    0.7113918662071228,     -1.25144362449646,
    1.6827898025512695,    0.4727709889411926,     -1.0374870300292969,
    -0.21200162172317505,  -0.1538834124803543,    -1.2923705577850342,
    -0.8129478096961975,   0.20425143837928772,    0.4220196604728699,
    -0.13367792963981628,  0.3048102557659149,     -0.8308065533638,
    0.09673643857240677,   0.3640232980251312,     -0.4976125955581665,
    0.8162168264389038,    -0.5681973099708557,    0.16887015104293823,
    0.9700341820716858,    -0.02647615596652031,   0.3418477773666382,
    0.6844118237495422,    0.5130285024642944,     0.5257991552352905,
    0.2570752799510956,    -0.2812013030052185,    -0.18228091299533844,
    0.8982164859771729,    -0.08679544925689697,   -0.8326117396354675,
    -0.6757722496986389,   0.08301948755979538,    -2.701582431793213,
    0.0666079968214035,    0.7049694657325745,     0.8757856488227844,
    -0.052286408841609955, -0.9177634716033936,    -0.7696145176887512,
    -0.30620095133781433,  0.17304909229278564,    1.5287312269210815,
    0.1602781116962433,    1.0477299690246582,     -0.8064285516738892,
    -0.9119940996170044,   -1.2299302816390991,    0.3255786597728729,
    -0.18611487746238708,  0.42056551575660706,    0.020705124363303185,
    0.5937337279319763,    -1.881459355354309,     -0.9323965311050415,
    0.5373784899711609,    -0.39480558037757874,   0.07320109754800797,
    0.36821454763412476,   2.092864751815796,      0.3125765025615692,
    -0.7884057760238647,   -0.368858277797699,     0.7428739070892334,
    -0.9437392950057983,   0.5850948691368103,     1.3526933193206787,
    0.7817491888999939,    1.6076997518539429,     -2.0952467918395996,
    1.5193016529083252,    0.881690502166748,      1.0117441415786743,
    -1.2131143808364868,   1.1162495613098145,     0.7592251896858215,
    -0.37528103590011597,  2.499201536178589,      0.21162617206573486,
    -0.17070035636425018,  -0.21314266324043274,   1.8517848253250122,
    0.03580249473452568,   -1.3237272500991821,    -1.4079984426498413,
    1.197104811668396,     0.29158854484558105,    1.94907808303833,
    1.446703553199768,     -0.3019544184207916,    1.2271368503570557,
    -0.45870497822761536,  -0.8880228400230408,    -0.17016290128231049,
    1.0366498231887817,    -0.3674635589122772,    -0.019966987892985344,
    -0.7817718386650085,   0.2977006733417511,     -0.42518776655197144,
    -0.7871749997138977,   0.2206926792860031,     -0.5722804665565491,
    -0.15441030263900757,  -1.5147335529327393,    -1.3860632181167603,
    1.6512693166732788,    -0.055454980581998825,  -0.684340238571167,
    -0.5942628979682922,   -1.2157368659973145,    1.7823078632354736,
    -0.38542383909225464,  -0.07503493875265121,   1.4306474924087524,
    0.47021403908729553,   0.07839109748601913,    -1.5339024066925049,
    -0.5156721472740173,   -1.525596261024475,     -2.121647357940674,
    0.19674400985240936,   0.015274439007043839,   -0.5951060652732849,
    0.8100648522377014,    -2.2949612140655518,    -0.2583041787147522,
    0.1247885450720787,    0.22359032928943634,    -0.874393880367279,
    -0.7531830668449402,   1.2538059949874878,     0.7219575047492981,
    -0.406264990568161,    -1.0486466884613037,    -0.14568261802196503,
    1.2704023122787476,    -1.3630598783493042,    -0.7917478680610657,
    0.49390411376953125,   0.11128123849630356,    2.172557830810547,
    0.12097510695457458,   -0.09706467390060425,   -1.4740217924118042,
    -0.797774076461792,    -0.7124975323677063,    1.4659305810928345,
    -0.5123788118362427,   -1.9953464269638062,    0.3309135437011719,
    -0.18887265026569366,  -1.2593692541122437,    -0.035719022154808044,
    0.5535293817520142,    -0.34866899251937866,   -0.35021114349365234,
    1.8783389329910278,    -0.15325623750686646,   0.6071491837501526,
    0.5574127435684204,    1.2102619409561157,     0.9770241975784302,
    0.04169871658086777,   -0.2130700796842575,    -0.8881044387817383,
    -1.9203240871429443,   -0.8223812580108643,    -0.14810505509376526,
    0.18154054880142212,   0.8244746923446655,     0.034609485417604446,
    -0.017602279782295227, -0.1331043690443039,    -0.34443169832229614,
    -0.33565816283226013,  0.682919979095459,      -0.5891188979148865,
    0.13070935010910034,   0.13793818652629852,    0.09291388839483261,
    0.8421796560287476,    0.58314448595047,       -0.7298099398612976,
    1.394544005393982,     -0.13028714060783386,   -0.39783358573913574,
    -0.14575853943824768,  0.6138074398040771,     0.7091160416603088,
    1.7126508951187134,    0.049101464450359344,   -0.7843634486198425,
    -0.21078957617282867,  0.033020101487636566,   1.2975109815597534,
    -1.3005056381225586,   1.7551294565200806,     0.758330225944519,
    0.9863895177841187,    -0.2786312699317932,    -0.2644778788089752,
    0.6464429497718811,    1.247861623764038,      0.035015035420656204,
    0.8011540770530701,    -1.2597709894180298,    -0.0964551717042923,
    -1.3524627685546875,   0.06751081347465515,    -0.5346571803092957,
    -0.3892551064491272,   0.5885060429573059,     -2.9835801124572754,
    0.40351665019989014,   0.8302035331726074,     0.3673286437988281,
    -0.48340824246406555,  -1.4200619459152222,    0.9885250926017761,
    1.160010814666748,     -0.8496449589729309,    0.35569247603416443,
    -0.6949581503868103,   -1.1286871433258057,    0.14877083897590637,
    0.44627127051353455,   -0.050971098244190216,  -0.019228877499699593,
    0.5599985718727112,    -0.5559281706809998,    0.8670803308486938,
    -0.008815222419798374, -1.401996374130249,     1.2056455612182617,
    1.432443380355835,     1.1242129802703857,     -0.23776796460151672,
    -0.5218439698219299,   1.4310097694396973,     -2.2878637313842773,
    -1.0602329969406128,   1.686234474182129,      0.19191017746925354,
    0.8504776954650879,    0.17225050926208496,    1.3690308332443237,
    0.22761835157871246,   -0.13492994010448456,   -0.1013922467827797,
    0.9077184796333313,    0.02852938510477543,    -0.5003415942192078,
    -0.7939656376838684,   -0.16445964574813843,   -1.5807840824127197,
    -2.2940235137939453,   -0.7538138628005981,    -0.2669943869113922,
    -0.0999869704246521,   -0.8810284733772278,    1.1980044841766357,
    -0.36692485213279724,  -1.4313503503799438,    0.2930373251438141,
    1.3019351959228516,    1.3389060497283936,     -1.338231086730957,
    0.7743802666664124,    -1.7142589092254639,    0.2584244906902313,
    -0.276665598154068,    0.34835284948349,       1.3964064121246338,
    -0.01857924461364746,  -0.039798520505428314,  0.18386231362819672,
    -1.0228095054626465,   2.0047197341918945,     0.47417816519737244,
    1.8887592554092407,    -2.2069785594940186,    0.7758026719093323,
    -0.3385838568210602,   0.6930029988288879,     -0.7149873971939087,
    -1.3775256872177124,   -0.8164191246032715,    -1.2406737804412842,
    -0.3683258891105652,   0.9860436916351318,     -1.4605686664581299,
    0.8211396932601929,    -1.2123616933822632,    1.1282050609588623,
    -0.36578282713890076,  -0.4232592284679413,    -1.4861301183700562,
    -1.204437255859375,    -1.6488889455795288,    0.7410479187965393,
    -0.8334525227546692,   0.11323904246091843,    0.35879161953926086,
    0.9001851081848145,    -0.6003921031951904,    -0.17131087183952332,
    -0.9600357413291931,   -1.9508200883865356,    -0.03333820775151253,
    -0.48241984844207764,  -0.27997076511383057,   -0.17563840746879578,
    -0.3353029191493988,   1.908337116241455,      1.286241054534912,
    -0.32304856181144714,  -0.014654695056378841,  0.23035314679145813,
    -0.26212170720100403,  -0.7509436011314392,    1.199822187423706,
    0.5789040923118591,    1.3823959827423096,     0.6496573686599731,
    0.17170071601867676,   0.3896495997905731,     1.1604512929916382,
    0.7004079222679138,    -1.213037371635437,     0.4081961512565613,
    -0.2455366551876068,   0.9816727638244629,     -0.8852028250694275,
    -0.6537404656410217,   -0.17203809320926666,   -0.3372461199760437,
    -0.5897102952003479,   0.378065288066864,      2.307753086090088,
    1.7929826974868774,    0.8916962146759033,     -0.23505346477031708,
    0.22452101111412048,   0.5836943984031677,     0.7838366031646729,
    0.2418222725391388,    -1.367156982421875,     1.8537468910217285,
    -0.14395228028297424,  -0.13722474873065948,   0.905592143535614,
    0.7070149183273315,    0.7001703381538391,     0.26021307706832886,
    -0.9745140671730042,   0.26441797614097595,    0.8732404708862305,
    1.481718897819519,     -0.17465536296367645,   -1.2438069581985474,
    -0.033501043915748596, 0.4199342131614685,     0.659221351146698,
    1.2907683849334717,    -0.4089471697807312,    1.2459663152694702,
    -0.02352304570376873,  -2.284684181213379,     0.9404814839363098,
    -1.7027403116226196,   -0.3587146997451782,    -1.0805374383926392,
    1.1346064805984497,    -0.3537311255931854,    -0.4515992999076843,
    1.5468223094940186,    0.05665723606944084,    -0.8647340536117554,
    -1.1375958919525146,   -0.45604968070983887,   0.47627899050712585,
    1.342660903930664,     0.7877894043922424,     1.5014268159866333,
    0.14365693926811218,   -1.8269540071487427,    0.3623739778995514,
    -0.8471196293830872,   0.9532074928283691,     -0.8475469946861267,
    0.7488458156585693,    -0.11987504363059998,   0.013965161517262459,
    -1.4740734100341797,   1.5791571140289307,     -0.3457261919975281,
    -0.29357534646987915,  -0.41370829939842224,   1.1477830410003662,
    -0.8132007122039795,   0.5983186960220337,     0.6991406679153442,
    -0.8534544110298157,   -0.41035687923431396,   0.27824410796165466,
    -0.9615170955657959,   0.06991618871688843,    1.3411089181900024,
    0.20777565240859985,   -0.5285393595695496,    0.24005727469921112,
    0.1414821743965149,    -0.5407329201698303,    -0.036269914358854294,
    0.101067453622818,     0.46809425950050354,    -0.00012936530401930213,
    -1.0874007940292358,   0.5178828239440918,     0.5299589037895203,
    0.2977147102355957,    -0.5081791877746582,    -0.7906641364097595,
    1.563033103942871,     0.7841619849205017,     -0.37975940108299255,
    -1.309491515159607,    -0.2346276491880417,    -0.12449756264686584,
    -0.5585249066352844,   1.669644832611084,      -0.38158681988716125,
    0.28815269470214844,   -0.4902830123901367,    -0.4319896996021271,
    -0.05974622070789337,  0.7250922322273254,     -1.253058671951294,
    0.9274609088897705,    2.8002548217773438,     0.7476243376731873,
    0.6636945605278015,    -0.12137421220541,      0.6246503591537476,
    -1.1787039041519165,   -0.07332699000835419,   0.5569454431533813,
    -1.666461706161499,    -0.5886698961257935,    -0.20159688591957092,
    0.524500846862793,     1.1653368473052979,     2.1336774826049805,
    -1.7024588584899902,   0.8138697147369385,     0.7928460836410522,
    -2.1400885581970215,   -1.0328805446624756,    -0.23220781981945038,
    1.5730741024017334,    -0.995787501335144,     -1.9767643213272095,
    0.20827679336071014,   0.569308340549469,      0.5014525055885315,
    0.3946226239204407,    -0.16846565902233124,   -0.2809409499168396,
    -2.085059404373169,    -0.03343662992119789,   -1.7526601552963257,
    0.7854079604148865,    0.896659791469574,      1.1134315729141235,
    -1.7395398616790771,   -0.5865293741226196,    -1.6844158172607422,
    -0.7586203217506409,   -0.546141505241394,     -0.3604622483253479,
    1.8209136724472046,    -1.7016695737838745,    1.6813273429870605,
    1.340224027633667,     -0.23368708789348602,   -0.8017839193344116,
    0.734416127204895,     -0.3154546320438385,    -1.163604974746704,
    -1.366931438446045,    -0.2177826166152954,    -1.0566442012786865,
    -1.2469210624694824,   0.5863364338874817,     0.11009205877780914,
    0.04235552251338959,   0.0604986697435379,     2.2056593894958496,
    0.030971217900514603,  0.5303124785423279,     -0.33510181307792664,
    -0.15805809199810028,  -1.269239068031311,     -0.15184549987316132,
    -2.081273078918457,    0.2753496468067169,     0.5813174247741699,
    -0.9518888592720032,   2.024317741394043,      0.8574033975601196,
    1.409318447113037,     -1.7671149969100952,    1.4375979900360107,
    0.6948530077934265,    -0.5266082286834717,    3.1874823570251465,
    -0.9303572773933411,   -1.7002266645431519,    0.03007749281823635,
    0.3934462368488312,    -0.2977340519428253,    1.145952820777893,
    -0.4611479938030243,   -0.01456519030034542,   0.11150163412094116,
    -1.2784851789474487,   -0.48970502614974976,   0.6467097401618958,
    -1.3949681520462036,   0.5674450993537903,     1.7702465057373047,
    0.737844705581665,     1.5023123025894165,     -0.11311652511358261,
    0.24942876398563385,   -1.6251213550567627,    1.7073947191238403,
    -0.9025399684906006,   0.733337938785553,      0.1605725735425949,
    0.10542400926351547,   -0.7020950317382812,    -0.2612513303756714,
    0.30811870098114014,   -0.443967342376709,     -0.19453981518745422,
    -0.576404333114624,    -2.0726318359375,       -2.2850937843322754,
    -0.2357477992773056,   0.36726734042167664,    2.2373695373535156,
    -2.10394024848938,     -0.6732766032218933,    1.6909829378128052,
    2.0516979694366455,    0.7373694777488708,     -1.1237260103225708,
    0.727317214012146,     -2.1240861415863037,    0.5908071398735046,
    -2.381291389465332,    -0.39192530512809753,   -0.5058838129043579,
    0.4070489704608917,    0.20705069601535797,    0.7426281571388245,
    -0.9767715930938721,   -0.13394701480865479,   0.25674545764923096,
    -1.2680994272232056,   -0.42500147223472595,   0.31265148520469666,
    1.0092873573303223,    0.8381712436676025,     -0.02522311918437481,
    -0.5199888348579407,   -1.0997719764709473,    0.3666188418865204,
    0.1203368678689003,    -1.209762692451477,     0.0349896214902401,
    0.44715985655784607,   -0.2916174530982971,    0.4178215563297272,
    1.0439283847808838,    0.2301393747329712,     -1.2018290758132935,
    -2.0851516723632812,   0.6193552613258362,     -0.6535475254058838,
    0.7514159083366394,    0.3138394057750702,     -0.2694241404533386,
    -0.28297218680381775,  -0.9591447710990906,    0.44609254598617554,
    0.29792049527168274,   -0.5780777335166931,    -1.6120555400848389,
    -0.8552408218383789,   -0.18342575430870056,   1.4623208045959473,
    -0.5852343440055847,   -0.26485249400138855,   -0.20693671703338623,
    0.5358343720436096,    2.121837854385376,      -0.02666892670094967,
    0.6574704647064209,    0.17598535120487213,    -0.1418401002883911,
    -1.573832392692566,    -1.465786099433899,     0.47731438279151917,
    -0.615385890007019,    -0.1994597315788269,    -1.0814110040664673,
    1.08867609500885,      -1.5728429555892944,    -0.4852382242679596,
    0.6645374298095703,    1.4625015258789062,     -0.24391917884349823,
    -0.45266544818878174,  -0.06292983889579773,   0.7254908680915833,
    2.244142532348633,     1.6892662048339844,     -0.4205181896686554,
    -1.242173194885254,    2.810397148132324,      -0.5535905957221985,
    -1.075226068496704,    -1.8284146785736084,    1.70857572555542,
    1.1752355098724365,    -2.527074098587036,     -1.6015666723251343,
    -1.0818850994110107,   -0.6297198534011841,    -1.5535473823547363,
    -0.3340345025062561,   0.92328941822052,       -0.7581161856651306};

static float fusedconv_pOutBuffer_dram[3][4][32] = {
    -0.4386901557445526,  -1.3193279504776,      1.7944167852401733,
    -0.21130214631557465, -0.7255980968475342,   -1.1527323722839355,
    1.0763427019119263,   -2.447842597961426,    -0.5776898264884949,
    1.1428356170654297,   -0.5947000980377197,   0.536309540271759,
    0.9376945495605469,   -0.25111639499664307,  1.0011943578720093,
    -0.8710179924964905,  0.5553734302520752,    -0.5014337301254272,
    0.8513063192367554,   -1.2727054357528687,   0.39433085918426514,
    0.16372191905975342,  1.0745830535888672,    0.8366460204124451,
    0.2051411122083664,   -1.1626940965652466,   0.928976833820343,
    -0.25395238399505615, -0.08767813444137573,  -0.15508709847927094,
    1.2101126909255981,   -2.1411423683166504,   -1.6395642757415771,
    0.2299439013004303,   -0.44963574409484863,  -0.40768420696258545,
    0.9110543131828308,   -0.6653339862823486,   -1.299545168876648,
    -0.4152938425540924,  -0.4192134737968445,   1.1534100770950317,
    2.848527193069458,    -0.7424169778823853,   0.3712611794471741,
    0.35424429178237915,  0.0905831828713417,    1.3524107933044434,
    0.7254670262336731,   -0.913332462310791,    1.930862545967102,
    -0.746330976486206,   -0.011143443174660206, 1.8151899576187134,
    0.6066091060638428,   0.5963938236236572,    1.3284757137298584,
    -0.8278692364692688,  0.28252723813056946,   -0.8118564486503601,
    -0.6384463906288147,  0.737216591835022,     1.1485421657562256,
    0.725890040397644,    2.244685411453247,     -2.2764313220977783,
    0.9141790866851807,   0.9176274538040161,    0.581663191318512,
    0.1713932901620865,   1.2739273309707642,    1.345004677772522,
    -0.1385166198015213,  0.002069825306534767,  -0.8245381116867065,
    -2.4762187004089355,  -0.6863983273506165,   0.004129562992602587,
    -0.789177656173706,   0.6723096370697021,    1.8695621490478516,
    -0.6497343182563782,  0.09957952797412872,   -1.3185279369354248,
    -1.0021978616714478,  -0.2665819525718689,   0.41304811835289,
    1.0925167798995972,   -1.5580800771713257,   0.939643383026123,
    -0.32746249437332153, -0.5472618341445923,   -0.10652781277894974,
    -0.1828203797340393,  0.772649347782135,     0.6405739784240723,
    0.1490848809480667,   -0.2603190541267395,   -0.7125067710876465,
    -0.7577925324440002,  -0.6056803464889526,   -0.001647569122724235,
    -0.48284876346588135, -1.0801341533660889,   0.9042091369628906,
    -0.03959815204143524, 0.3362662196159363,    -0.9519665837287903,
    -0.08652620017528534, 0.832058310508728,     0.9070028066635132,
    0.03912770003080368,  -0.10694646835327148,  0.6531567573547363,
    -1.015342116355896,   -0.8090125918388367,   -0.5131909251213074,
    -0.8087556958198547,  1.1124427318572998,    0.11936674267053604,
    -0.6364671587944031,  1.0595844984054565,    0.46789491176605225,
    1.3091100454330444,   1.2895920276641846,    1.8686646223068237,
    -0.28965145349502563, -0.5153003931045532,   0.309842973947525,
    -2.6218323707580566,  -0.24567294120788574,  1.1451576948165894,
    1.8328031301498413,   0.8992058634757996,    -0.06715778261423111,
    -0.20069599151611328, 1.3926104307174683,    0.32346680760383606,
    0.18892493844032288,  0.6533556580543518,    0.26722702383995056,
    1.6615468263626099,   -0.45915481448173523,  -1.491906762123108,
    -0.27282845973968506, -0.3609623908996582,   0.9455360174179077,
    0.03766324743628502,  1.6522549390792847,    -0.4681110680103302,
    -1.3070950508117676,  -0.2728694975376129,   -0.24542789161205292,
    -0.7863233089447021,  -0.7247031331062317,   0.37256067991256714,
    0.560422420501709,    -2.4270148277282715,   -0.25895750522613525,
    0.4478885233402252,   -0.8095768690109253,   0.41242745518684387,
    2.0646610260009766,   -0.32648909091949463,  -1.7307369709014893,
    -0.3286202847957611,  -1.2871936559677124,   -0.5413743257522583,
    0.17590725421905518,  -0.6201243996620178,   0.6630563139915466,
    -0.9804876446723938,  0.972324550151825,     -2.396167278289795,
    0.01801248826086521,  1.253916621208191,     -1.0259219408035278,
    1.6894441843032837,   -0.14699816703796387,  0.12175866961479187,
    -0.16211076080799103, 0.49002620577812195,   0.9112547636032104,
    1.792615532875061,    0.35882535576820374,   -0.2917172610759735,
    0.5566643476486206,   0.6258875131607056,    0.9776358604431152,
    0.7260830402374268,   1.2465280294418335,    0.6389282941818237,
    -0.11941836029291153, 1.3993206024169922,    -0.16068296134471893,
    -2.214585304260254,   -1.298253059387207,    -0.46082329750061035,
    -0.17274071276187897, 0.6041818261146545,    -0.3206574320793152,
    0.18195369839668274,  -1.8008174896240234,   -1.4389820098876953,
    -1.875948429107666,   -1.0305066108703613,   1.3371288776397705,
    -0.2887089252471924,  0.7780604362487793,    -1.4069199562072754,
    0.4058326482772827,   1.8279902935028076,    -1.4415538311004639,
    -0.6341907978057861,  -1.9628868103027344,   -0.6502721905708313,
    -1.4416067600250244,  -1.2435057163238525,   -1.226744532585144,
    -0.14965394139289856, -1.2425028085708618,   1.4803948402404785,
    0.6343469023704529,   -0.7937742471694946,   -1.1883097887039185,
    -0.5416104793548584,  0.10768216103315353,   -0.9545641541481018,
    -0.282284677028656,   1.098615050315857,     -0.39229029417037964,
    0.6419668197631836,   -0.5861101150512695,   0.7809817790985107,
    2.1059911251068115,   1.5204353332519531,    0.583381175994873,
    -0.1505851447582245,  -1.0242458581924438,   -0.032066818326711655,
    -0.5377766489982605,  -0.4870067834854126,   1.2455031871795654,
    -1.0653364658355713,  -0.2281889021396637,   0.48111554980278015,
    0.6509060859680176,   0.3583126366138458,    -1.318347454071045,
    -1.2894185781478882,  -0.945511519908905,    -0.7924325466156006,
    0.4190983772277832,   0.47502878308296204,   0.7271321415901184,
    1.1349895000457764,   -1.4471426010131836,   -1.6966946125030518,
    -2.1704893112182617,  -0.3568725883960724,   -0.6434195041656494,
    0.277293860912323,    -0.8662554621696472,   -1.3693593740463257,
    0.10004822909832001,  -0.2485211342573166,   -0.9125545620918274,
    -0.8421810865402222,  0.9057887196540833,    0.888454258441925,
    -0.792843759059906,   0.5342488288879395,    -0.7984835505485535,
    0.5182347893714905,   -1.1608222723007202,   -1.0226510763168335,
    -0.5064318776130676,  0.7801634073257446,    -0.03396239131689072,
    0.4138718247413635,   -0.03767240047454834,  -1.4856157302856445,
    -0.23876145482063293, -0.26240864396095276,  -0.5832889676094055,
    -0.7283093333244324,  0.3929608166217804,    -1.315760612487793,
    1.3185068368911743,   2.849227712431457e-05, 1.424155354499817,
    -0.6200389862060547,  -0.89991295337677,     0.4791645407676697,
    -0.24811258912086487, -1.3093348741531372,   0.45688942074775696,
    -0.6034095287322998,  0.4626772999763489,    0.24934303760528564,
    -0.17061950266361237, -0.6140995025634766,   0.53551185131073,
    -1.6644023656845093,  -1.1293034553527832,   -1.6514161825180054,
    1.2253994941711426,   -1.1865328550338745,   0.48605024814605713,
    -0.4023413062095642,  0.11986448615789413,   -0.17284108698368073,
    0.6690162420272827,   0.6591296792030334,    -0.08529242128133774,
    0.9574263095855713,   0.4526977837085724,    0.41128507256507874,
    -2.4095988273620605,  -0.5115848779678345,   -1.4793612957000732,
    -0.7297910451889038,  1.002107858657837,     0.19585292041301727,
    1.526895523071289,    -1.5928043127059937,   0.6899225115776062,
    -0.4791088104248047,  1.6462355852127075,    -0.6936932802200317,
    1.2867711782455444,   0.1465883105993271,    0.182944193482399,
    -0.28223374485969543, -1.7268661260604858,   -0.500217616558075,
    -1.1016371250152588,  1.3902591466903687,    -0.6375272274017334,
    -0.22059734165668488, -0.49643418192863464,  0.14655134081840515,
    0.9853408336639404,   0.40662944316864014,   -0.5463470220565796,
    0.5569576621055603,   0.06820867955684662,   1.249178171157837,
    -0.834316611289978,   0.7485802173614502,    -2.093278646469116,
    0.27361416816711426,  1.6714451313018799,    -0.4941222369670868,
    0.9599182605743408,   0.5800896286964417,    -1.0222959518432617,
    -0.7083863019943237,  0.0595916211605072,    -0.6863325834274292,
    0.6544674038887024,   -0.14682821929454803,  1.413791537284851,
    -0.589046061038971,   -0.5801305174827576,   0.7410908341407776,
    1.8646320104599,      -1.3074498176574707,   -0.4006587862968445,
    -1.5424505472183228,  1.1431647539138794,    1.3563427925109863,
    -1.2485027313232422,  -0.02572690322995186,  1.936702013015747,
    -0.9197023510932922,  0.5358533263206482,    0.5413376092910767,
    -1.287382960319519,   -1.2039293050765991,   -0.6580986976623535,
    -0.35780131816864014, 0.4201647937297821,    -0.0068255518563091755};

static float fusedconv_pCheckOutBuffer_dram[3][4][32] = {0.0,
                                                         0.0,
                                                         0.0,
                                                         0.0,
                                                         0.0,
                                                         4.80698299407959,
                                                         0.0,
                                                         0.0,
                                                         3.4597179889678955,
                                                         1.0446445941925049,
                                                         0.0,
                                                         2.022810697555542,
                                                         5.191689491271973,
                                                         1.069195032119751,
                                                         0.0,
                                                         0.0,
                                                         6.714718818664551,
                                                         8.150958061218262,
                                                         0.0,
                                                         0.0,
                                                         0.0,
                                                         13.7799654006958,
                                                         0.6124330759048462,
                                                         0.0,
                                                         0.42322784662246704,
                                                         0.0,
                                                         9.363460540771484,
                                                         0.0,
                                                         2.8468644618988037,
                                                         0.0,
                                                         0.0,
                                                         0.0,
                                                         0.0,
                                                         1.5526905059814453,
                                                         11.077643394470215,
                                                         0.0,
                                                         0.0,
                                                         1.253138542175293,
                                                         0.45626163482666016,
                                                         0.0,
                                                         0.0,
                                                         0.0,
                                                         0.16022378206253052,
                                                         1.7826581001281738,
                                                         1.9486008882522583,
                                                         0.0,
                                                         0.0,
                                                         0.16887310147285461,
                                                         7.609355926513672,
                                                         0.0,
                                                         0.0,
                                                         1.0714097023010254,
                                                         6.707757949829102,
                                                         14.31357479095459,
                                                         0.8822203874588013,
                                                         1.2267019748687744,
                                                         0.8230457305908203,
                                                         9.74198055267334,
                                                         17.584871292114258,
                                                         0.3789879083633423,
                                                         0.0,
                                                         0.0,
                                                         0.6491626501083374,
                                                         0.07709741592407227,
                                                         0.0,
                                                         10.397890090942383,
                                                         0.08160930871963501,
                                                         3.1659111976623535,
                                                         10.637511253356934,
                                                         0.0,
                                                         2.3281469345092773,
                                                         6.347268104553223,
                                                         1.6790618896484375,
                                                         0.25664353370666504,
                                                         0.0,
                                                         1.8765777349472046,
                                                         0.0,
                                                         0.0,
                                                         0.0,
                                                         0.0,
                                                         0.0,
                                                         3.698948860168457,
                                                         0.0,
                                                         0.9620082378387451,
                                                         0.0,
                                                         0.0,
                                                         0.8109699487686157,
                                                         0.0,
                                                         0.4123965799808502,
                                                         5.549383163452148,
                                                         0.7895081043243408,
                                                         0.0,
                                                         0.0,
                                                         0.0,
                                                         0.0,
                                                         0.0,
                                                         0.5845991373062134,
                                                         0.0,
                                                         0.0,
                                                         1.627668857574463,
                                                         12.10832405090332,
                                                         0.0,
                                                         0.9616438150405884,
                                                         0.0,
                                                         7.406135082244873,
                                                         1.4999895095825195,
                                                         0.0,
                                                         2.0658533573150635,
                                                         0.0,
                                                         0.0,
                                                         0.0,
                                                         2.921670913696289,
                                                         1.937623143196106,
                                                         11.861639022827148,
                                                         0.0,
                                                         0.0,
                                                         1.8738374710083008,
                                                         0.0,
                                                         0.2958923578262329,
                                                         0.0,
                                                         0.24313972890377045,
                                                         0.0,
                                                         0.0,
                                                         0.0,
                                                         8.830191612243652,
                                                         0.0,
                                                         0.9683201313018799,
                                                         0.0,
                                                         1.031182050704956,
                                                         6.938102722167969,
                                                         13.54532241821289,
                                                         4.492503643035889,
                                                         0.0,
                                                         0.0,
                                                         1.2382010221481323,
                                                         0.0,
                                                         0.0,
                                                         0.666872501373291,
                                                         0.0,
                                                         2.0220234394073486,
                                                         0.0,
                                                         0.0,
                                                         0.24744832515716553,
                                                         0.3832862973213196,
                                                         0.0,
                                                         0.0,
                                                         0.0,
                                                         0.8963191509246826,
                                                         0.0,
                                                         0.0,
                                                         0.0,
                                                         0.0,
                                                         0.24401023983955383,
                                                         0.0,
                                                         1.6318597793579102,
                                                         0.0,
                                                         2.6557257175445557,
                                                         0.659572184085846,
                                                         0.0,
                                                         0.0,
                                                         1.5285313129425049,
                                                         2.2399535179138184,
                                                         7.374545097351074,
                                                         2.227993965148926,
                                                         0.0,
                                                         1.0285379886627197,
                                                         0.9386584758758545,
                                                         0.0,
                                                         2.493394136428833,
                                                         4.871135711669922,
                                                         7.289194107055664,
                                                         2.0039222240448,
                                                         3.2729668617248535,
                                                         0.0,
                                                         0.0,
                                                         1.735831379890442,
                                                         15.673871994018555,
                                                         7.8562726974487305,
                                                         0.0,
                                                         0.5690934658050537,
                                                         0.0,
                                                         0.0,
                                                         0.13994872570037842,
                                                         0.0,
                                                         0.0,
                                                         12.8400239944458,
                                                         0.0,
                                                         0.0,
                                                         6.3312177658081055,
                                                         0.0,
                                                         0.0,
                                                         0.0,
                                                         0.24415624141693115,
                                                         4.240800857543945,
                                                         1.2729852199554443,
                                                         0.0,
                                                         5.042041301727295,
                                                         5.161765098571777,
                                                         0.4866454005241394,
                                                         5.9956464767456055,
                                                         0.3375158905982971,
                                                         2.6667537689208984,
                                                         3.2917160987854004,
                                                         1.8683775663375854,
                                                         6.62073278427124,
                                                         0.0,
                                                         0.0,
                                                         0.8960655927658081,
                                                         3.963012456893921,
                                                         0.0,
                                                         0.0,
                                                         0.5398647785186768,
                                                         0.0,
                                                         0.0,
                                                         0.0,
                                                         0.0,
                                                         1.5915956497192383,
                                                         4.423142433166504,
                                                         0.0,
                                                         0.0,
                                                         0.0,
                                                         0.9571639895439148,
                                                         0.0,
                                                         5.909780025482178,
                                                         0.06920003890991211,
                                                         0.0,
                                                         0.0,
                                                         0.0,
                                                         0.0,
                                                         0.0,
                                                         0.6469659209251404,
                                                         0.0,
                                                         0.0,
                                                         2.6016125679016113,
                                                         2.0694475173950195,
                                                         1.825640082359314,
                                                         5.678386211395264,
                                                         0.0,
                                                         0.0,
                                                         2.2984094619750977,
                                                         7.069579601287842,
                                                         2.4218027591705322,
                                                         0.3871586322784424,
                                                         0.0,
                                                         6.682930946350098,
                                                         0.0,
                                                         0.0,
                                                         0.0,
                                                         0.0,
                                                         1.1049013137817383,
                                                         0.0,
                                                         1.1991320848464966,
                                                         2.621527910232544,
                                                         0.0,
                                                         0.0,
                                                         0.0,
                                                         0.45669907331466675,
                                                         0.0,
                                                         0.344150573015213,
                                                         1.1343849897384644,
                                                         0.24104440212249756,
                                                         7.958033084869385,
                                                         0.12675738334655762,
                                                         1.9934303760528564,
                                                         1.1776621341705322,
                                                         0.0,
                                                         0.6889004111289978,
                                                         1.7672377824783325,
                                                         0.864517331123352,
                                                         0.6885616779327393,
                                                         0.0,
                                                         1.4565337896347046,
                                                         0.0,
                                                         4.6629109382629395,
                                                         0.0,
                                                         0.0,
                                                         6.497369766235352,
                                                         11.813334465026855,
                                                         0.0,
                                                         0.0,
                                                         0.4804927110671997,
                                                         0.6827043294906616,
                                                         0.0,
                                                         0.8367682695388794,
                                                         0.7903330326080322,
                                                         0.0,
                                                         1.1269454956054688,
                                                         0.41743290424346924,
                                                         0.0,
                                                         4.075543403625488,
                                                         0.26809248328208923,
                                                         0.26521557569503784,
                                                         0.0,
                                                         2.92964506149292,
                                                         0.6074129343032837,
                                                         4.782899856567383,
                                                         0.3172609508037567,
                                                         4.117936611175537,
                                                         2.8864879608154297,
                                                         1.9567121267318726,
                                                         0.0,
                                                         0.0,
                                                         0.0,
                                                         0.0,
                                                         0.0,
                                                         0.0,
                                                         0.0,
                                                         0.052743375301361084,
                                                         5.948440074920654,
                                                         13.123798370361328,
                                                         0.5424736738204956,
                                                         1.6609387397766113,
                                                         0.46166735887527466,
                                                         0.0,
                                                         18.67791175842285,
                                                         2.126291275024414,
                                                         6.8527021408081055,
                                                         0.05175846815109253,
                                                         0.3869624435901642,
                                                         5.5454182624816895,
                                                         0.0,
                                                         9.469388961791992,
                                                         3.3333652019500732,
                                                         0.0,
                                                         9.922069549560547,
                                                         12.775030136108398,
                                                         1.6351983547210693,
                                                         9.177999496459961,
                                                         2.463881492614746,
                                                         0.0,
                                                         0.0,
                                                         1.9379489421844482,
                                                         0.0,
                                                         0.0,
                                                         0.0,
                                                         0.0,
                                                         0.0,
                                                         0.0,
                                                         0.0,
                                                         0.9225749969482422,
                                                         0.0,
                                                         0.0,
                                                         4.531804084777832,
                                                         0.0,
                                                         0.4315332770347595,
                                                         5.573497772216797,
                                                         12.138097763061523,
                                                         0.0,
                                                         0.0,
                                                         0.0,
                                                         0.3214327096939087,
                                                         0.0,
                                                         0.4475899934768677,
                                                         0.0,
                                                         6.051769733428955,
                                                         0.0,
                                                         14.6709623336792,
                                                         0.0,
                                                         1.5661981105804443,
                                                         5.226235389709473,
                                                         9.811135292053223,
                                                         2.8942854404449463,
                                                         0.0,
                                                         2.040369749069214,
                                                         1.8848143815994263,
                                                         0.6131889820098877,
                                                         0.0,
                                                         1.3077764511108398,
                                                         0.0,
                                                         12.92911148071289,
                                                         0.0,
                                                         0.06619451940059662,
                                                         0.0,
                                                         0.0,
                                                         6.260159969329834,
                                                         0.4717080593109131,
                                                         0.30898553133010864,
                                                         0.0,
                                                         0.0,
                                                         1.524281620979309,
                                                         6.932981491088867,
                                                         0.0,
                                                         0.0,
                                                         0.0};
