#include <stdint.h>

uint16_t ch_in = 14;
uint16_t ch_out = 14;
uint16_t dim_in_x = 8;
uint16_t dim_in_y = 6;
uint16_t dim_kernel_x = 3;
uint16_t dim_kernel_y = 3;
uint16_t dim_out_x = 4;
uint16_t dim_out_y = 3;
uint16_t padding_y_top = 1;
uint16_t padding_y_bottom = 0;
uint16_t padding_x_left = 1;
uint16_t padding_x_right  = 0;
uint16_t stride_x = 2;
uint16_t stride_y = 2;
int8_t *bias;
uint16_t bias_shift;
uint16_t out_shift;
uint16_t out_mult;
float *lambda;
float *k;
float *pIm2ColBuffer;
int flag_relu;
int flag_batch_norm;
int flag_y_accumulate_start = 1;
int flag_y_accumulate_end;
unsigned int *memory_chan;

static float fusedconv_result[3][4][14] __attribute__((section(".data")));

static float fusedconv_ifmap_dram[7][9][14] = {0.0, 0.0, 0.0, 0.0, 0.0, 0.0, 0.0, 0.0, 0.0, 0.0, 0.0, 0.0, 0.0, 0.0, 0.0, 0.0, 0.0, 0.0, 0.0, 0.0, 0.0, 0.0, 0.0, 0.0, 0.0, 0.0, 0.0, 0.0, 0.0, 0.0, 0.0, 0.0, 0.0, 0.0, 0.0, 0.0, 0.0, 0.0, 0.0, 0.0, 0.0, 0.0, 0.0, 0.0, 0.0, 0.0, 0.0, 0.0, 0.0, 0.0, 0.0, 0.0, 0.0, 0.0, 0.0, 0.0, 0.0, 0.0, 0.0, 0.0, 0.0, 0.0, 0.0, 0.0, 0.0, 0.0, 0.0, 0.0, 0.0, 0.0, 0.0, 0.0, 0.0, 0.0, 0.0, 0.0, 0.0, 0.0, 0.0, 0.0, 0.0, 0.0, 0.0, 0.0, 0.0, 0.0, 0.0, 0.0, 0.0, 0.0, 0.0, 0.0, 0.0, 0.0, 0.0, 0.0, 0.0, 0.0, 0.0, 0.0, 0.0, 0.0, 0.0, 0.0, 0.0, 0.0, 0.0, 0.0, 0.0, 0.0, 0.0, 0.0, 0.0, 0.0, 0.0, 0.0, 0.0, 0.0, 0.0, 0.0, 0.0, 0.0, 0.0, 0.0, 0.0, 0.0, 0.0, 0.0, 0.0, 0.0, 0.0, 0.0, 0.0, 0.0, 0.0, 0.0, 0.0, 0.0, 0.0, 0.0, 1.9269152879714966, 1.4872840642929077, 0.9007171988487244, -2.1055209636688232, 0.6784184575080872, -1.2345448732376099, -0.04306747764348984, -1.6046669483184814, -0.7521352767944336, 1.6487230062484741, -0.3924786448478699, -1.4036071300506592, -0.7278813123703003, -0.5594301819801331, -0.7688388824462891, 0.7624453902244568, 1.6423169374465942, -0.1595974713563919, -0.4973975419998169, 0.439589262008667, -0.7581311464309692, 1.078317642211914, 0.8008005619049072, 1.680620551109314, 1.27912437915802, 1.2964228391647339, 0.610466480255127, 1.334737777709961, -0.2316243201494217, 0.041759490966796875, -0.2515752911567688, 0.859858512878418, -1.3846737146377563, -0.8712361454963684, -0.223365917801857, 1.7173614501953125, 0.3188803195953369, -0.42451897263526917, 0.3057209253311157, -0.7745925188064575, -1.5575724840164185, 0.9956361055374146, -0.8797858357429504, -0.6011420488357544, -1.2741512060165405, 2.1227850914001465, -1.234653115272522, -0.4879138767719269, -0.9138230085372925, -0.6581372618675232, 0.07802387326955795, 0.5258087515830994, -0.48799172043800354, 1.1913690567016602, -0.8140076398849487, -0.7359927892684937, -1.4032478332519531, 0.03600366786122322, -0.06347727030515671, 0.6756148934364319, -0.0978068932890892, 1.8445940017700195, -1.184537410736084, 1.3835493326187134, 1.4451338052749634, 0.8564125299453735, 2.218075752258301, 0.5231655240058899, 0.34664666652679443, -0.19733144342899323, -1.0545889139175415, 1.2779955863952637, -0.1721901297569275, 0.5237884521484375, 0.056621819734573364, 0.4262961447238922, 0.575005054473877, -0.6417241096496582, -2.2063984870910645, -0.7508030533790588, 0.01086814422160387, -0.33874234557151794, -1.3406795263290405, -0.5853705406188965, 0.5361881256103516, 0.5246226191520691, 1.1412016153335571, 0.05164359509944916, 0.7439519762992859, -0.4815843999385834, -1.0494661331176758, 0.603898823261261, -1.7222950458526611, -0.827768862247467, 1.334702968597412, 0.48353928327560425, -2.5095443725585938, 0.4880010485649109, 0.7845868468284607, 0.02864718623459339, 0.640755295753479, 0.5832474231719971, 1.0669267177581787, -0.4501533806324005, -0.18526747822761536, 0.7527588605880737, 0.4047577977180481, 0.17846599221229553, 0.2649095058441162, 1.2731683254241943, -0.0013108636485412717, -0.30360376834869385, 0.0, 0.0, 0.0, 0.0, 0.0, 0.0, 0.0, 0.0, 0.0, 0.0, 0.0, 0.0, 0.0, 0.0, -1.457029104232788, -0.10233523696660995, -0.5991530418395996, 0.4770564138889313, 0.7261772155761719, 0.09115186333656311, -0.3890652060508728, 0.5279164910316467, -0.012685478664934635, 0.24083632230758667, 0.13253536820411682, 0.7642406225204468, 1.095009684562683, 0.3398909568786621, 0.7199674844741821, 0.41140761971473694, 1.931160569190979, 1.0118638277053833, -1.4364064931869507, -1.1298598051071167, -0.1360345333814621, 1.6354095935821533, 0.6547407507896423, 0.5760045647621155, 1.1415079832077026, 0.018564576283097267, -1.8058050870895386, 0.9254348874092102, -0.3753443658351898, 1.0330873727798462, -0.6866509318351746, 0.6368136405944824, -0.9726738929748535, 0.9584577679634094, 1.6192004680633545, 1.450609803199768, 0.2694815397262573, -0.21037597954273224, -0.7328027486801147, 0.10429783165454865, 0.3487516939640045, 0.9675941467285156, -0.46568843722343445, 1.6047972440719604, -2.4801201820373535, -0.4175437390804291, -1.1954537630081177, 0.8123369216918945, -1.9005532264709473, 0.22857652604579926, 0.02485940419137478, -0.34595024585723877, 0.2868328094482422, -0.7308424115180969, 0.17482025921344757, -1.0939292907714844, -1.6021603345870972, 1.3528969287872314, 1.288827657699585, 0.05229547247290611, -1.5468504428863525, 0.7567060589790344, 0.7755194902420044, 2.0265355110168457, 0.03581761196255684, 0.12058872729539871, -0.8056637048721313, -0.20757682621479034, -0.9319478273391724, -1.5909662246704102, -1.13597571849823, -0.52259761095047, -0.5187733173370361, -1.5012763738632202, -1.9266542196273804, 0.1278512328863144, 1.0229133367538452, -0.5557951331138611, 0.7042727470397949, 0.7098760008811951, 1.7743884325027466, -0.921550989151001, 0.9624499082565308, -0.33701515197753906, -1.1753336191177368, 0.35805708169937134, 0.47876790165901184, 1.353700041770935, 0.5260620713233948, 2.1120378971099854, -0.5207571387290955, -0.9320061206817627, 0.18516133725643158, 1.0686918497085571, 1.3065344095230103, 0.4598345160484314, -0.8146268725395203, -1.0212392807006836, -0.49492356181144714, -0.5922516584396362, 0.15431594848632812, 0.4407670795917511, -0.14829230308532715, -2.3184432983398438, -0.39799532294273376, 1.0804862976074219, -1.7808643579483032, 1.5080454349517822, 0.30942854285240173, -0.5003090500831604, 1.0350031852722168, 1.6896470785140991, 0.0, 0.0, 0.0, 0.0, 0.0, 0.0, 0.0, 0.0, 0.0, 0.0, 0.0, 0.0, 0.0, 0.0, -0.004505051765590906, 1.666792392730713, 0.15392017364501953, -1.0602530241012573, -0.572657585144043, 0.0835680365562439, 0.39990535378456116, 1.989207148551941, -0.07198750972747803, -0.906094491481781, -2.0487122535705566, -1.0810555219650269, 0.01762307994067669, 0.0782259851694107, 0.19315829873085022, 0.40967342257499695, -0.9291303157806396, 0.2761908769607544, -0.5388752818107605, 0.4625823199748993, -0.8718891143798828, -0.027118360623717308, -0.3532457649707794, 1.4638569355010986, 1.255434274673462, -0.7149558067321777, 0.8539193272590637, 0.512991189956665, 0.5397310256958008, 0.5655050277709961, 0.5057917237281799, 0.22245365381240845, -0.685481607913971, 0.5635589957237244, -1.507175087928772, -1.610666036605835, -1.4790465831756592, 0.4322742819786072, -0.1250254064798355, 0.7821183800697327, -1.598767638206482, -0.10912995040416718, 0.7151994705200195, 0.03913922235369682, 1.305860161781311, 0.24659274518489838, -1.9775909185409546, 0.01789604313671589, -1.3793021440505981, 0.625802755355835, -2.5849502086639404, -0.02399955503642559, -0.1221928745508194, -0.7469954490661621, 1.7093087434768677, 0.05792269483208656, 1.1929805278778076, 1.9372931718826294, 0.7287133932113647, 0.9808937907218933, 0.41459226608276367, 1.15656316280365, 0.2690545618534088, -0.036629438400268555, 0.9732939004898071, -1.0150787830352783, -0.5419175624847412, -0.44102486968040466, -0.3136177957057953, -0.12925422191619873, -0.7149624228477478, -0.047562163323163986, 2.0207436084747314, 0.25391900539398193, 0.9364385008811951, 0.7122363448143005, -0.031765542924404144, 0.10164086520671844, 1.3433040380477905, 0.7132695913314819, 0.4038029611110687, -0.7139783501625061, 0.8337291479110718, -0.9585452079772949, 0.45363426208496094, 1.2460919618606567, -2.3065085411071777, -1.2868918180465698, 0.17988650500774384, -2.126762628555298, -0.13408313691616058, -1.0407685041427612, -0.7647228837013245, -0.05528254434466362, 1.204850673675537, -0.982473611831665, 0.4334380030632019, -0.7171905636787415, 1.055369257926941, -1.4533969163894653, 0.46515071392059326, 0.37139150500297546, -0.004656785633414984, 0.07954943925142288, 0.3781784772872925, 0.7051141262054443, -1.7236974239349365, -0.8434810638427734, 0.4351435601711273, 0.26588720083236694, -0.5870985388755798, 0.0826888456940651, 0.0, 0.0, 0.0, 0.0, 0.0, 0.0, 0.0, 0.0, 0.0, 0.0, 0.0, 0.0, 0.0, 0.0, 0.8853808045387268, 0.1824439913034439, 0.7863810062408447, -0.057920295745134354, 0.5666652917861938, -0.7097623348236084, -0.4875054359436035, 0.050095997750759125, 0.6084084510803223, 1.6308681964874268, -0.08472306281328201, 1.0844124555587769, 0.9477656483650208, -0.676629364490509, -0.5730168223381042, -0.3303174376487732, -0.7939430475234985, 0.3752319812774658, 0.08790969103574753, -1.241483449935913, -0.32025346159935, -0.844377875328064, -0.5513465404510498, 1.9889612197875977, 1.900311827659607, 1.6950805187225342, 0.028089528903365135, -0.17536965012550354, -1.7734959125518799, -0.7046414017677307, -0.39465200901031494, 1.8868111371994019, -0.21844321489334106, 0.16629981994628906, 2.1441681385040283, 1.7045671939849854, 0.3459012508392334, 0.6424751281738281, -0.20395424962043762, 0.6853673458099365, -0.13968797028064728, -1.1807502508163452, -1.282929539680481, 0.448485791683197, -0.590737521648407, 0.8540631532669067, -0.4900680184364319, -0.35945725440979004, 0.6663737893104553, -0.07426456362009048, -0.20960482954978943, 0.16632132232189178, 1.4703037738800049, -0.9390866756439209, -0.6013189554214478, -0.09964022785425186, -0.9851518273353577, -2.488459348678589, -0.33131900429725647, 0.8435799479484558, 0.9874473810195923, -0.33197471499443054, -0.8076189756393433, 0.824364185333252, 0.024699924513697624, -1.0641486644744873, -0.7601934671401978, -0.4075061082839966, 0.9623646140098572, -0.14264194667339325, 0.15271379053592682, -0.0388023778796196, 0.9446058869361877, -1.5824053287506104, 0.9871290922164917, 1.1456739902496338, -0.14181147515773773, -0.2763414680957794, -0.19321373105049133, 0.7767809629440308, 0.6838752627372742, -1.3245893716812134, -0.5160817503929138, 0.6001842617988586, -0.4702208340167999, -0.6086435317993164, -0.046192023903131485, -1.6457397937774658, -0.4833274185657501, -0.740294337272644, 0.31428107619285583, 0.1415553092956543, 1.0348176956176758, -0.626437783241272, -0.5150922536849976, 0.6902899742126465, -0.4939993619918823, 1.1366126537322998, -0.46184006333351135, 1.419979453086853, 0.848518967628479, -0.047891248017549515, 0.6685602068901062, 1.0429801940917969, 0.6899017095565796, -1.3129348754882812, 0.03780364990234375, -1.1702114343643188, -0.10318559408187866, 1.1894739866256714, 0.7606944441795349, -0.7463049292564392, 0.0, 0.0, 0.0, 0.0, 0.0, 0.0, 0.0, 0.0, 0.0, 0.0, 0.0, 0.0, 0.0, 0.0, -1.3838845491409302, 0.4868715703487396, -1.0020296573638916, 0.0329488180577755, -0.42919591069221497, -0.9817978739738464, -0.6420586109161377, 0.8265887498855591, 1.591395616531372, -0.1208132952451706, -0.48302069306373596, 0.11329790204763412, 0.0771508663892746, -0.9228128790855408, -1.2619991302490234, 1.0860532522201538, 1.096641182899475, -0.6836934685707092, 0.06604336202144623, -0.0007737990817986429, 0.1620604395866394, 1.195958137512207, -1.3061535358428955, -1.4039719104766846, -1.0597201585769653, 0.3057299852371216, 0.4150581359863281, -0.7174144983291626, 2.833967924118042, 1.9534740447998047, 2.0486814975738525, -1.0880382061004639, 1.621694564819336, 0.8512656688690186, -0.40046969056129456, -0.6088271737098694, -0.508095383644104, -0.6184902191162109, -1.647040605545044, -1.0362098217010498, -0.4503057301044464, -0.0729660615324974, -0.5479549169540405, -1.1425532102584839, -0.44875210523605347, -0.03045438416302204, 0.3830311596393585, -0.04476971551775932, 1.179942011833191, -0.33142781257629395, 0.6495042443275452, 0.09495851397514343, -0.7525874376296997, -0.647229790687561, -1.2822614908218384, 1.96529221534729, -0.9638485312461853, -2.5667941570281982, 0.7096128463745117, 0.8198426961898804, 0.6214459538459778, 0.42318588495254517, -0.33889833092689514, 0.5179733633995056, -1.363769769668579, 0.1929578185081482, -0.6103342771530151, 0.16323445737361908, 1.51017165184021, 0.21230429410934448, -0.7252011299133301, -0.9527732729911804, 0.5216943025588989, -0.46386733651161194, 0.18237744271755219, -0.38666075468063354, -1.7906768321990967, 0.09329313784837723, -1.9152568578720093, -0.6421752572059631, 1.3438509702682495, -1.2922308444976807, 0.766244113445282, 0.64540034532547, 0.353316068649292, -2.6474881172180176, -1.4575366973876953, -0.9712379574775696, 0.25403109192848206, -0.1790592074394226, 1.1992844343185425, -0.4292171895503998, 1.010284185409546, 0.6110401153564453, 1.2208385467529297, -0.6076440215110779, -1.7376028299331665, -0.12535162270069122, -1.3658148050308228, 1.111746072769165, -0.6227966547012329, -0.7891808748245239, -0.167823925614357, 1.6433145999908447, 2.0070879459381104, -1.2531019449234009, 1.118869423866272, 1.7732776403427124, -2.071660280227661, -0.4125255346298218, -0.9769555926322937, -0.03363388776779175, 0.0, 0.0, 0.0, 0.0, 0.0, 0.0, 0.0, 0.0, 0.0, 0.0, 0.0, 0.0, 0.0, 0.0, 1.8594977855682373, 2.6221468448638916, 0.36905255913734436, 0.3802972435951233, 0.19898031651973724, -0.23609064519405365, 0.30340856313705444, -0.45007675886154175, 0.47390419244766235, 0.6503364443778992, 1.1662380695343018, 0.01693599671125412, 0.5325868129730225, -0.6035352349281311, -0.1742597371339798, 0.6092063784599304, -0.8032152652740479, -1.1209005117416382, 0.1956406533718109, -0.7815181016921997, -1.7898789644241333, -0.26157355308532715, -0.44025033712387085, 2.1848294734954834, -0.48009708523750305, -1.2871733903884888, 0.7388824224472046, 0.03389474004507065, -0.31229403614997864, -0.2541753351688385, -1.205536127090454, -0.9542103409767151, 0.061276569962501526, 0.08526104688644409, 0.7481252551078796, -0.16356196999549866, -0.9085567593574524, 0.3129958212375641, 0.8050477504730225, -1.1133604049682617, 0.4981626570224762, -1.1999552249908447, 0.12711313366889954, 0.4403660297393799, 0.6377718448638916, 0.15978877246379852, 1.7697970867156982, 0.6268176436424255, -1.8736529350280762, 2.3259060382843018, -0.9203909635543823, 0.6661149263381958, -0.44026491045951843, -2.3179564476013184, 1.294582724571228, 0.22267311811447144, -0.8483412265777588, 1.6489421129226685, 1.6005686521530151, -0.07858924567699432, 0.43104586005210876, 0.3683530390262604, 0.7637977004051208, 1.1792222261428833, -0.4137862026691437, 0.5184088349342346, -0.7015367746353149, -0.4323408901691437, 0.1414770483970642, 0.07110362499952316, 0.5633530616760254, -0.5786357522010803, -1.083811640739441, -0.3889259994029999, 0.8126105666160583, 1.4981187582015991, 0.043896086513996124, 1.4443233013153076, 0.23202891647815704, 0.5064983367919922, -1.2786966562271118, -0.03842746838927269, 1.9138009548187256, 0.3378446102142334, 0.12505611777305603, -0.7621514797210693, -1.190559983253479, 0.7756073474884033, 0.455719918012619, 0.2503303289413452, -1.3610970973968506, 1.8018341064453125, -0.07434194535017014, -0.15664155781269073, -0.8708454966545105, -0.6410972476005554, -0.414562851190567, -0.6902380585670471, -0.22995619475841522, -2.172283887863159, 0.08768323808908463, 1.0937845706939697, -0.1177205815911293, -0.29864323139190674, -0.9536206126213074, -0.09247277677059174, -1.01665461063385, -0.007675689645111561, -0.518220841884613, 0.83954256772995, 0.05852266773581505, -1.6682480573654175};

static float fusedconv_weights_dram[14][3][3][14] = {2.129624843597412, -1.5181471109390259, 0.1387282907962799, -1.1797568798065186, -0.5297411680221558, 0.9625157713890076, 0.2794382870197296, -0.5718191266059875, -2.7936289310455322, -0.7111545205116272, 0.5235219597816467, -1.71055006980896, 0.8384853601455688, -0.2698453664779663, 0.12306158244609833, 0.8757511377334595, 0.15132997930049896, 0.739393413066864, 0.27310314774513245, 2.7312309741973877, 0.43200522661209106, -0.30918216705322266, -0.09658124297857285, 1.541925072669983, -0.108744777739048, -0.4189043343067169, 1.4384385347366333, -0.7068426609039307, -1.2519514560699463, 3.0250484943389893, 1.3462589979171753, 0.8556069731712341, 0.3220294117927551, 0.44605663418769836, 1.5229592323303223, 1.2804899215698242, -0.11616043001413345, 1.3705363273620605, -0.4809381365776062, -0.9903622269630432, -1.3641812801361084, 0.008205652236938477, -0.40586018562316895, -0.7110859751701355, -0.3495793640613556, 0.3797488212585449, 0.9993040561676025, 1.2751853466033936, 0.9594927430152893, 0.10350999981164932, 0.8290349841117859, 2.0921294689178467, 0.7953095436096191, 0.2792847752571106, 0.1864478439092636, 0.3547132909297943, 0.09063850343227386, 1.7422553300857544, -1.2660012245178223, 0.38916081190109253, 0.34287506341934204, -1.4590637683868408, -1.4936561584472656, -0.22138521075248718, 0.22523505985736847, -0.07724537700414658, 0.9856945276260376, 1.2783364057540894, 0.28815189003944397, 0.869049608707428, -0.8097057938575745, -1.4298604726791382, 0.45901596546173096, 0.5309328436851501, -1.3614802360534668, 1.9562491178512573, 1.7684898376464844, -0.9857985377311707, -1.2370758056640625, -2.301875114440918, -0.0010087001137435436, -0.8494256734848022, -1.6593921184539795, 0.3062905967235565, 1.182044506072998, 0.32602694630622864, -0.3894469738006592, 2.8543806076049805, 0.8243650794029236, 0.7983470559120178, 1.8890222311019897, 0.5934628248214722, 0.0696544423699379, -1.6034338474273682, -0.42982181906700134, 0.5761587619781494, 0.34436315298080444, -3.1016058921813965, -1.4587225914001465, -1.4318257570266724, -0.6071268916130066, -0.25973787903785706, -0.7190185785293579, -0.38583096861839294, 0.5233525037765503, -0.8211768269538879, -0.47086891531944275, 0.6016423106193542, -0.28251126408576965, 0.7692679762840271, -0.7668924331665039, -0.9494866728782654, 0.01691739819943905, 0.08027740567922592, 0.7448412775993347, 1.345484972000122, 0.12682189047336578, -2.4520716667175293, 0.4159761369228363, 1.9025356769561768, -0.7346699833869934, 0.044657133519649506, -1.5211198329925537, 0.3478375971317291, 0.7401772737503052, 1.4161995649337769, 0.6833979487419128, -0.13825182616710663, 0.9212995171546936, 0.5282443761825562, -0.008228386752307415, -1.4493319988250732, -0.605182409286499, -0.17924511432647705, 0.19955870509147644, -1.2461947202682495, -0.41459938883781433, 1.4558700323104858, 0.3316534161567688, -1.00010085105896, -0.6919524669647217, -0.47199076414108276, -1.2894343137741089, 1.0762810707092285, -1.0667427778244019, -1.9893426895141602, 0.29731303453445435, 0.4344584047794342, 0.0033933203667402267, -1.0240145921707153, 0.22404761612415314, -0.7554785013198853, 1.3675810098648071, -0.3197358250617981, -0.9130924344062805, 1.919209361076355, -1.6514869928359985, 2.1477253437042236, -0.6604134440422058, 0.11352583765983582, -0.22056575119495392, 0.7118127346038818, 0.3415871560573578, 1.5885895490646362, -0.3488781750202179, -0.45791950821876526, -1.2322070598602295, -0.598077118396759, -0.28154700994491577, 0.05281926319003105, 0.42497751116752625, 0.4825834333896637, 0.48813387751579285, 1.0082393884658813, -0.595004141330719, 0.3926331400871277, 0.8229668736457825, -0.886031985282898, 1.4801039695739746, 0.8391514420509338, -0.20004984736442566, 0.9949536919593811, 0.7201864719390869, -0.13413065671920776, -1.4067999124526978, -2.3609628677368164, -0.2904934287071228, -0.13345853984355927, -0.15693345665931702, 1.138344645500183, -0.2505214214324951, 1.6704555749893188, -0.545271098613739, -2.15816330909729, -1.6607975959777832, -0.6637441515922546, 0.3657907545566559, -0.39920157194137573, 0.49674081802368164, -2.369169235229492, -0.5614708065986633, -0.5949130654335022, 1.2687278985977173, 1.2904434204101562, -1.1755682229995728, -0.0783226415514946, -0.9705761075019836, 1.4723693132400513, 1.4108561277389526, -1.3143675327301025, -1.31621515750885, -1.2524477243423462, -1.5844100713729858, -2.5446670055389404, 1.3719074726104736, -0.5379461050033569, 0.7378400564193726, -0.8505349159240723, 0.03610055148601532, 1.3406710624694824, 0.9199973940849304, -0.3787555396556854, -1.5597758293151855, -0.8009540438652039, -0.7111086845397949, -0.3866667151451111, 0.9578314423561096, -0.8225308656692505, -2.3908050060272217, 0.322247713804245, 1.875388741493225, 1.1042989492416382, -0.5223758816719055, -0.7401803731918335, 0.16235657036304474, -0.2369976043701172, 0.5099347233772278, 1.670624852180481, 1.5921050310134888, -0.41619211435317993, 1.861944556236267, -1.077892780303955, 0.8848565220832825, -0.8342104554176331, 1.0300744771957397, -0.8680985569953918, -0.5701602697372437, 0.32332202792167664, 1.1284750699996948, -1.2123126983642578, 2.602391004562378, -0.09572362899780273, -0.08114803582429886, 1.2586976289749146, 0.8691263794898987, -0.9609367251396179, 0.05182264745235443, -0.3284812867641449, -2.247206211090088, -0.4478967487812042, 0.4234687089920044, -0.3874586224555969, -0.22963792085647583, -0.40709349513053894, 0.8702965974807739, -1.0552809238433838, -1.3284013271331787, 0.7060741186141968, 0.35730111598968506, 0.5892837643623352, 0.9187757968902588, 0.6662830114364624, 0.24650610983371735, 0.1328691989183426, 0.12191462516784668, 0.47808775305747986, 0.2761341631412506, -0.5895728468894958, 0.569182813167572, -0.7911050319671631, -0.19896702468395233, -1.3615714311599731, -0.5193602442741394, 0.07648162543773651, 0.34005025029182434, 1.4557304382324219, -0.3461014926433563, -0.2633814215660095, -0.447700172662735, -0.7288169264793396, -0.16066236793994904, -0.32063713669776917, -0.6307737827301025, -0.788766622543335, 1.3061575889587402, -0.9275763630867004, -0.26273947954177856, 0.9314952492713928, -0.4593467116355896, -0.9419456720352173, -0.7089186310768127, 2.1860759258270264, -0.6493158936500549, 0.45214036107063293, 0.8520749807357788, -1.6946725845336914, 1.1805996894836426, -2.8929238319396973, -0.3875778615474701, -0.7124031782150269, -1.6171332597732544, -0.35899198055267334, 0.051366694271564484, 0.6950237154960632, 1.835181474685669, -1.9180361032485962, -1.3923954963684082, 0.540465772151947, 0.4350730776786804, -2.2717032432556152, -0.13386189937591553, -0.058557309210300446, 0.12574470043182373, -0.5525766611099243, 0.07448001205921173, -0.1492866724729538, -0.5522539615631104, -0.09342008084058762, -1.0284309387207031, 0.40444278717041016, 2.1425962448120117, -0.5153723955154419, 1.0827196836471558, 1.2498642206192017, 0.9821351766586304, 0.22690092027187347, 0.4927920699119568, -0.5128253102302551, 0.3006223440170288, 0.07734657824039459, 0.6477669477462769, -0.4324244260787964, 1.1740480661392212, 0.7011352777481079, 0.6674330234527588, -0.8035953640937805, -1.3776048421859741, -0.4410470724105835, 0.1417587399482727, 1.1084681749343872, 0.5544233322143555, 1.5817502737045288, -1.2247875928878784, 0.962885856628418, -1.5785412788391113, 0.6715953946113586, -0.060151856392621994, 0.06978437304496765, -1.6634936332702637, -0.7650561332702637, 1.2306435108184814, 0.4252126216888428, -0.016383398324251175, -0.10749480873346329, -1.3085604906082153, 0.659813642501831, -0.07032525539398193, 0.27448296546936035, -0.3450125455856323, -0.11961783468723297, 1.1861584186553955, -1.2203160524368286, 0.2909986078739166, -0.07964225858449936, 1.3200364112854004, -1.5196866989135742, -0.29335519671440125, 2.106604814529419, -0.10875027626752853, 0.608341634273529, 0.7894347310066223, 0.7824702858924866, -0.06465863436460495, -0.0002302070497535169, 0.6830949187278748, 0.1063748151063919, 0.3503226041793823, 0.12109924107789993, 0.2984321117401123, 1.3447729349136353, 1.4614392518997192, 1.0566132068634033, 0.8155362606048584, -0.8240620493888855, 0.8932762742042542, -0.386881560087204, -0.35717684030532837, -1.1568186283111572, -1.7659958600997925, -2.5379507541656494, 0.09694309532642365, -0.7912065982818604, 0.37119555473327637, 1.5117958784103394, -0.8914596438407898, 0.5247467160224915, 0.3517809212207794, 0.2491273283958435, 1.1900452375411987, 1.410936951637268, 0.7980097532272339, 0.49413225054740906, -0.18495284020900726, -1.0380902290344238, -0.10130416601896286, -0.9271824359893799, 0.23484112322330475, 0.08861476927995682, -0.3476867079734802, 0.8490674495697021, 0.2014705091714859, 0.3839779198169708, 1.2309634685516357, 1.2286686897277832, 0.7042104005813599, -0.05628490820527077, -1.4897207021713257, -1.5194628238677979, 0.32580918073654175, -1.458429217338562, 1.8989076614379883, -0.04056643322110176, -0.2933650016784668, 1.397810459136963, -0.9166569709777832, -0.7793720364570618, -0.41753849387168884, 1.1059718132019043, 0.2528532147407532, -0.10754015296697617, 0.7705280780792236, -1.1304327249526978, 0.996456503868103, -1.1809622049331665, 0.9626035690307617, -1.1049346923828125, -0.7909473180770874, -0.21609316766262054, 0.0019485306693241, -0.20979070663452148, 1.2010222673416138, 0.675596296787262, -1.8900177478790283, 0.19431965053081512, 1.6020095348358154, -1.0371782779693604, -0.7486876249313354, -0.3844030499458313, 0.14350247383117676, -0.0812682956457138, 1.1261653900146484, 0.04061844199895859, -0.06464217603206635, 3.445625066757202, -1.1129159927368164, -0.4341987073421478, -0.015211731195449829, 0.5427215099334717, 0.12508316338062286, -0.8761705756187439, 1.2222594022750854, 0.32681646943092346, -0.10487240552902222, 2.476804733276367, 0.5769069790840149, 0.14730526506900787, -1.3136197328567505, -0.6061143279075623, 0.6449755430221558, -0.24771355092525482, -1.407819390296936, -0.0801108106970787, 0.5194124579429626, 1.170888900756836, 2.1779797077178955, 1.7791979312896729, 0.25832492113113403, -2.4340736865997314, -0.3497500419616699, -1.338055968284607, -0.4389103353023529, -0.5850174427032471, 1.8071491718292236, -0.7326241135597229, 0.4093967378139496, -0.5840954780578613, 0.10613418370485306, -0.3067088723182678, 0.8642276525497437, -1.0658658742904663, -1.0129939317703247, -0.9939178228378296, 2.9082677364349365, 1.4483332633972168, -0.5614521503448486, -0.9464563131332397, -0.7419731020927429, 0.15562251210212708, -0.25843867659568787, -0.7501540780067444, 1.2354754209518433, 1.0141247510910034, 1.01323664188385, 0.6346396803855896, 0.8768793344497681, 0.8142848610877991, 0.19737061858177185, -0.6367602348327637, -0.8768263459205627, -1.5509816408157349, -0.7881835699081421, 0.5684375166893005, 0.7622402906417847, 0.5568539500236511, 1.2983627319335938, 1.7561308145523071, 0.21129246056079865, 1.4860185384750366, 0.5585124492645264, 0.3491472005844116, 0.8483667373657227, 2.0354838371276855, 0.3772087097167969, 0.48434850573539734, -0.030398759990930557, 1.0925219058990479, -0.5064011812210083, -0.8441710472106934, -0.22143854200839996, 2.274590015411377, -0.783242404460907, -0.26778313517570496, 1.5684525966644287, -0.283514142036438, -0.09603477269411087, 1.0644340515136719, 1.4888246059417725, 0.8825610876083374, -0.23840203881263733, 0.5468734502792358, -0.06058019772171974, -0.5304896831512451, -2.0363707542419434, 0.5246880650520325, -0.6970252990722656, -0.08793152123689651, -0.27431318163871765, 1.2922906875610352, -1.4458993673324585, -0.31466683745384216, 0.11260014772415161, -1.4679176807403564, -1.716816782951355, -0.5502451658248901, 0.535078763961792, -1.3392163515090942, 1.2357676029205322, -2.0370566844940186, 1.4171453714370728, 0.1686755269765854, -1.1421011686325073, 0.6069639921188354, -0.8331825137138367, -0.47921040654182434, 0.2998451292514801, 0.721377432346344, -0.6184468865394592, 0.545662522315979, -0.7691330313682556, 0.0793362557888031, -0.7584667801856995, 0.941990315914154, 0.43399056792259216, 1.1234275102615356, 0.5057575702667236, -1.137097716331482, -0.758182168006897, 0.04228341206908226, -0.6900910139083862, -0.5621538162231445, 0.825295627117157, 2.268347978591919, -1.7732727527618408, -0.9907275438308716, 0.634861409664154, 1.0238486528396606, 0.9574744701385498, 0.019129564985632896, -1.0700304508209229, -0.7518913149833679, 2.4400694370269775, -1.912861704826355, 0.31076598167419434, -1.4762635231018066, -0.47829392552375793, -0.11727923899888992, -0.630508303642273, -1.265464186668396, -0.294853538274765, -0.2798626720905304, 1.0837124586105347, 0.17298388481140137, 0.5123522281646729, -0.9818529486656189, 1.1258721351623535, 0.25538599491119385, -0.4588965177536011, -0.9283785820007324, -0.17175325751304626, -0.6866653561592102, -0.1326882690191269, 1.6295740604400635, -1.5456795692443848, -0.16959930956363678, 0.02781728096306324, 0.0910743772983551, 0.6718529462814331, 0.9851812124252319, -0.7609738707542419, -1.2726119756698608, -0.6267421841621399, 1.3712586164474487, 0.23598231375217438, -0.446566104888916, -1.1778020858764648, 1.4125137329101562, -0.02316661737859249, -0.011093219742178917, -0.9952824711799622, -0.29935362935066223, 0.7670295834541321, -0.937210738658905, -2.330476999282837, -0.7808834314346313, 0.8250064849853516, 1.2206652164459229, -0.06297583878040314, 1.1463638544082642, 1.2215378284454346, -0.31372663378715515, -0.7234253287315369, -0.3627345860004425, 0.4424906373023987, 0.19418247044086456, -0.4999869465827942, -0.5500510334968567, 0.023851748555898666, -1.5203826427459717, 0.5293999314308167, -0.39082857966423035, -1.9291036128997803, 0.03497670218348503, -0.4833625555038452, -1.2260730266571045, -0.33963847160339355, 0.007326157763600349, -0.052180398255586624, 1.167490005493164, 1.730208158493042, 2.056168794631958, -0.23472319543361664, -1.345624327659607, -0.5165784358978271, -0.6881742477416992, 0.4755038022994995, -1.4316335916519165, 0.1427735835313797, 0.6328914165496826, -1.048923373222351, -0.5224623084068298, -1.1338030099868774, -0.14128278195858002, -0.6456266641616821, 0.4101375937461853, 0.32671934366226196, -0.8344282507896423, -0.4921732246875763, 0.658042311668396, 0.5361921191215515, 1.2350000143051147, -0.21214154362678528, 1.387345790863037, -0.8248465657234192, 0.3544987440109253, -0.28073710203170776, -0.243259459733963, -0.29366371035575867, -0.6286743879318237, -0.04226749762892723, -0.27004849910736084, 1.4387904405593872, 0.03258634731173515, -0.5479734539985657, -0.49368005990982056, 2.8818862438201904, -1.1672022342681885, 1.9413354396820068, -1.163609266281128, -1.5966553688049316, 0.08320564776659012, -0.9222075343132019, -0.3711417317390442, -0.9714295268058777, 0.15282166004180908, 0.7250988483428955, -1.3895257711410522, 1.1874427795410156, 0.027558235451579094, 2.0010547637939453, -0.12460697442293167, -1.156516194343567, 0.9009959697723389, -0.18842656910419464, -1.2726235389709473, 0.5764585137367249, -0.35594069957733154, -0.5188538432121277, -0.3927396237850189, 1.7511601448059082, 0.19589348137378693, 1.7757917642593384, -0.18522614240646362, 1.0595130920410156, 1.2978315353393555, 0.3285580277442932, 0.14869070053100586, 0.2704370319843292, -1.1818499565124512, -1.0340323448181152, -0.4947497546672821, -0.8951197266578674, 0.5340191125869751, -0.88661128282547, 0.7963698506355286, 0.6588250994682312, -0.2966694235801697, 0.23320063948631287, -1.3473118543624878, -0.8231000304222107, -0.539470374584198, 0.09215065091848373, 0.8539144992828369, -1.0331605672836304, 0.5837976336479187, 1.0166347026824951, -0.794191300868988, 0.36742645502090454, 0.42930465936660767, 2.0288591384887695, -0.7683921456336975, -1.2262547016143799, -0.11334973573684692, 0.30849045515060425, -0.4410642385482788, -0.77969890832901, -0.756567120552063, 1.514818549156189, -1.5796416997909546, 0.6386357545852661, -0.4361383616924286, -1.0022987127304077, 0.3780289888381958, 0.04276036471128464, 0.5858650803565979, -1.3687634468078613, 1.1168509721755981, 0.27692535519599915, 1.0580254793167114, -0.05147926136851311, 0.17128385603427887, -0.21165163815021515, -0.1787608563899994, -0.8498311638832092, 1.166976809501648, -0.34847185015678406, 0.07418181002140045, 1.757521390914917, -0.6254484057426453, 0.20935998857021332, 1.505028486251831, -1.1346086263656616, -0.7111839056015015, 1.3401062488555908, 1.5108956098556519, -1.198473572731018, 0.37665531039237976, -0.251127690076828, -0.527733564376831, -0.47698524594306946, -0.5625298023223877, -1.0562596321105957, 0.24130821228027344, 0.18275369703769684, 0.6246524453163147, -0.7939775586128235, -0.674835205078125, -0.3876877427101135, 0.44965043663978577, 0.3726101517677307, -1.9104946851730347, 0.26085028052330017, 1.4177610874176025, 0.6738032102584839, 1.4665507078170776, -1.1077474355697632, -0.7443782091140747, 1.0188977718353271, -1.8317182064056396, 0.2806217670440674, 0.6909231543540955, 0.7183824777603149, -0.5719326138496399, -0.46663370728492737, 0.1017654687166214, 0.38033702969551086, -1.962886095046997, -0.7805798053741455, -0.1343953162431717, -0.3609391152858734, 0.104627326130867, -0.325872004032135, 0.3189202845096588, -0.10977188497781754, 0.0964970588684082, -1.4932167530059814, 0.5237964987754822, 0.7530690431594849, -0.2219216674566269, 0.5819101333618164, -1.9369032382965088, -1.5334482192993164, -0.17965702712535858, -0.6577823162078857, -1.2317392826080322, -1.2463988065719604, -1.4996418952941895, -0.5403968691825867, 1.2409895658493042, -1.6212294101715088, -0.9035959839820862, 1.3967915773391724, 0.9178156852722168, 0.5120382905006409, -0.8405776023864746, -1.0445209741592407, 0.5547724366188049, -0.9492565989494324, 1.0457415580749512, -1.1297553777694702, -2.800556182861328, 1.2796905040740967, 0.2199985533952713, 0.3249095380306244, 1.319007396697998, -0.8496796488761902, -0.6987038254737854, -0.20516234636306763, -0.7811664342880249, 0.6872723698616028, 0.7835897207260132, -1.1108732223510742, -3.106328010559082, -0.9897713661193848, -0.6022037863731384, -0.7153372168540955, -0.467404842376709, 0.551419734954834, 2.654942035675049, 1.0582451820373535, -0.1468161642551422, -0.8913255929946899, 0.1937909871339798, 1.9681813716888428, -0.7403607368469238, -0.8665743470191956, -0.30639445781707764, -0.5359372496604919, -0.35750812292099, -1.2398927211761475, -1.523536205291748, -0.8158796429634094, 1.1372771263122559, 0.21925963461399078, 0.4133651852607727, 0.0061524491757154465, -0.5672794580459595, -0.17038141191005707, -0.3027929663658142, -1.2868070602416992, -1.3662828207015991, -0.04625223949551582, -0.6149584650993347, 1.2366944551467896, -0.8143561482429504, 1.146209955215454, -1.178733229637146, -0.036672789603471756, 0.6718097925186157, 0.9242297410964966, 0.26971569657325745, 0.628537118434906, -0.7066188454627991, -0.8558416366577148, 0.9040606021881104, -0.5659265518188477, 0.3840969204902649, -0.7815778851509094, -0.15094131231307983, 0.4199317395687103, 1.4059346914291382, -0.8270853161811829, 1.560778021812439, -1.0952261686325073, 1.1855055093765259, 1.1880545616149902, 2.055619716644287, 0.6602651476860046, -1.1078379154205322, -0.2919580638408661, 0.45643651485443115, -0.3147018849849701, -0.41328999400138855, 0.3946205973625183, 1.1304746866226196, 0.8258382678031921, 0.9458276629447937, -0.15447334945201874, -1.6013476848602295, -0.059470854699611664, -0.9928666353225708, 1.1634254455566406, 1.609459400177002, -0.29416555166244507, 1.0819309949874878, 0.8866236805915833, -0.8611426949501038, -0.27264782786369324, 0.9804211258888245, -0.17533333599567413, -0.12276917695999146, 0.7414069175720215, 0.35395190119743347, -0.5345798134803772, 0.645367443561554, -2.9890658855438232, 0.18370741605758667, -0.4726978540420532, -0.958824634552002, -1.5123530626296997, 1.5067633390426636, -0.938051164150238, -0.638506293296814, 0.21946865320205688, -0.439242959022522, -0.1391070932149887, -0.018692156299948692, 1.6560721397399902, 1.0661178827285767, -0.18189188838005066, -1.2379671335220337, 0.514220118522644, -0.15104348957538605, 0.13773603737354279, 1.2250828742980957, -0.7642602920532227, 0.9183834791183472, 0.40576910972595215, 0.25104597210884094, 0.1281542032957077, -0.19802889227867126, -1.478035569190979, -0.5910253524780273, 0.8357481956481934, -0.22924941778182983, -1.2403943538665771, 0.24919238686561584, -1.1415528059005737, 0.7821402549743652, 0.010817415080964565, 0.3816293179988861, -1.652677059173584, -0.38139888644218445, 0.10698884725570679, -0.10149910300970078, 0.08301469683647156, 0.712009072303772, -0.9005926847457886, 0.8906894326210022, 0.47655177116394043, -0.8396266102790833, 0.33320167660713196, -1.2525506019592285, -0.5745509266853333, -1.9059150218963623, -0.9665390253067017, 0.367727130651474, -0.5785751342773438, 1.2373405694961548, 0.8713390231132507, -0.522757887840271, 1.2400078773498535, -0.905766487121582, 0.768028736114502, 1.62221360206604, 0.08158037811517715, 0.20281589031219482, 0.33024173974990845, -0.9533721804618835, 1.5734566450119019, 1.8697383403778076, -1.0638948678970337, -0.2272576242685318, 0.25006136298179626, 1.161847710609436, -0.11422315984964371, -0.05629456788301468, 0.8497498631477356, -0.8599120378494263, -0.6105663776397705, 1.0629346370697021, 1.2221823930740356, 0.771891176700592, -1.2797164916992188, -1.5433486700057983, -0.6020243763923645, 0.3213997781276703, -0.060615699738264084, -1.170371651649475, -2.773613929748535, -0.02982438914477825, -0.91661536693573, 0.4702746272087097, 1.8777929544448853, 0.5223742127418518, 0.051756951957941055, 0.4260155260562897, 0.9475129246711731, 0.4364280700683594, -0.2053070068359375, -1.4739270210266113, 0.5066304802894592, 0.2779245674610138, 1.351500153541565, -0.8949641585350037, -1.596110463142395, 0.673722505569458, -0.9970720410346985, -0.34807199239730835, 0.2176828533411026, 1.1277714967727661, -1.5005147457122803, -0.2404831200838089, -0.4854878783226013, -0.06616523861885071, -0.9029294848442078, 0.6440190076828003, 0.7591805458068848, -2.0202691555023193, -0.6739510893821716, -0.9192121624946594, 1.212047815322876, -1.3463493585586548, -0.4831593930721283, 1.7186238765716553, -0.5684311389923096, -2.9151322841644287, 1.0834310054779053, 0.07731132954359055, 1.2316521406173706, 2.9194436073303223, 1.9377914667129517, -0.5536230206489563, -1.3029974699020386, 1.0696011781692505, -0.4561823606491089, 1.3634916543960571, -2.4219810962677, -0.08308011293411255, 0.1034913882613182, 0.11661393195390701, -0.02522038109600544, 0.3788713812828064, 0.24455690383911133, -0.8915789723396301, 1.4343817234039307, -1.9291707277297974, -0.5713837146759033, -0.6671661734580994, -0.09203547239303589, 0.9548746347427368, 0.18482893705368042, -0.11677189916372299, -0.22911065816879272, -0.3448553681373596, -1.0765177011489868, -0.5477657318115234, -0.3289257884025574, 0.05841278284788132, 2.1100034713745117, 0.7726138234138489, -0.34265488386154175, 1.2370060682296753, -0.2497664988040924, 0.22397132217884064, -0.6875526905059814, -0.489844411611557, 0.399687796831131, 0.6981958150863647, 0.05211031809449196, 0.2882064878940582, 0.05950453504920006, 1.7285562753677368, 0.2920781075954437, -0.6925867199897766, -0.8442767858505249, -0.32920387387275696, -0.1140289157629013, -0.8452204465866089, 0.3004419207572937, 1.6395184993743896, -1.0744175910949707, 0.32121846079826355, 0.2892301678657532, 0.35196706652641296, 2.0987792015075684, -0.5285679697990417, -1.7715193033218384, 0.0968942642211914, 0.36735019087791443, 0.47318676114082336, 0.5876799821853638, 0.183979332447052, -0.8425887823104858, -1.6971954107284546, 1.0871516466140747, 0.6801379919052124, 1.1616994142532349, -0.17657233774662018, 0.5214431285858154, -2.3571479320526123, -0.8351162672042847, -2.262038469314575, -1.2966164350509644, 0.3269132375717163, 0.6064606308937073, -0.46068817377090454, -0.8800807595252991, -1.4766337871551514, 0.982934296131134, 0.034095875918865204, 1.1689343452453613, 0.9025653600692749, -1.7167327404022217, 0.04617787152528763, 0.09389957040548325, -1.35635244846344, -1.0603324174880981, 1.0654057264328003, 0.5447612404823303, 1.522364616394043, 0.02351505309343338, 0.28558799624443054, 0.020343216136097908, 0.9289091229438782, -0.9238923788070679, 1.1473842859268188, -0.7054344415664673, 1.1544770002365112, -1.7462857961654663, 0.7103408575057983, -0.10175959765911102, -0.9663392901420593, -1.4231536388397217, -0.7846477627754211, 0.6107109189033508, 0.2142704576253891, -0.17470814287662506, -1.7561272382736206, 1.4259073734283447, 0.5127183794975281, -0.4026731848716736, 1.9770677089691162, 0.0267170500010252, -0.25020739436149597, -0.09136287868022919, -0.5283262729644775, -0.46433013677597046, -0.15669254958629608, -1.5964131355285645, -1.5322294235229492, 0.8562206029891968, 0.4322175085544586, 0.24113479256629944, -0.05469474941492081, 0.04771281033754349, -0.8637551665306091, -1.141897201538086, -0.8292406797409058, 1.3149042129516602, 1.2470786571502686, -0.25818052887916565, -1.340453863143921, -0.5561836957931519, 1.173104166984558, 0.6859942674636841, 0.8626111745834351, -0.41023650765419006, -0.7588294148445129, 1.6981608867645264, 0.7436892986297607, -0.03276701644062996, 1.0600273609161377, 0.003909424878656864, -0.6951659917831421, -1.8829604387283325, 0.304572194814682, -0.7002271413803101, 1.7811017036437988, -0.2936820983886719, 0.5242968797683716, 1.0186315774917603, -0.15129554271697998, 1.1705763339996338, 1.6411151885986328, 0.428303986787796, -1.0703928470611572, -0.6159464716911316, -1.0194525718688965, 0.3848164975643158, 0.29434895515441895, -1.7715047597885132, 0.4349344074726105, 0.06312361359596252, -0.6894504427909851, -0.2829807698726654, 0.6600029468536377, -0.16193436086177826, 0.886084258556366, 0.5484238862991333, 0.45765289664268494, 0.9676891565322876, -0.6673583388328552, 1.6183183193206787, -0.26440465450286865, 1.354137897491455, -0.07092823088169098, -0.3697128891944885, -0.24597389996051788, 0.3293827772140503, 0.6973733305931091, 0.8342204093933105, -1.098692774772644, 0.5674765110015869, 0.8283826112747192, -3.832531690597534, 0.11584769189357758, 1.9915446043014526, 1.0238094329833984, 2.1327197551727295, 0.23347528278827667, 1.2004878520965576, -1.2668757438659668, -0.9444983005523682, -0.1793764978647232, 0.31204938888549805, 0.717379093170166, -0.2302778661251068, 0.7147674560546875, 1.443666696548462, 0.196146160364151, -0.8332573175430298, -0.952683687210083, -0.36366915702819824, -1.2479252815246582, -0.09261447191238403, 0.6533640027046204, 0.16369947791099548, 1.3456140756607056, -0.369537353515625, -0.47141557931900024, 0.4779217541217804, 0.8509474396705627, 0.36884430050849915, 1.0622302293777466, 1.763922929763794, -0.048379626125097275, 0.9127081632614136, -1.3906173706054688, -0.7096118927001953, 0.9307976365089417, -0.4243218004703522, -0.4821736812591553, 0.4773769974708557, -0.1789979487657547, 0.4937354028224945, 0.5612083077430725, -1.7986558675765991, -0.6078459620475769, -0.5876336097717285, -0.3451770842075348, -0.7287773489952087, -1.4957531690597534, 0.7350953221321106, -0.269319087266922, 0.45085909962654114, 0.04091703146696091, -0.06933283060789108, 0.2585761547088623, 0.4775455594062805, -1.4889180660247803, -1.2930028438568115, 0.8795658946037292, 0.07306429743766785, 0.9967362284660339, 1.0237910747528076, -1.2132517099380493, 0.9744538068771362, 0.45322731137275696, -0.9927570819854736, -0.2557562291622162, -0.9585699439048767, -0.5702749490737915, 0.19281719624996185, 0.3847457766532898, -0.8595814108848572, 1.2814747095108032, 0.1276102066040039, 0.6101059317588806, -1.2942535877227783, 0.6038413643836975, 1.117246150970459, 0.4163925051689148, 0.6747081875801086, 0.2249874323606491, -0.9556332230567932, -0.7779799103736877, 0.6935068964958191, -0.4358613193035126, -0.9824548959732056, -0.9062879085540771, 1.25956130027771, 0.34626761078834534, -2.0042972564697266, 0.005512263625860214, 0.46033239364624023, 1.179113507270813, -1.0105520486831665, -0.620258629322052, -1.4548780918121338, -0.5897568464279175, -0.6960206627845764, 0.5155009627342224, 0.723761260509491, -0.18846826255321503, -0.5821011662483215, -0.4351550042629242, -1.2878144979476929, 1.9290111064910889, -0.17678959667682648, 0.6398148536682129, 0.6912683248519897, 0.5198960900306702, -0.7546091079711914, -0.033411234617233276, -0.8276495337486267, -0.3524166941642761, -0.6002296209335327, -0.05797451362013817, 0.2974875271320343, 1.6327744722366333, -1.4954025745391846, -0.29969948530197144, -0.4144572615623474, -0.7832543253898621, -1.508280873298645, -1.3664311170578003, 0.9639950394630432, 0.04045804589986801, 0.24693161249160767, 0.11251302808523178, -0.534939169883728, 0.9171100854873657, 2.065865993499756, 1.0178154706954956, -1.9378867149353027, -0.5477144718170166, -0.18265697360038757, -1.2373387813568115, -0.16857317090034485, 0.688886284828186, 0.10380307585000992, -0.6988955140113831, -0.5013832449913025, -0.1714278757572174, -1.5410068035125732, -0.3302071988582611, -0.7394251227378845, -1.5103271007537842, 0.17837846279144287, -0.1793491244316101, -0.5583686828613281, -0.880412757396698, -0.8791263699531555, 1.5490630865097046, 0.015372429974377155, -0.027610722929239273, -0.4480331838130951, 1.8764188289642334, -0.8918796181678772, 0.43931636214256287, -1.030982494354248, -1.4263975620269775, 0.7195857763290405, 0.5959717631340027, -1.3461240530014038, -0.05369861051440239, -1.0822854042053223, 0.3181943893432617, -2.230900526046753, -1.0310343503952026, 0.20588766038417816, -0.8329556584358215, 0.960921049118042, -1.2231221199035645, 0.0782814472913742, -0.15562321245670319, 0.40913498401641846, 0.4989188015460968, -1.0028913021087646, 0.06786083430051804, -0.5345580577850342, -1.4051520824432373, 1.8911962509155273, 1.3595441579818726, -0.8487699627876282, -1.841177225112915, 1.3572540283203125, 1.1483440399169922, -0.8582409024238586, -0.47482022643089294, -0.9581076502799988, -0.3348093032836914, -1.7462626695632935, 0.2912493050098419, -0.4571112394332886, 0.9602430462837219, 0.4171837866306305, 1.6657739877700806, -1.8149548768997192, -0.48883718252182007, 0.3190588653087616, 0.8207234740257263, 0.26855215430259705, 0.5349103808403015, -1.9663856029510498, 0.3475550413131714, -0.3839770257472992, 0.9996393918991089, -0.411981463432312, 1.7920981645584106, -0.7672699093818665, -1.307977557182312, -1.3159326314926147, -0.1285407692193985, 1.3067461252212524, 0.1913401335477829, 1.3767470121383667, 0.6892044544219971, 0.43921586871147156, -0.04813985526561737, 1.1221709251403809, 2.794304609298706, -0.08464081585407257, -0.2434539496898651, -1.4118940830230713, -1.0503880977630615, 1.110618233680725, 0.21369199454784393, 0.5067698955535889, 0.2828640341758728, -1.1814165115356445, -0.9001671671867371, 2.1022186279296875, 0.13313262164592743, 0.022425031289458275, -0.2799490988254547, -0.6847841143608093, -0.7950332760810852, -1.7333787679672241, 1.1858826875686646, 0.4465799629688263, 1.1301037073135376, -0.3333589434623718, 0.8935588598251343, -1.4335700273513794, -0.8756160736083984, 0.009384111501276493, 0.6304294466972351, 0.8632985949516296, 1.1419644355773926, 0.3109254240989685, -0.10642467439174652, -0.7953895330429077, -1.1213213205337524, 0.8579769134521484, -1.6933249235153198, 0.28935855627059937, 0.12979160249233246, 0.802577018737793, 0.20192822813987732, 0.3846955895423889, 0.17066167294979095, 1.3613444566726685, -0.2574329078197479, 0.006673657335340977, -0.5435441136360168, -1.4135205745697021, 2.787760019302368, -1.013744592666626, 1.001903772354126, 0.8672234416007996, 0.2449631243944168, 1.3056882619857788, -1.0610337257385254, -0.040719106793403625, -1.9681334495544434, 0.646186888217926, 0.9474418759346008, -0.9643430113792419, -0.05544678866863251, 0.6487414836883545, -1.5244767665863037, -0.4629494845867157, -1.6245776414871216, 1.4023377895355225, 0.38867735862731934, 0.7254555821418762, -1.389511227607727, -0.8552696704864502, -1.5335310697555542, 0.1288852095603943, 0.2891088128089905, -0.7377328872680664, 0.8807763457298279, -0.7662639021873474, 1.4585676193237305, 1.7723872661590576, 0.32965973019599915, 0.6587340831756592, 0.6428387761116028, 0.40178006887435913, 0.6623095273971558, -0.8157885074615479, 1.7509973049163818, -0.07119281589984894, -0.3190559148788452, 0.9801297783851624, 0.11956664174795151, -0.06124546006321907, -0.9422666430473328, 1.4318883419036865, 0.13153165578842163, -0.18222470581531525, 0.3660371005535126, -0.6753576993942261, -0.32092228531837463, -1.2091906070709229, 0.07767737656831741, 0.17619068920612335, 0.578863799571991, 1.5511679649353027, 0.08444352447986603, -0.28734639286994934, -0.6621134877204895, -0.01396828331053257, -0.2777872681617737, -0.7856798768043518, 0.46062397956848145, 0.566218376159668, 1.1541569232940674, -2.3971786499023438, 0.38038408756256104, -1.0242971181869507, 0.7994512319564819, 0.8700053095817566, 0.07007400691509247, -0.338508278131485, -0.09547755867242813, 0.15840405225753784, -0.8398545384407043, 1.6116095781326294, -0.07980115711688995, 1.6326349973678589, -0.2204407900571823, -0.22251465916633606, 0.1314752995967865, 0.683012068271637, -0.1380276381969452, 1.4818451404571533, 1.6592570543289185, 0.40998774766921997, -0.0009331775945611298, -0.1083751767873764, 0.4794066250324249, -1.2922874689102173, 0.3474847674369812, -0.006388451438397169, -0.3764995038509369, 2.26790452003479, 0.9991294741630554, -0.29818224906921387, -0.7564722895622253, -0.20476730167865753, 1.405016303062439, -0.9434769749641418, 2.028413772583008, 0.3931215703487396, 0.4133126139640808, 0.4638987183570862, -0.02982708252966404, 1.2715272903442383, 1.0848652124404907, -1.0124340057373047, -0.14667245745658875, -0.49658793210983276, 0.36382463574409485, 0.3396982252597809, 1.273138165473938, -1.5371414422988892, 1.0402002334594727, -0.7641999125480652, -0.44291654229164124, -0.009090420790016651, 0.253021240234375, 0.8895691633224487, 2.015190601348877, 0.12288182973861694, 0.283156156539917, 0.5790372490882874, -0.19989891350269318, -2.4690840244293213, -1.6101100444793701, 1.7436981201171875, -0.38771313428878784, 0.7723278403282166, 0.22671592235565186, 0.8466978073120117, 0.8503185510635376, 1.8044092655181885, 1.4646685123443604, 0.2913444936275482, -1.1624996662139893, -0.4783642590045929, 1.3870203495025635, -0.05114508792757988, -0.6013848185539246, -1.144444465637207, -1.1233654022216797, -0.7945832014083862, -0.5694751739501953, 0.0549420528113842, -0.7646363377571106, -1.4184188842773438, -0.8973153829574585, -0.0699654296040535, 0.4944293797016144, 2.1871159076690674, 1.1617707014083862, 0.6346917748451233, -0.43252453207969666, -1.411285400390625, 1.8677223920822144, -0.9821573495864868, -0.958099365234375, 1.774613618850708, 1.5161906480789185, -1.0465848445892334, 1.3759163618087769, -0.23219886422157288, 0.8947616219520569, -0.11953603476285934, 0.7854304909706116, -0.5617773532867432, -0.4788385033607483, -0.7523331046104431, -0.47686854004859924, 0.7134581804275513, -1.9506268501281738, -0.6031076312065125, -0.7942026853561401, 0.023615580052137375, -0.7165514230728149, 0.9313072562217712, 0.11275313794612885, 0.2154434323310852, -1.2841796875, 2.2291040420532227, 0.8249357342720032, 0.4553866684436798, 0.5599141120910645, 0.21209175884723663, 1.1861251592636108, 0.2881997525691986, 1.6998308897018433, 2.432499408721924, 0.2585121691226959, 1.3330131769180298, 0.12649448215961456, -0.15770527720451355, 0.5783246755599976, 1.2233283519744873, 0.791765034198761, 0.5074418187141418, 0.4391697347164154, -0.8357943892478943, -0.6900646686553955, 0.4646506905555725, 0.9826740026473999, 0.41359904408454895, -0.5239112377166748, 0.13422854244709015, -1.1245696544647217, 1.3094075918197632, -0.07285541296005249, 1.1227099895477295, -0.24534782767295837, 0.2722645699977875, -0.428587943315506, 0.8239985108375549, -1.3989880084991455, -0.6815629601478577, 0.8538435697555542, 1.5678290128707886, -0.5997704267501831, 0.23984402418136597, 2.1043002605438232, -0.7700114250183105, -1.5130436420440674, -0.5582384467124939, 0.3878994286060333, -2.2768142223358154, 0.37306782603263855, -0.9947562217712402, -1.3262041807174683, -1.4498616456985474, 0.1425102800130844, -1.143309235572815, 1.3394620418548584, -0.996752142906189, -0.6021904945373535, 0.32188680768013, 0.1322384774684906, 0.3467099368572235, -0.08159374445676804};

static float fusedconv_ofmap_dram[3][4][14] = {-0.012030363082885742, 7.496150970458984, 12.106353759765625, -9.193533897399902, 2.371375322341919, -19.847702026367188, 5.867330551147461, -7.920509338378906, 20.64859390258789, -3.071974754333496, 8.189715385437012, 10.845477104187012, -1.3425853252410889, 0.4322776794433594, -5.182909965515137, -2.482235908508301, -2.344177722930908, -3.2787046432495117, 2.725109577178955, -2.6879236698150635, 8.40345573425293, 8.671367645263672, 1.1786381006240845, -2.888185501098633, 9.704364776611328, -12.030684471130371, 0.9381060600280762, 3.7652833461761475, 4.422159671783447, 5.910114288330078, -10.220657348632812, 20.84920883178711, -8.297577857971191, 2.8023343086242676, 18.444202423095703, 3.398622989654541, 1.6795191764831543, 4.836993217468262, 0.5383977890014648, -1.9573869705200195, -11.233190536499023, 6.980514049530029, 2.2072601318359375, 6.530689716339111, -2.745490550994873, 3.1593124866485596, -12.850174903869629, -0.5839443206787109, 0.9189157485961914, -7.9138898849487305, -0.7437918186187744, -6.124758720397949, 9.046822547912598, 8.67660140991211, 7.351181983947754, 3.6262550354003906, 0.1904773712158203, 3.3676490783691406, -6.882430553436279, -11.833398818969727, 17.900344848632812, -0.33165597915649414, 16.041290283203125, 0.3130922317504883, 2.5650362968444824, 4.717452526092529, 7.281670570373535, 13.761810302734375, -9.595609664916992, -2.7473130226135254, 3.503847599029541, 24.310867309570312, 2.207505702972412, 0.2908039093017578, 2.4102325439453125, -8.918039321899414, 28.318378448486328, 6.292835712432861, 15.789070129394531, -2.2678375244140625, 22.950952529907227, 14.966649055480957, 13.837610244750977, 3.8992981910705566, -11.906997680664062, -5.542895317077637, 12.128249168395996, -15.936982154846191, 1.0066518783569336, 7.598635673522949, 17.36904525756836, -15.602157592773438, 4.319538593292236, -8.81711483001709, 3.9395012855529785, -18.015045166015625, -6.858034610748291, 2.349968910217285, 19.353382110595703, 13.669654846191406, 2.844862937927246, 1.8003787994384766, 5.115533351898193, 11.05468463897705, 3.5167112350463867, -2.330263137817383, 6.6379194259643555, -1.9835705757141113, -5.93989372253418, 4.378844738006592, 25.131519317626953, 7.447433948516846, -1.5108284950256348, 8.129434585571289, -4.9766316413879395, 1.9778200387954712, -0.6097453832626343, 21.90987205505371, 14.371158599853516, -10.626276016235352, 19.1301326751709, -6.71649169921875, -6.141371726989746, -8.745012283325195, -5.506326198577881, 14.657021522521973, -1.8983454704284668, 18.04278564453125, -6.421466827392578, -8.279775619506836, 10.928298950195312, 3.755782127380371, -8.853792190551758, -3.74924898147583, -5.382287979125977, 2.754141330718994, -10.155502319335938, -1.704887866973877, 4.014101982116699, 15.51625919342041, -6.511033058166504, -7.15570592880249, -13.639328002929688, -1.809035301208496, -3.802670478820801, 5.088322162628174, 4.225011348724365, 2.6996235847473145, -2.907132387161255, 9.388809204101562, -8.220907211303711, -17.367473602294922, 8.821647644042969, -0.7751647233963013, -1.1032567024230957, -6.971593856811523, 0.6984395980834961, 17.407787322998047, 12.045568466186523, -0.803520679473877, 2.2010297775268555, -4.141769886016846, -10.912898063659668, -5.186519622802734, 5.90703821182251, 7.874002933502197, -2.171767473220825, 4.6333513259887695};

